4675 50
go -0.19589673 -0.17154832 -0.10470449 0.32978734 -0.07445678 0.5310174 0.2183187 -0.0039383313 -0.7165716 0.24960572 -0.34147462 -0.019213902 -0.09132729 -0.5509924 -0.022823408 0.29512405 -0.3198472 0.123574436 -0.2545526 0.07643159 -0.26678577 0.38311327 -0.35952595 0.075101994 0.23984456 0.5396591 0.39459407 -0.11681615 -0.009211479 0.18644328 -0.41419154 -0.017166244 0.40277067 0.12447726 0.47893804 -0.22005565 0.20392567 0.6483294 0.69471574 0.023806643 0.54521954 -0.026920712 -0.09290466 0.16396499 -0.27852923 0.2472818 -0.5868655 0.05754953 0.14094253 -0.36476398
one -0.37142646 0.25427124 -0.22921677 -0.01489147 0.24512634 0.24982397 -0.6328247 -0.27647915 -0.29141143 -0.5157724 -0.23887229 -0.24342479 -0.0044221706 0.2256895 -0.050854754 0.4751411 0.06611664 -0.25606722 -0.17814177 -0.028485332 0.49527994 0.19051108 0.2736192 -0.10272365 0.18796745 0.28960288 0.20087369 0.5387381 0.1906716 -0.2731826 -0.064005286 0.01934853 -0.16436848 0.4438711 -0.12485635 0.06090813 -0.3451172 -0.23979497 0.048143383 0.33636284 0.03819286 -0.10278391 0.4788032 0.40565723 -0.45503578 0.44049865 0.052429598 -0.22986554 -0.021877363 0.115317464
get 0.31124237 0.50355154 0.12178988 0.6864892 0.24495767 0.11692222 0.18007179 0.010832086 -0.6384191 0.3958021 -0.38063753 0.13501228 -0.39323166 -1.0883954 0.34302932 -0.02629559 -0.10789122 0.23265918 -0.5715469 -0.10690673 0.1157466 0.75377333 -0.06966629 -0.22323163 0.3167343 0.19705516 0.6726584 0.25485152 0.43318146 0.47360143 -0.22283174 -0.08057098 0.58375955 -0.23868527 0.2447413 0.13136895 0.10434726 0.5128034 0.55331177 -0.061378833 0.44442627 -0.4940421 0.2904248 0.20835902 0.050699335 0.43347627 -0.0049424963 -0.4454385 -0.120452225 -0.18073888
people 0.06795065 0.088839106 -0.9555532 -0.5432937 0.14922649 -0.5636984 0.039017368 -0.39784375 -0.17144981 -0.31624633 0.37572825 0.11920402 -0.5627668 0.287622 0.44875032 -0.23676327 -0.15020217 0.014685018 0.3857629 -0.024731588 -0.5133832 0.07986948 0.50223005 1.3101249 -0.51549023 0.04654242 0.11251959 -0.31381273 0.09190475 -0.39940542 0.32091784 0.8833451 0.6795469 0.011672902 -0.1499664 0.23064482 -0.47491938 -0.076261975 0.6525466 -0.600165 0.15006866 -0.78594184 0.8111385 0.08204961 0.5476804 0.18754973 0.6256274 -0.34779838 -0.2792509 -0.29665074
like 0.10746782 0.028830182 0.79509467 0.22363837 0.27494225 0.23440738 -0.10670903 0.6199399 -0.17717803 -0.22737049 -0.32047048 -0.21613742 0.48903385 -0.06439379 -0.37027913 0.19554296 -0.27915633 0.38096678 -0.08386995 -0.0020098933 0.13984406 -0.18479581 -0.10164997 0.14839019 0.28145683 0.21824963 0.2592648 0.498569 0.19875872 0.057641838 0.19161092 -0.41224524 0.01673646 -0.056445803 0.36663258 -0.4170261 0.38767067 -0.26094538 0.21535048 0.23515181 0.7030582 -0.24726428 0.14830355 0.18224137 0.40934592 0.10049502 0.21492362 -0.36920354 0.4753578 0.23845421
say 0.85487 0.0002826815 0.044734478 0.17721963 0.041274678 0.28703815 0.010984168 0.5813222 -0.29636857 -0.14594315 -0.38214147 -0.5026132 0.5119841 -0.8233972 0.3942509 0.32482478 0.10028378 0.1380474 0.0070081316 0.5058687 -1.0358068 0.59713817 0.93405735 0.52114785 0.45413768 0.41576067 0.040585432 -0.049046688 0.1523756 -0.3975662 0.14548141 -0.48230717 -0.19388583 0.49389628 0.7938171 -0.03883034 0.25774637 0.07250712 0.14175099 0.6973898 -0.29094988 0.3696647 0.074548244 -0.03914622 0.049068406 0.8323655 0.14586641 -1.2342663 0.09592369 -0.044210818
would 0.5403157 0.3780053 0.18040681 0.29983774 -0.006183061 0.09540715 -0.10023517 -0.16519794 -0.42377073 0.41036585 -0.11673217 -0.19084398 -0.22075257 -0.0015233217 -0.06318495 -0.085126825 -0.14909445 0.22971416 0.17881033 0.41063458 -0.3036775 0.468533 0.06771152 0.176257 -0.28323987 0.2892129 0.47541502 -0.2131399 -0.033824902 -0.068087675 -0.040987432 -0.1020087 0.164294 0.2655282 0.49347028 -0.41777554 -0.012873438 0.29133004 0.65871805 0.091786884 0.12362194 0.13398837 0.29425701 0.08701155 -0.07332487 0.5856914 0.10540933 -0.5392313 -0.11062356 0.012708387
think 0.15175793 -0.5060707 0.040490612 0.18810265 0.54427683 -0.3456768 -0.5571304 0.8432195 -0.14037484 -0.1587114 0.63988465 0.13701001 0.055515468 0.14238906 0.42946607 -0.21441428 0.372375 -0.19434194 0.07738754 0.14763895 -0.503002 -0.0060631596 0.19418348 0.63668877 -0.21122365 0.12975778 0.52704686 0.06654742 -0.071362 -0.11475347 0.16312514 -0.6650954 -0.092033714 -0.1498977 0.82206225 0.24479637 0.10857392 -0.21056889 -0.40725505 0.6818442 0.1936651 -0.09683835 0.14663047 -0.08083089 0.6209454 0.028274875 -0.39526686 -0.16277888 -0.38268912 0.0034655964
know 0.24237922 -0.37066343 0.39942563 0.117755055 0.55097765 0.09666144 -0.07534436 0.46156645 -0.1888226 0.121105544 -0.18672274 -0.22804184 0.2756995 -0.3643939 0.2012756 -0.14945307 -0.07134075 0.01860076 -0.006229409 0.3800401 -0.37257832 0.14508142 0.5389369 0.43035367 -0.039206147 0.20239617 0.2008185 -0.09967428 -0.12156334 -0.024791872 0.18067664 -0.36846226 -0.14403225 0.14039542 0.22427157 0.2568968 0.2554846 -0.014630253 0.19808209 0.25947773 0.22178736 -0.111549504 0.3628867 0.11673531 0.4842026 0.29441527 0.08064445 -0.6561376 -0.2070926 -0.2714931
see -0.22390348 -0.58902687 0.7263007 0.21591093 0.45645884 0.89520603 0.0989934 0.5098493 -0.13342871 -0.42605916 -0.41133663 -0.16998959 0.18453966 0.21337922 -0.30782843 0.013116086 -0.28451186 0.032716468 -0.15308306 -0.54808146 0.38282374 0.1303074 -0.6627967 -0.2451742 0.12599581 0.31222028 0.39571962 0.9095499 -0.6706705 0.17414956 0.3379818 -0.03129463 -0.15828773 0.10607702 -0.067905866 -0.17535122 0.3601802 -0.23773544 0.3524419 -0.63900465 0.67711973 -0.23951839 -0.065024674 0.34507614 -0.02411967 -0.12446052 -0.26947007 -0.17920977 0.65162265 -0.049336057
make 0.5530168 0.5155749 0.11008849 0.63479924 0.60308063 0.021526644 0.011319993 0.8150572 -0.19491653 0.18646902 0.5851347 0.112958975 -0.47097132 0.1648568 -0.53001386 -0.03634151 -0.43342128 -0.026784152 -0.9339588 0.17234388 0.068475656 -0.17606498 -0.8308509 0.019399734 0.23370926 -0.16662411 0.6633415 -0.63361305 0.6618479 0.40414268 0.18941493 0.2320161 -0.32465994 -0.56034833 0.5093285 0.9056495 0.20408595 -0.36329988 0.17278387 0.40106642 0.61991173 0.011678579 0.2675632 0.3329309 0.21623571 0.06061739 0.21931618 -0.40946826 -0.48771676 0.1062775
thing -0.052811474 0.13524514 0.68195534 0.35200942 0.5735648 -0.079453066 -0.24344848 0.40357456 -0.29099283 0.029973987 0.9316855 0.09222441 -0.6850569 0.64002824 0.0068584033 0.023085969 0.3312861 -0.03639753 0.24732195 0.036369674 -0.41664204 -0.028123874 0.013012764 -0.09543078 -0.29553902 -0.46621373 0.44727385 0.5398746 -0.0405225 0.12953414 0.32278803 -0.12526342 0.379151 -0.69023484 0.5414471 0.094459616 -0.32656673 -0.24824429 -0.046800822 0.8048965 -0.025620453 -0.14402376 -0.0013106699 0.3710143 0.65859795 -0.32178658 -0.6020383 -0.07908969 -0.47533 -0.2729647
us 0.868872 -0.23646675 -0.80364674 0.36855444 0.16356753 0.13694532 -0.48892778 -0.21099475 -0.22719146 0.28247473 0.37249514 0.8085901 -0.2716559 0.47197866 -0.04929906 -0.2957768 -0.12297777 -0.14534467 0.6266458 0.99838924 -0.18268146 -0.0667825 -0.18973027 0.9303883 -0.20774665 -0.34848794 0.23749748 0.06664249 -0.54406047 0.19275083 -0.15715194 0.012911309 0.27517375 -0.25040194 -0.08717054 -0.054712277 0.05417607 -0.48231512 -0.24639942 0.44322357 0.7069997 -0.1554163 -0.4853931 0.4321374 -0.0025821293 -0.5449733 -0.60082483 -0.17376024 -0.092263594 -0.5767689
time -0.75090766 0.08942664 -0.17521141 -0.32034546 -0.018185072 0.41626078 0.19788913 -0.6119409 -0.200086 0.23014084 -0.17187844 -0.30737647 -0.73769516 0.14540152 0.47826245 0.3233568 0.4792265 -0.9058249 -0.2222121 -0.3711142 -0.038861554 0.4625846 -0.4410692 -0.10307201 -0.6202005 0.41808486 -0.05552188 -0.21904728 -0.20969926 -0.16173713 -0.10819007 0.8381119 0.44227093 0.51616096 0.36223853 0.21421088 0.082008876 -0.68499964 0.9466634 0.04184199 0.15595295 -0.051680956 0.10529057 0.22612306 -0.62299454 0.112982124 -0.39770055 0.07976401 -0.6562429 -0.28071955
year -1.9913449 -0.8373278 -1.1533929 -1.286461 0.22774027 0.116061345 -0.21463948 -1.6778361 -1.3029618 0.08224764 -0.8675022 -1.2269267 -1.0120459 -0.4963255 0.77861804 0.43679821 0.3969766 -1.5184916 -1.2965267 -0.68566036 0.161044 0.5917883 1.1573696 -0.22223324 0.2628579 1.1378819 -0.96089095 -1.2048361 -0.72637415 -0.7375534 -0.27956724 1.2668154 -0.15312469 1.8225601 0.4572075 0.0793993 0.5078102 -0.051171627 1.2390139 0.2157426 -1.0950025 -0.50207216 0.3746192 -0.01566466 -0.94814664 1.1490272 -0.43211576 1.4759347 -0.47519717 -0.36961412
look -0.3202205 -0.6645372 0.6302809 0.08253018 0.4257563 0.8047956 -0.32047138 1.017164 -0.5373885 -0.21315731 -0.136026 -0.35454023 0.39297095 0.20356084 -0.42147285 0.43570468 -0.2623421 0.083294205 -0.18800366 -0.07642557 0.03575408 -0.07461596 -0.650829 0.028062223 0.34243882 0.042566217 0.30424553 0.95656914 -0.24665155 0.66328824 0.17909187 -0.15004705 -0.04084158 0.41733044 0.2817365 0.08369196 0.38533807 -0.18738511 0.045155987 -0.59580904 0.5595296 -0.3271106 -0.03233885 0.4328627 0.30327138 -0.3581026 -0.33764967 -0.5574708 0.5585295 -0.33211792
want 0.72268164 0.23253715 -0.17924118 0.5371536 -0.31786573 -0.0031450917 -0.26135695 0.036928795 -0.30706745 -0.005683894 0.22132352 0.3739497 -0.19259238 0.062007606 0.20305592 0.11492303 -0.16762766 0.7741035 0.09343974 0.7367546 -0.44623238 -0.073735125 0.16168514 0.82952225 -0.15940134 0.30768195 0.1687334 -0.111291274 0.36083227 0.11295634 -0.056263383 -0.10328255 -0.00492446 -0.19712342 0.5579698 -0.07166721 -0.17756501 -0.26140767 0.1415056 0.6593016 0.010222467 -0.12552248 0.10414467 0.24213791 0.17527118 0.48024684 -0.23569 -0.79593086 0.046740152 -0.48860317
really 0.28469774 -0.18201894 0.20293833 0.1866596 0.6845797 -0.20382896 -0.4021715 0.8694762 -0.1826368 0.097794615 0.83919966 0.7947642 -0.70220596 0.11895031 0.31273994 -0.09849403 0.21195279 0.2730958 0.0045272037 -0.075671144 -0.23651184 0.11799033 0.037311308 0.26583362 -0.50497115 0.10737478 0.5397661 0.21364845 0.31855333 0.41812423 0.45211723 -0.54512554 0.084612995 -0.8394209 0.6111626 0.34364668 0.028491009 -0.25824574 -0.22007552 0.8952211 0.13561583 -0.29724282 -0.028359879 0.19866061 0.7390012 -0.37816918 -0.70832527 -0.29748318 -0.4123947 -0.4126929
take 0.24906012 -0.0842486 -0.15621851 0.17651525 -0.4032932 0.6817043 -0.2562664 0.016049264 -0.46345556 -0.36115843 -0.7250127 -0.19548926 -0.37814513 -0.5302447 -0.20584986 0.18228677 -0.20212334 -0.4516822 -0.48532328 0.39259392 0.69077635 0.095532894 -0.600392 0.30132416 0.703982 0.12675922 0.04247006 -0.039588623 0.27014428 0.49171782 -0.6582157 0.11353971 0.20620829 0.75554544 0.4313882 0.20874512 0.22036052 0.25589886 0.6294671 0.25104672 0.71339786 0.025505243 -0.086279325 0.14297219 -0.18086874 -0.051770717 -0.3031541 -0.2549102 -0.2698436 -0.3618282
come -0.2002157 -0.3811863 0.03596719 0.20891936 -0.36536574 0.6180893 -0.1297154 0.5022546 -0.38220942 -0.33395353 -0.43601802 0.3464983 0.31587613 -0.6722321 -0.046480082 0.1990548 -0.48885092 -0.09784858 0.041536335 0.041907288 0.06655218 0.25530815 0.18557352 0.358946 0.611405 0.6289547 0.16445543 -0.23188871 -0.29740453 -0.39429024 -0.16935258 -0.29503828 0.34687245 0.25214764 0.22055276 -0.19104631 0.18971673 0.31152743 0.51254886 0.06199901 0.85422844 0.108942375 -0.057191834 -0.045616586 -0.39625788 0.12899739 -0.11780648 -0.042457752 0.49804094 -0.082164906
way -0.046589278 0.10577176 0.28351012 0.29409054 0.2514153 -0.460079 -0.18342789 0.24626659 0.07665194 0.185391 0.7480644 0.6291635 -0.3231044 0.9855437 -0.16952924 -0.22643666 0.31773221 0.0865121 0.40716383 0.21281286 -0.26221254 0.22794162 -0.63963485 0.5921584 -0.006882074 -0.30128297 0.3890074 0.22414462 -0.48647436 0.3585304 0.36096898 0.37981933 0.8105779 -0.5976505 -0.1520949 -0.12635069 0.030864323 -0.15101254 -0.55067396 0.23707391 0.50117725 -0.089433104 0.037889186 0.08779164 0.14258832 -0.5520745 0.11684061 0.17739865 -0.046985015 -0.50399333
world -0.20162097 -0.48881322 -1.1326182 -0.9931498 -0.14695314 -0.1413255 0.29868248 0.4601864 0.8400931 0.06878098 0.7498795 0.49766514 0.7494901 0.36996686 -0.84676546 -0.44443655 -0.2835896 -0.42233288 -0.09393031 -0.47709727 -0.21174826 -0.483311 0.01882998 0.9586984 -0.7991179 0.19006054 -0.06819861 -0.20451704 -0.8385882 -0.27871084 0.2234808 1.1818211 0.5477638 -0.07209528 -0.2978722 0.27399823 -0.29963642 0.10575017 -0.26839623 0.32006884 0.8626959 -0.56554663 -0.34011415 0.41032845 0.2858765 -0.45637497 -0.11099256 1.0954664 -0.0872476 -0.09812083
work -0.069134854 -0.18904078 0.011219052 -0.16472243 -0.3028258 -0.2773515 0.06016158 0.3236904 0.13813609 0.13783641 0.52958804 0.65492535 -0.78697175 -0.6512585 0.037893377 0.02070617 -0.2904864 0.23788579 -0.48151055 -0.092455514 -0.1427879 -0.06327402 -0.222271 0.96944994 0.4693588 0.68832844 -0.28785408 -0.68736213 0.2545343 0.34084645 -0.3424427 -0.07187402 0.2007905 0.16634208 0.031591773 0.8348312 0.15210591 0.1819202 -0.22116448 0.83320373 0.07789904 -0.09517005 0.40259746 0.20711973 0.19187455 -0.106279835 -0.2994976 0.4622338 0.06564259 -0.5609585
well 0.41913077 -0.23825142 -0.015941935 -0.0067751254 0.51820993 -0.6298545 -0.32100758 0.23160605 -0.24495398 0.5054727 0.09183432 0.10932746 -0.21292561 -0.4780046 0.06004168 0.052263472 0.028576069 -0.060969952 0.14805482 0.118273355 -0.31145626 0.22041169 -0.12090237 0.49457845 -0.004235218 0.16505824 0.29603276 -0.00032470864 0.26588047 0.5659741 0.008946779 -0.14417373 -0.03684435 -0.09892497 0.098518774 0.20678334 0.2735896 -0.20056866 -0.33332938 0.25327742 0.055732016 0.37941593 0.51506317 0.14739798 0.17901461 0.24712999 0.23280361 -0.36016828 -0.26798767 -0.31297088
could 0.51845145 0.64166236 0.23941569 0.19399036 -0.06923922 0.35274768 -0.09290732 -0.08483606 -0.54226947 1.0022081 0.29170278 0.14634319 -0.6748761 0.39312991 -0.0713293 -0.48995095 -0.15604444 0.41145572 -0.24798377 0.73008287 0.26672038 0.57649887 -0.17177038 0.24684116 -0.2369655 0.060332872 0.34873945 0.09228853 -0.27836782 0.42448595 -0.12690581 0.11621342 0.23802134 -0.010514278 -0.18931259 -0.047900625 0.16767552 0.13410382 0.40394545 0.1701043 0.6933115 0.08927076 0.44262522 0.4028764 0.041758396 0.028596718 0.33461556 0.0647674 -0.18792136 -0.043135025
use 0.28415626 0.88354653 0.8527105 0.59531075 -0.326045 -0.28367734 0.22109486 0.5486612 -0.63274556 0.42436728 0.6562039 -0.0010185931 -0.22756347 -0.635544 -0.33368984 -0.35561258 0.06518987 0.3740232 0.03211498 -0.0143524725 0.9151596 -0.49252874 -1.1387877 0.41118404 1.3482873 -0.39968222 -0.47588694 0.6104342 0.18652831 1.1003636 0.50130886 0.3391111 -0.09398711 -0.16936055 -0.47426382 0.46108735 0.10834832 -0.1657866 -0.23794481 0.7839848 1.2661514 -0.06348363 0.41849944 0.40613425 -0.07347608 -0.18975696 0.37467217 0.82201 -0.36263117 -0.0143492175
actually -0.11010072 0.100634225 0.3005949 0.20197415 0.2685645 0.13241285 -0.54429954 0.02554488 -0.3163634 0.3727575 0.3034463 -0.06520084 -0.4521144 0.11067341 -0.17860945 0.014687067 -0.012566232 0.33061582 0.065346055 -0.09934805 0.53860575 0.25294805 -0.6764198 0.15424675 0.15497866 -0.32846242 0.41515514 0.35818234 0.17511518 0.5267666 0.015119784 -0.030897211 0.18897723 -0.24762078 -0.35431945 0.2656723 0.2669146 -0.15015054 0.17145063 0.2126333 0.26722458 0.074009396 0.546637 0.16254982 0.29839036 -0.19610533 0.03064045 0.21761125 -0.040395737 -0.19680142
right 0.20568314 -0.4534146 -0.40726915 0.68868643 0.012827758 0.590011 -0.07219911 0.17574309 0.5724916 -0.3775579 -0.39223677 0.08037109 0.21106921 -0.14236197 -0.634287 0.4829376 -0.47232184 0.28443313 -0.435687 -0.20395221 -0.40025622 0.91929555 -0.3891799 0.15906277 0.2666515 -0.43697596 0.19265907 0.43241516 -0.13739306 0.17022432 0.41802794 0.3641222 -0.10630451 0.3123606 0.26887655 -0.046383306 0.18414065 0.39521012 -0.54056174 -0.055659976 0.3717102 -0.36375076 -0.2138038 -0.08434731 0.21950097 -0.100955084 0.17669293 -0.3913135 0.6250119 0.0487777
start -0.3499986 -0.20882843 -0.21419871 0.29983935 -0.3378274 0.25110367 0.24053545 -0.030432707 -0.7019806 0.17171395 0.15177248 0.01619859 -0.22072981 -0.43352503 0.4973275 0.79957044 -0.32658225 0.40262312 0.018854268 -0.4330594 0.30338156 0.43917996 -0.27560726 0.55449903 0.23285162 0.49154305 0.047020517 -0.3314029 -0.17323291 0.12370324 -0.29074883 -0.3358919 0.115400895 -0.40239462 0.2265387 0.013455987 0.3812161 0.1493441 0.61428195 0.4880829 0.23261881 -0.16503307 0.09001442 0.43334398 0.048360545 -0.06214019 -0.41767207 0.6441826 0.72750735 -0.13646461
life -0.019059353 0.5519605 0.12143567 -0.7600489 -0.2589393 -0.4351646 -0.38331422 -0.7452197 -0.049912278 0.012102165 0.11066354 0.5343447 -0.48100415 1.0754011 0.3001644 -0.24872462 -0.31176683 -0.7916079 0.007490641 0.37611496 0.23027568 0.037785735 0.15397444 0.1310927 -1.5057974 0.6944538 0.7309675 -1.1490351 -0.97193116 0.03168535 -0.35677785 0.28919783 0.35551232 -0.18598835 0.74719113 0.67960125 -0.7058168 -1.3613628 -0.28438792 -0.4394894 0.17973591 -0.863259 -0.31878474 0.2183927 0.1286293 -0.47681138 -0.2840835 0.35231677 -1.5577466 -0.9642269
first 0.062607415 -0.2932011 -0.27131462 -0.07134206 -0.4880085 0.10053738 -0.15330172 -0.1290586 -0.1537737 -0.060723964 -0.31381825 -0.3088498 -0.14761518 0.013324598 0.29419988 0.5397434 -0.12834792 -0.13264719 -0.01846931 0.09842196 0.9622637 0.5021624 -0.025206007 0.192504 0.55233794 1.0115767 0.058686394 -0.03995039 -0.24591649 -0.36735559 0.12659928 -0.33673057 -0.37568694 0.6817722 0.18423894 0.2616581 0.12757444 -0.05044785 0.46807235 0.5818374 -0.09697625 0.23055167 0.2628327 -0.34947115 -0.24520737 0.5847711 -0.09594968 0.65779406 0.33551174 -0.15775305
something 0.1843136 0.3268903 0.42089558 0.079081275 0.49611473 0.16347194 -0.38759091 0.15209833 -0.1804363 0.31373006 0.6265622 0.07205533 -0.3993902 1.1235812 0.467309 -0.6183884 0.112534456 0.25419965 0.27072144 0.22679684 -0.4613598 0.2908915 0.10549553 0.3689777 -0.22092351 -0.27987382 0.4639403 0.12389849 -0.00765531 0.21935005 0.2514765 -0.075427875 0.3831025 -0.35795894 0.5268556 0.069085 -0.08765201 -0.45347095 -0.10731935 0.74688 -0.14714916 -0.07809255 -0.1687652 0.27907482 1.027098 -0.1826019 -0.6284117 -0.39181426 -0.24796286 -0.022937803
two -1.1345487 0.34383088 -0.39967042 0.31646463 -0.018935014 0.40326044 -1.0495192 -1.534931 -0.45019606 -0.6054458 -0.72504395 -0.16467358 -0.042794734 0.22352871 -0.1844415 0.8289204 0.3586848 -0.83038986 -0.74102 -0.5879275 1.0611205 0.5724228 -0.10780856 0.13432275 0.29300758 0.7489209 -0.051315293 0.43777418 -0.023328112 -0.2122925 -0.32303274 0.1984383 -0.055482928 0.7727845 -0.12669937 0.24073663 0.10998478 -0.21390499 0.61130726 -0.019604592 0.12653644 0.50972354 0.76293397 0.4187685 -1.2875197 0.70771116 -0.14110863 0.08853667 0.11582429 0.64955217
good 0.6531613 0.31204605 -0.17550339 0.07589585 0.51629484 -0.9598575 0.1826058 1.0702025 0.0100510605 -0.021309417 -0.041195817 0.011197943 -0.16201442 -0.84634894 0.21934378 0.07257763 0.03109478 0.5247181 0.08468208 0.6282057 -0.40819848 0.036415964 -0.14343275 0.44495118 -0.081024714 0.26631412 1.0238441 -0.15471937 0.620271 0.16316772 -0.36139652 0.112226434 -0.6342075 -0.69830066 0.11956537 0.6098763 -0.16382055 -0.3592262 -0.32264394 0.7492355 0.1276182 0.78936744 0.48996398 0.23571022 0.09103346 0.20852119 0.7095491 -0.75925326 -0.7342093 -0.5042729
call -0.36535653 -0.28255576 0.55451035 0.033296954 -0.49233148 -0.09873285 -0.20922849 0.43118545 0.33428496 -0.34536147 -0.23617579 -0.05293327 0.81210065 -0.6476995 -0.018697578 0.22954077 -0.5917433 0.18889563 -0.23347858 -0.21851811 0.47178313 -0.28493577 -0.51039183 0.16880007 1.6172358 0.47384876 -0.50645953 0.09984426 -0.31433943 -0.5320767 0.3931445 -0.61841595 -0.30884722 0.41624117 -0.50068104 0.2569599 0.1606793 -0.43517548 0.10843655 0.6423146 0.37634113 -0.2903125 -0.10636691 -0.007973429 -0.01154789 0.42416248 0.33884293 0.5175562 0.86206394 0.02077994
need 0.92292446 0.05698514 -0.35315672 0.65686387 -0.21542835 -0.87169135 -0.013192138 0.23002805 -0.1972436 0.38085172 0.49789867 1.3246142 -0.6140297 -0.078015655 0.40629527 -0.15390074 -0.43023726 -0.07056032 -0.30781576 0.33861354 -0.212066 0.2843331 -0.3812118 1.1215363 0.14190042 -0.44195524 -0.10868142 -0.26206255 0.26663724 0.8875306 -0.62337416 0.92090666 0.44194704 -0.56991184 -0.1175221 0.6780566 0.1844975 0.059612874 -0.76523894 0.47926638 0.79902536 0.0799436 -0.12682667 -0.25865018 0.3845308 -0.22762854 0.5227323 0.19515397 -0.543671 -0.09240709
much 0.26074323 -0.0670952 -0.3926476 -0.6511959 1.0218669 -0.09419393 -0.15704891 0.37882724 -0.120885134 0.56012565 0.26591167 0.18682513 -0.3061603 -0.7289477 -0.18241037 -0.15812421 0.8825019 -0.31204903 -0.15931033 -0.20276713 -0.0021008304 0.5981558 -0.16834037 0.23478726 -0.3427384 -0.26183337 0.47418478 -0.0867322 0.65194714 0.61956066 -0.116570905 1.0175203 -0.012905499 -0.72736967 0.41959444 -0.12080674 0.5656301 -1.028943 -0.27616224 -0.2088147 0.57222134 0.10994743 -0.20107435 -0.19172198 0.52645075 -0.006675379 0.17177947 -0.4361671 -1.1754127 -0.27233332
tell 0.58971125 -0.13312316 0.20239857 0.4596945 0.017639017 0.21093619 -0.26211467 0.23428601 -0.71054626 -0.15373568 -0.33457923 -0.087762274 -0.037823517 -0.39044398 0.6799976 0.12701005 0.01851712 -0.3378975 0.19234887 0.49545786 -0.51230544 -0.10496464 0.35228324 1.1034122 0.1732477 0.4210156 0.27348265 -0.20285647 -0.31863588 -0.24588506 0.23640707 -0.9266531 -0.5407923 0.48296022 0.47706738 0.22396895 0.43511096 -0.2556068 0.55811995 0.23122376 0.24129678 0.14568761 0.3519813 0.4038864 0.19878305 0.038916245 -0.49180144 -0.78094655 -0.14978191 -0.57848024
find -0.6132381 -0.16848665 0.6272201 0.08654718 0.40246773 0.5730995 -0.53128034 0.8463941 -0.53025305 -0.095163375 0.24472885 -0.13766195 0.13712822 -0.33570778 0.2628979 -0.45180735 -0.51013994 -0.17804655 0.27894312 0.13040993 0.7732529 0.08810323 -0.109277084 0.02066418 0.3373072 -0.04351574 0.083612636 -0.1699943 -0.018870851 0.34400302 0.4006108 -0.21357463 0.22514106 0.15913588 -0.23816149 0.93434244 0.24562843 0.32386354 0.21132314 -0.08660484 0.11969259 0.18409282 0.7348335 0.35558736 0.46495837 -0.23352556 -0.022936778 -0.17271765 -0.16572173 -0.5185843
also 0.116160706 0.09943364 0.09703656 -0.072095975 0.2607046 -0.5488577 -0.45417255 0.4571589 0.5421155 -0.15636405 0.5245755 0.5305174 -0.49471787 -0.18752757 0.085516386 -0.25413916 -0.20266412 0.11243365 0.29699054 -0.16149604 0.35770312 -0.30349612 -0.386496 0.5855949 0.014871287 -0.16602604 0.12804234 0.17399973 0.008769989 0.5354903 0.18413866 0.07569346 -0.11706109 -0.6280985 -0.5491148 0.27741942 -0.013191174 -0.6898117 -0.41729206 0.20642805 0.6028201 -0.19987878 0.1482841 -0.284942 0.47078067 -0.29646814 0.52219003 0.31221333 -0.10442429 -0.38036188
new -1.557768 -0.44851202 0.08138639 0.061306164 -0.8776508 -0.59803635 -0.19216813 1.8633559 0.6615681 0.7836095 0.52225316 0.29097298 0.004600128 0.69118875 0.1731433 -0.12823838 -0.23468067 0.056978937 -0.33748072 0.8195753 1.3633503 -0.06726824 -0.61469203 1.5678445 1.0786982 0.7038566 0.4386393 0.061664876 0.08102841 -0.12623803 0.12323158 0.26763374 0.39381522 -0.5529773 -0.37564898 0.07049692 0.44234103 -0.239448 0.5398656 0.6868206 0.29538465 0.032278262 -0.19809893 -0.42073584 -0.5453295 -0.3684381 0.4253372 2.0156999 1.4936632 -0.7608936
give 0.92423403 0.12720095 -0.2735346 0.7380165 -0.4208884 0.2978767 -0.2479556 0.4494462 0.15648489 0.49065205 -0.046511017 -0.0754886 -0.62362695 -0.5894353 0.6252591 0.18506663 -0.26284936 -0.5371108 0.09012781 0.50724876 0.7331713 0.048623826 -0.27811047 0.50947636 1.258133 0.30000734 0.3262408 0.08909111 0.64807767 -0.19386089 -0.07983314 0.41442177 -0.64315987 0.044663593 0.67924243 0.10154295 -0.1762998 -0.4030338 -0.22201219 -0.42271876 0.42323032 0.3317394 0.30578426 0.3886779 -0.504145 0.34354666 0.017957227 -0.6890348 -0.74012214 -0.63513666
even 0.059590768 0.11124492 0.04250087 0.023077756 0.40806496 -0.23490685 -0.13890617 0.090860866 0.04745536 0.22958004 0.2539556 -0.25204876 -0.030416276 0.089955054 -0.007903572 -0.3858068 -0.22199479 -0.17369635 -0.08593355 -0.25640184 0.105429985 0.58695114 0.25813034 0.16778678 -0.20687872 -0.11564937 0.58814013 -0.01660269 -0.33072892 0.42381808 0.41792056 0.058016434 -0.23547198 0.14390667 0.0027804086 0.25930336 0.39095578 -0.20803681 0.0526149 -0.07102189 0.39156932 -0.38849485 0.60570234 -0.36420384 0.26568288 -0.07590374 -0.21558973 -0.60941446 -0.33028027 0.1323697
back -0.19846621 0.18097477 0.06741125 0.021590607 -0.8583228 1.1349031 0.204085 -0.51070786 -1.0130131 0.07568647 -0.6536335 0.041728545 0.16894153 -0.56797457 -0.20221397 0.90265113 -0.65955055 -0.05692609 0.06900091 0.2178469 -0.29054177 0.8419583 -0.27056602 -0.18880118 0.47664765 0.44440433 0.1333836 0.07683007 -0.31359103 0.2407785 -0.722655 -0.25463086 0.50618994 0.00515503 0.42259791 -0.7286013 0.5461334 0.39571884 0.9015858 -0.29431385 0.39413407 -0.13854912 -0.594139 0.1055599 -0.7256204 0.002384095 -0.43335003 0.1925396 0.7758481 -0.3003833
little 0.13608196 0.53727293 1.2784098 0.5619551 1.1253834 0.24971104 -0.73219097 -0.4435756 -0.74891526 0.31354567 -0.9340461 0.0155147435 -0.48714966 -0.37465295 -0.0021716335 1.0362526 -0.014383661 0.39219257 -0.10344196 -0.34416175 0.6507619 0.07036129 0.04132911 -0.18471092 0.669966 0.583709 0.6500739 0.9137928 0.6639952 0.28913933 0.47384632 -0.46851635 -0.2064967 -1.1388042 0.5436067 -0.6552716 0.97637147 -0.0019099998 0.50601864 -0.47494444 1.0522178 -0.61779803 0.019982617 0.70625836 -0.23858526 -0.3658454 -1.2828803 -0.6564873 0.3569933 0.24349771
lot -0.3808722 0.13068995 0.58316237 -0.15140262 0.58436954 -0.08655235 -0.31758848 0.53003114 0.052993596 0.24575214 0.0346265 0.5946859 -0.5852105 -0.9572396 0.09007422 -0.04441445 0.2533715 0.1516421 0.054769114 -0.81424165 -0.35403544 -0.20627382 -0.2774764 0.50221163 0.24549541 -0.075221516 0.31298772 -0.020863267 0.8740676 -0.33310995 -0.2764198 0.105068766 0.24861526 -0.9472695 0.1567028 0.47063044 0.2502911 -0.28390893 0.54209316 0.15213625 0.41249597 -0.47614685 0.5644881 0.092513934 0.17699096 -0.112355694 0.16228701 -0.24297537 -0.9754483 0.057453934
kind 0.0907651 0.06670808 0.6883668 0.53992975 0.38578165 -0.43762827 -0.1853783 0.67784077 0.2879463 -0.109291814 0.7410099 0.5371985 -0.028371181 0.4925376 -0.41781315 0.156293 -0.054860793 0.17522956 0.17711575 -0.410751 0.19513693 0.035254486 -0.7070574 0.5664277 0.38664198 -0.077479415 0.31936198 0.5995695 0.22867243 -0.19649889 0.23888965 -0.44162923 0.13556944 -1.056437 0.37302417 0.07751972 -0.22717267 -0.6284763 -0.24312831 0.32785168 0.5150191 -0.42985514 0.17359221 0.26567242 0.5410991 -0.39967382 -0.0615764 0.09994692 -0.0064873686 0.060322717
talk 0.316396 -0.85033447 -0.1174047 0.5125084 -0.4573723 -0.25267592 -0.53897923 0.5045823 -0.29829493 -0.48604408 0.032343533 0.243256 0.12045342 -0.45569414 0.4649567 -0.37139937 0.42399085 0.08122346 0.022529481 -0.8131093 -0.7054373 -0.38038737 0.42939693 0.9434326 0.42283064 0.34637517 0.3503282 -0.29205602 0.050628826 -0.89500606 0.17839168 -0.4370685 -0.12278601 0.28018862 0.87392116 0.030833498 0.21664655 -0.496878 -0.055370994 0.7750944 0.29870945 0.0689928 0.0068917754 0.2983202 -0.00086076057 0.40712127 -0.31852686 -0.41911748 -0.25525972 -0.2580424
day -0.5738501 0.28482264 -0.071706235 -0.26453862 -0.6309952 0.8456166 0.7880663 -0.5992537 -0.9683235 -0.7515817 -1.1551626 -0.19359861 -0.69828796 0.09898574 0.70901024 0.7183932 0.023347266 -0.5348745 -0.55027694 -0.3095469 0.056347214 0.3944703 0.8294456 -0.35316908 -0.57734746 0.8135691 0.38386005 -0.18692136 -0.14098391 -0.785749 -0.5696331 0.71727663 0.42665204 1.3968955 0.2610103 -0.048876528 0.012570176 -0.17370215 1.3495195 0.21810703 -0.13618694 -0.07537426 -0.09170187 -0.22916201 -1.3748839 1.090028 -0.2264743 -0.21280882 -0.7943626 -0.14832483
many -0.44052407 -0.7017063 -0.5933276 -0.3784757 0.3392849 -0.6534064 -0.64823127 -0.10887846 0.2377231 -0.2367758 -0.03384941 -0.103858404 -0.20620662 0.3617032 -0.07414201 0.016936839 -0.14397003 -0.32535395 0.41563445 -0.35611135 0.5381605 -0.16462943 0.3237879 1.1244122 -0.1279653 0.18526287 0.054473482 -0.3927256 -0.5170272 -0.40758857 -0.16768022 -0.025433317 -0.074190676 0.56449234 -0.16701865 0.4883732 0.17943543 -0.08927913 0.4846421 0.066887096 0.47520107 -0.14864999 1.0993539 0.05538885 0.26921913 -0.29534993 0.5292935 0.103485495 -0.293986 0.036780093
change -0.23243997 -1.8652995 0.33151945 1.2404262 -0.14701045 0.019543484 -0.12577099 0.5410063 0.4605743 0.2614059 1.1194723 -0.00020921018 -0.25369272 0.5651032 0.2746402 -0.6449263 -0.13352793 -0.5752252 -0.13641247 -0.8255601 -0.3770649 0.64226663 -0.76116467 1.1389934 -0.7808961 -0.5501747 0.83302945 -0.6419654 -0.5451317 1.1175144 0.31955063 0.25428057 -0.58397204 -0.6830621 -0.10669418 0.18465993 -0.42674372 -0.77603 -1.3756315 -0.2033053 0.9996842 -0.52033776 -0.7097991 -0.015768446 -0.017307546 -0.873252 0.42087656 1.1048198 -0.4531002 0.22466923
happen -0.37419015 -1.0665507 0.33326998 -0.02416572 0.11283605 0.29050004 0.2101729 0.17901422 -0.29969585 0.63624173 0.0857466 -0.33835882 -0.05393416 0.18971963 0.46425894 -0.52350855 -0.38398036 -0.5886771 -0.20515215 -0.48096493 -0.28908363 0.06658847 -0.27298015 0.49951887 -0.3552739 -0.1926684 0.9379771 -0.21515445 -0.41134107 -0.42232376 0.13751037 -0.120321736 0.3320236 -0.0010694837 0.049563278 0.014248438 -0.19391988 0.0039810054 0.51203525 0.6015418 0.34859076 0.048849378 0.017986573 -0.25188172 0.14650716 -0.20371102 -0.6017276 0.092193134 -0.040386934 0.013255144
may -0.0019218567 -0.48010665 0.19748461 0.23911384 0.68729836 -0.359378 -0.52637225 0.22493914 -0.25302708 0.59710044 0.34180963 -0.11134654 -0.24468371 0.44363517 -0.041326508 -0.49403623 -0.15059139 -0.09957587 0.2978705 0.14565775 0.0944942 0.57037944 0.15925057 0.05504353 -0.19267237 -0.35269922 0.81723005 0.22353932 -0.036474835 0.027592205 0.17613602 -0.39917874 -0.01267373 -0.04964259 0.20952576 -0.07244045 -0.052692216 -0.45548546 -0.23578125 0.052132245 0.34268573 0.025633667 0.26814795 -0.14059773 0.870273 0.08430821 -0.004874142 -0.88734907 -0.2922664 -0.07250013
mean 0.406385 0.183209 0.36567715 0.043925416 0.17926283 -0.2200937 -0.10212534 0.2486252 0.3459313 -0.018612204 0.52876717 -0.2018318 0.5190104 -0.05409701 0.24067582 -0.19430418 0.11171634 -0.022603605 -0.24060103 0.15937066 -0.11320355 0.14279628 -0.062039193 0.46358287 -0.2626077 -0.34582978 0.20039566 0.0049379217 -0.11192297 0.18218581 0.23269777 0.67410713 0.07469136 -0.31902134 0.29834253 0.27317575 -0.04904009 -0.45697114 -0.25061595 0.056068286 0.1441988 -0.05867131 0.38947856 -0.0037214307 0.47159708 0.061408915 0.35854197 -0.23213132 -0.37103394 0.107865155
try 0.64217454 -0.102766916 0.04154041 0.85048604 -0.019711807 -0.09282132 -0.020873921 -0.76991355 -0.44896078 0.7648855 0.6808583 0.42678478 -0.74499816 0.5946853 0.24455345 0.14563689 -0.21682742 0.72055846 0.15267044 0.5198629 0.029103402 0.709708 -0.5489627 0.7880757 -0.21459073 -0.09898633 -0.07815958 -0.01572938 -0.20708427 0.3118454 -0.61297876 -0.596734 0.43034467 -0.406259 -0.030431677 0.36029717 0.4584548 0.26575655 0.19959062 0.6492777 0.1053157 -0.44911012 0.5760514 0.33503157 0.17648068 -0.22905716 -0.047286645 -0.19369453 0.2932757 -0.21570463
every -0.53882945 0.0350134 -0.044418912 0.4494615 -1.0087533 0.56878513 -0.012306316 -0.7759181 -0.48831847 -0.48642096 -1.3991624 -0.8736461 -0.24627827 0.92231846 0.57964694 0.8850648 -0.25977418 -0.2205845 -0.4635596 -0.067375675 0.7111984 -0.018522622 0.1623649 0.319533 -0.6001858 0.6850263 0.6167216 -0.48076048 -0.49359256 -0.008450455 -0.93531173 1.2155048 0.28803915 1.2093256 -0.4546404 0.45409945 -0.7305359 -0.51628834 1.009559 0.40445864 0.7838162 -0.1839554 0.90917057 0.040495012 -1.0944698 0.42860755 0.4320825 -0.3858791 -0.2444727 0.37700886
let 0.67352563 -0.63201696 -0.48527694 0.5754934 -0.024418768 0.54284126 -0.30538204 -0.19805917 -0.9783429 0.22676603 -0.019956762 0.10170503 -0.1090838 0.48251045 0.2880654 0.76671433 -0.040658038 0.34505323 0.5832964 0.6408424 -0.34860387 0.13642968 -0.63500917 0.8944382 0.25280872 -0.20219567 0.012078998 0.43025944 0.11434595 0.1510738 -0.328023 -0.6542581 0.003933953 -0.105984576 0.45408705 -0.5207511 0.47919324 -0.28754827 0.030578848 0.61501133 0.45896435 0.15911214 -0.7324517 0.62351525 -0.5273607 -0.07046101 -0.8451859 -0.6305551 0.04906648 -0.346848
around -1.2400508 -0.23354663 -0.14215456 0.15755798 -0.47812927 0.39362532 0.07884492 -0.29087964 -0.71955496 -0.2172692 -0.6965161 0.015570363 0.27979407 0.30139104 -1.3407147 0.7782827 -0.93026346 0.039399724 -0.20227782 -0.11752186 -0.002683604 -0.018610166 -1.0302668 0.16753866 -0.018951077 0.7300917 0.030454112 -0.18987474 -0.56407106 0.0072263773 0.2901514 0.8364384 0.8611729 -0.3644502 -0.29478264 -0.4240778 0.33246627 0.40417826 0.9155363 -0.5562545 1.0746431 -0.35374936 -0.19933546 0.12710181 -0.10412221 -0.5284039 0.27619112 -0.018158797 0.8157397 0.0477378
show -0.2406119 -0.43368968 0.12039076 0.15812479 0.14277382 0.5935864 -0.23597859 0.4273046 -0.063686796 -0.35226128 -0.41732085 -0.8509647 -0.4030471 -0.3779702 0.00694977 0.06333127 0.4084423 0.38161677 0.22937119 -0.94819474 0.876952 0.1480941 -1.0052512 0.04272446 0.7498517 0.39980817 0.29306236 0.84893346 0.19816045 0.27356938 0.26586717 -0.5838209 -0.5004143 0.5533434 0.063865155 0.24683362 0.26815945 -1.0465424 -0.041642446 0.1029281 0.07952309 -0.24985932 0.1529375 0.87220794 -0.36423537 0.15274511 -0.6700663 0.29681796 0.6521171 -0.7902053
different -1.0940357 -0.9965692 1.0392818 0.9568078 -0.015270633 -0.2501267 -0.6122715 -0.29854372 -0.08674749 -0.8271063 0.9333527 -0.574437 -0.21214518 1.3861593 -0.6360852 0.41171157 0.5235838 -0.12118061 0.18166953 -0.44224593 1.3613513 -0.49615315 -0.6489076 1.3455892 0.4461963 -0.06403475 0.67083883 0.29404214 0.59678006 0.115230024 0.1404215 0.37995592 0.18836232 0.13454144 -0.55158687 0.22251177 0.31621215 -0.60411733 -0.6002274 -0.59136087 0.8159356 -0.053478446 0.9491441 0.6299712 0.058414243 -0.7922253 0.43006855 0.90400463 0.41110504 -0.02848084
live -0.649164 0.0030411012 0.38596386 -0.85992736 0.00115715 0.20366098 -0.3533064 0.20246647 0.026201088 -0.5018846 -0.64338595 0.4696144 0.56971496 0.01569336 -0.73314893 -0.28372395 -0.35096794 -1.2634333 -0.6261508 0.22716552 0.44666883 -0.39084452 0.6967226 0.7139569 -1.136156 0.6267584 0.79522556 -1.1181239 -0.7018688 -0.092425555 0.19886708 1.0815262 0.6094063 0.57282263 0.0115223555 0.3291079 -0.12781093 -0.31664985 -0.07880073 -1.2342931 0.65914065 -0.4405672 0.39973968 -0.08589042 0.47952837 0.23248209 0.20958063 0.5864414 -0.47225273 -0.3976699
put 0.48808196 0.50841856 0.4855507 1.54821 -0.6090664 0.9931612 -0.21500917 0.3227512 -0.383908 -0.45877865 -0.522705 0.019650059 -0.17122173 -0.6644962 -0.59603906 0.20711288 -0.15424916 0.0043951385 -0.8409394 -0.104332134 0.18281269 0.11919921 -0.99308795 -0.20949627 1.4151559 0.10992376 -0.1703501 0.54619676 0.9617263 0.59313136 -0.48338947 0.18371056 0.21030112 0.1456116 0.15608926 0.1463637 0.28217098 0.42986605 0.6220294 0.27019858 1.034231 -0.8895312 -0.093469135 0.99404746 -0.065169215 -0.102017336 0.3705344 -0.24974114 0.6236752 0.4093707
human 0.233551 0.013682312 -0.016605722 0.08363165 0.7464323 -0.38898805 -1.3398649 -0.13155359 0.3948184 0.2430432 0.10202542 0.619196 -0.37390885 0.92363703 -0.64157724 -0.59618187 -0.23698162 -0.6695246 -0.017693127 -0.08671021 0.9858903 0.094953835 -0.711901 0.4729722 -0.09291135 -0.7475888 -0.6594116 0.29946783 -1.4178817 -0.22580479 -0.07470189 0.564811 0.08449309 -0.34987235 -0.02791795 0.36756814 -0.106156215 -1.4949695 -1.8729506 0.029874004 0.89889705 -0.38262945 1.1782817 -0.21364123 1.2703333 -0.9235026 0.2533103 0.666389 -0.74265707 -1.0657759
idea -0.20393172 0.21503897 -0.59004885 0.43118975 0.14138557 -0.27375346 -0.64137673 0.80307204 0.049878392 0.34947687 1.8529549 0.5771839 -0.18969806 1.3026936 -0.21484087 -0.47927436 0.23316471 0.4432174 0.42579603 0.201459 -0.2538117 0.08124375 -0.3101205 0.6270301 0.3611871 -0.12440213 -0.15387988 0.1847942 0.06132631 -0.73005384 -0.064093165 0.09671875 -0.026183914 -0.81001073 0.71121097 0.017064432 0.0064862394 -0.20483312 -0.50875086 1.4267309 -0.32754728 -0.17018686 -0.12898001 0.16029063 0.5070299 -0.17554069 -0.33590978 0.4439027 0.22482087 -0.10689463
problem 0.115223646 -1.2218375 -0.10663598 -0.8904928 -0.23051196 -1.1027448 -0.95163476 0.36178264 0.07810013 0.86821145 1.0296086 1.1538588 -0.5450548 0.39387694 0.342834 -0.2514902 0.7298002 -0.9269273 0.22982182 -0.69932246 -1.0034672 1.1288438 0.09863012 1.0678091 -0.68075734 -1.3871717 -0.20371038 1.3848212 0.04678119 0.27013013 -0.6867511 -0.0013101315 0.5487914 -0.84297353 -0.39828748 1.2160087 -0.07083294 1.1020045 -1.0780948 1.0079237 1.0789716 -1.0738357 0.72073567 -0.43549317 0.4249951 -0.4204568 0.01447467 0.25904712 -0.45473588 1.1462543
great 0.46451908 -0.6250219 -0.3313805 -0.41477504 -0.17633018 -0.5243369 -0.63924843 1.2425331 1.3129399 -0.65994716 0.04070432 -0.018553078 0.40131927 -0.80061984 -0.011691847 0.2901875 -0.24764267 -0.5490229 -0.034582924 -0.09100165 0.36426157 -0.122257926 0.19728175 0.9544028 -0.21282148 1.1953032 -0.17515847 -0.19091377 -0.5038542 -0.6308161 -0.53436565 -0.24266899 -0.6950727 -1.057479 0.518742 -0.1989724 -0.66151464 -0.5323664 -0.029061258 0.5636818 0.21674523 0.5537661 -0.18472314 -0.41457486 -0.09413403 0.13217025 0.40004113 0.07381224 -0.25639713 -0.12785433
big -0.77515703 -0.4499039 -0.20541817 0.20130521 0.48466092 -0.52613664 -0.83477575 0.7341925 0.44531542 0.32690516 -0.103538096 0.22387138 -0.029649232 -0.5842683 -0.4860229 0.5259508 -0.19729881 -0.9387995 -0.78551733 -0.33110285 0.44471192 -0.13954417 -0.8349166 -0.22420701 -0.25962165 0.5862911 0.037691288 0.48472324 0.43345007 0.10113285 -0.8930094 0.26671827 -0.68818706 -1.1990353 -0.29691198 0.22169104 0.54260385 0.65393907 0.99590445 0.52779746 0.9708883 -0.3538876 -0.23280643 0.19101098 -0.15858056 -0.15129142 -0.28432265 -0.34110475 0.4561052 0.79752755
three -1.3268685 0.2135301 -0.5467047 0.5916215 -0.1748939 0.18504341 -1.0125132 -1.8267696 -0.7132869 -0.64116085 -0.9077378 0.091094464 -0.11461422 0.3654182 -0.27846622 1.0993416 0.41821548 -1.1045333 -0.9972903 -0.61179245 1.0811071 0.7068173 -0.026458975 -0.05620819 0.118532315 1.2356483 -0.13799722 0.2503286 0.21899122 -0.16093117 -0.7693271 0.4378304 -0.095450625 0.94076353 -0.2846451 0.28769904 0.113872655 -0.49936113 0.49813956 0.19223675 -0.24168268 0.58102876 0.736191 0.48740304 -1.5464002 1.0990347 -0.16244413 0.22401895 0.0015172518 0.46800074
ask 0.8017384 -0.70110977 -0.3278362 0.4227864 -0.63266045 0.24975526 -0.4489611 0.15485714 -0.20914589 0.12290909 0.26680017 0.23665206 -0.24392994 -0.1385977 1.0201645 0.81325525 -0.41649407 -0.043612234 0.62170756 0.12184969 -0.604792 0.12706666 0.43873087 1.0726562 0.4952894 0.47983915 -0.046661302 -0.42839724 0.398287 0.073612 0.4599238 -0.76735485 0.15730521 1.0579208 0.68359244 0.59050137 -0.18324697 0.20614938 0.35026836 0.11323385 -0.07904358 0.1713499 0.9126205 0.33701012 -0.010069145 0.6000892 -0.4877907 -1.2801514 0.121860184 -0.8671987
thank 2.0673358 -1.0427486 -0.10813751 -0.8587147 0.2943567 0.53615487 -0.84284633 1.2427667 0.048900265 0.25168443 0.27526703 0.36661014 -0.9159182 -1.399663 0.3571063 -0.13195522 1.1888354 0.50336623 -0.3181842 0.5259394 -1.04675 0.08870805 0.4700354 0.66810215 0.44880188 0.30701315 -0.6981021 -0.63825923 0.25116727 -1.1171918 0.6721889 0.50389946 -0.45239726 0.10933825 0.65300465 -0.72493136 0.6648589 -1.0611798 0.34336793 0.32103723 0.48507905 0.4439524 -1.4184395 0.48577943 0.42324626 0.9390795 0.27429986 -1.156597 -0.6295855 0.2087439
feel 1.3824915 1.3887682 -0.18272488 0.38438997 0.55345285 0.6705878 0.19724432 0.08576876 0.43686554 -0.6473537 0.06713544 0.68242425 0.17168958 0.63888484 0.5322575 -0.74271744 -0.38033357 -0.3883179 -0.15514877 0.083374545 -1.0256643 0.44104055 0.37489727 0.3283201 -0.6609631 0.08346553 1.4777693 0.17620511 0.36952293 -0.22733839 0.668745 -0.31458145 0.7683145 -0.6650824 0.8995235 -0.39016175 0.07539442 -0.56342244 0.17423762 -0.5021077 0.44533628 -0.16346294 -0.5708766 -0.22171341 1.3976583 -0.22655898 0.10153749 -1.1830024 -0.54882264 -0.43828693
become 0.08737772 0.62684655 -0.46436122 -0.48116422 0.52876776 -0.53101486 0.24995783 0.9929366 0.4500478 -0.429135 1.0256494 0.384531 0.5457965 0.1725839 0.22439525 -0.12812372 -0.39789745 -0.4178494 -0.16713504 -0.13812599 0.14272097 -0.19357632 -0.3262816 0.33629495 -0.27460194 0.40359765 0.19061428 -0.34452066 -0.19665962 0.2810782 0.36006486 -0.43563753 -0.43870977 0.016091492 -0.34061638 0.7046426 0.20338543 0.028112674 -0.6320586 0.39925987 0.9323379 -0.6019617 -0.14567713 -0.72574085 0.89764106 0.14171463 0.13694848 0.21581161 0.28252292 -0.37618056
story -0.074428685 -0.005343946 -0.17492446 -0.6767272 -0.37600785 -0.19350174 -0.49017173 0.0970013 -0.23004979 -1.2498422 0.66291195 0.22196488 0.4395756 0.9870568 0.91588616 0.08219165 0.29065916 -0.9410014 0.8821399 0.24277149 -0.3619108 -0.16623093 0.113255836 0.6302571 -0.6766315 0.164917 0.11039109 -0.6028339 -0.93458647 -0.69883573 0.47099298 -0.74980646 -1.034231 -0.035684228 0.7880158 -0.36997825 0.43347484 -1.1793063 0.9456516 0.43929583 -0.77686614 -0.13114189 0.091987245 0.91057056 0.32517475 -0.14546554 -0.995873 -0.115718685 0.22156112 -0.47067145
place -0.27951813 -0.26294133 0.5198753 -0.605167 0.12228067 0.61184955 -0.017690826 0.3612574 0.26102754 -0.7397235 0.13048661 0.7889313 0.6106785 0.6109321 -0.6029226 -0.22067738 -1.0148718 -0.101138756 0.19155945 0.12192205 0.0034863013 -0.47405475 -0.17452052 -0.084397815 -0.16551001 -0.09960376 0.78698975 -0.06500987 -0.2325998 0.096183844 0.23894177 0.46406698 0.8389331 0.1055311 -0.0015616847 0.14749455 -0.38436353 0.6807949 0.09523046 -0.44309053 0.30408156 0.13053986 -0.65990764 -0.051708773 0.017046347 -0.14217302 -0.23375903 0.24889767 0.051865563 -0.31406257
create 0.2644467 -0.065252095 0.40319705 0.4199194 -0.79051363 -0.263093 -0.25000563 1.1703951 0.79631066 0.11855698 1.650079 0.8267634 0.1865762 0.04291655 -0.4177071 -0.69728506 -0.2611785 -0.02102217 -0.7052424 -0.27407965 0.83976203 -0.61927503 -1.6150771 1.0442075 0.4839038 0.543428 -0.4897424 -0.3625516 0.05023034 0.21059704 -0.08928246 0.75239027 0.4865493 -1.1380541 -0.16482195 1.0667965 -0.21076946 -0.9034864 -0.5859705 0.34840196 0.6913274 -0.0841498 -0.05721499 0.8866192 0.19358446 -0.17547642 0.5366312 1.1431601 0.35655028 0.60899967
country -0.8666664 -0.29001886 -2.6102798 -1.65063 0.10406215 -0.8905042 -0.13168095 -0.5705139 1.3038011 -0.5480809 0.40994146 0.15916759 0.94844174 -0.74351746 -0.14813875 0.28777874 -0.29896897 -0.9462487 0.25020146 -0.3681072 -1.0202835 -0.0004904181 1.411764 0.8579008 -0.65418434 -0.750324 0.6060373 -0.6875798 0.07246043 -0.16968758 0.51716745 1.95254 0.40433455 0.8173075 -1.1030527 0.5428822 -0.12420062 0.70999306 -0.10157818 -0.5656716 0.5609989 -0.22733825 0.17552078 0.12407676 -0.9693278 0.29193878 0.76182175 1.1181424 0.07940307 0.26779595
today 0.07392562 -0.87588334 -1.3650734 -0.7819566 -0.3688622 -0.54311275 -0.71523684 0.07070716 -0.3567659 0.039491285 0.0950682 0.2427915 0.15288016 -0.013277252 -0.013683043 -0.20502649 0.48993105 -0.28583914 -0.20548952 -0.4989392 -0.22115803 -0.14084248 0.46154472 0.60405904 -0.4297042 0.27929083 0.42000142 -0.19436835 -0.3899715 -0.031507652 0.21912478 0.8104462 -0.19375122 0.44954956 0.31150782 0.440508 0.14755732 -0.49726692 -0.06074499 0.7330131 0.47065312 -0.012039953 0.24779403 -0.22077979 -0.36622256 0.18370266 -0.21864684 0.6655317 -0.4164936 -0.30816576
woman -0.03771264 1.1561233 -1.0521162 -0.949622 0.07658126 -0.5684883 0.36378065 -1.2314795 0.7251539 -1.8772134 -0.36929378 0.11942632 -0.34242415 -0.78480536 1.1191877 -0.036829278 -0.4697549 -0.4179753 0.010025531 -0.62456274 -0.65591323 -0.20999387 1.5385808 1.5914584 -1.054165 0.6727488 0.73603016 -0.5677684 -0.115047894 -0.3644049 0.8960874 0.8517921 -0.51766866 1.4440682 0.47057405 0.112853125 -0.24259566 -0.090145715 0.42175302 -0.81826544 -0.6042898 -0.32032678 -0.15813911 -0.39268804 -0.27144957 -0.40817305 1.1170334 -0.96596843 0.8898771 -0.50286824
system 0.3016004 -0.01946899 0.05848699 -0.24462089 -0.7600986 -1.4277757 0.2224758 0.05933944 0.23589678 1.1491032 0.91105086 1.706856 -0.17423348 -0.35479146 -0.34121355 0.05777407 -0.33348933 -0.74941033 -0.5037316 -0.3093015 -0.07681008 -0.05904522 -1.4878825 -1.0761504 0.8187207 -1.1736767 0.7235631 0.08513337 -0.95962405 1.3743502 0.10909442 1.2042153 1.6287509 0.2006422 -1.731966 0.65150064 -0.045157615 -0.6859014 -1.2681789 1.0395764 0.28358942 0.022505501 -0.11525523 -0.73205334 0.5345441 -0.4447234 0.94343954 1.1074905 -0.017067367 -0.90518075
percent -2.3049722 0.37450737 -1.2315075 -0.20851792 1.005501 -0.98313385 0.033200525 -1.0958664 -0.9630958 -0.71156734 -1.334244 -2.9525502 0.06196516 -2.1433527 0.250385 0.3956217 -0.024060568 -2.1776912 -1.2100018 -1.0791868 -0.34373176 1.1774364 1.3727471 -0.20164607 -0.6270177 -0.42356926 -0.41299218 -1.3713076 0.21639559 0.71138674 -0.13960007 3.3852687 0.92698544 1.5705134 -0.71769476 1.6356089 -0.2830536 0.033535156 -0.0062574414 -1.4401555 -1.4632734 0.44152465 -0.67154235 0.06826666 0.69051677 1.7512587 0.87160456 1.6494248 -1.3580847 -0.3750998
part 0.27106223 0.046443295 0.12309062 -0.45196298 0.23059562 0.012414919 -0.5466015 0.25370157 0.4572051 -0.5549492 0.47445625 0.9121992 0.1700174 0.6898022 0.015045287 0.14964761 -0.31221193 -0.37212786 -0.32757023 -0.416223 0.4680574 -0.48444593 -0.4726014 0.12353186 0.10844405 -0.020462941 0.0036789428 -0.20826985 -0.040106148 -0.3501199 -0.07263236 0.099089175 0.08475337 -0.123985335 -0.874872 0.5028477 0.1696587 -0.12291726 -0.7183636 0.33347625 0.65279144 -0.4608204 -0.1853991 0.23970719 0.16612558 -0.057233833 -0.08276523 0.9734888 -0.25197542 -0.14183597
question 0.67525303 -1.4541541 -0.48827925 0.19085017 -0.07216825 -0.112478405 -1.0263662 -0.38499272 -0.2848836 0.47047183 1.4483594 0.4938356 0.14639165 0.6569675 0.827082 0.9992701 -0.31025872 -0.4233837 1.0931363 -0.22471632 -0.68299997 0.82011604 0.4637303 0.45544067 -0.19780764 -0.045221996 -0.058326453 0.18348567 0.21674272 0.41562262 0.51937413 -0.8736188 0.24024276 0.5373888 0.91947675 0.8459813 -0.62962663 0.2040601 -0.74165976 0.7831073 -0.9778804 -0.14316134 0.63587904 0.18628491 0.5244118 -0.39425704 -1.1846076 -1.205585 -0.6692892 -0.37014127
fact -0.320434 -0.32610893 -0.17866354 -0.52517617 0.60895675 -0.459004 -0.59305334 0.19189022 0.1206761 0.18518715 0.3924088 -0.25892884 0.444283 0.28320396 -0.19891378 -0.53269863 -0.10911198 -0.35060343 0.49045947 -0.6157092 -0.12120089 0.14978401 -0.028253125 0.049440198 0.019853342 -0.19238509 0.3069497 -0.17747983 -0.24389459 0.049085304 0.3648296 0.32679683 -0.28976107 0.27822006 0.1388257 0.8667845 0.16193531 -0.5569573 0.118868046 0.11503902 -0.18149386 -0.20115978 0.28561988 -0.27294922 0.32271546 -0.25911847 0.053007003 -0.19650467 -0.7585116 -0.17764714
man 0.1384027 1.3565588 -0.3259782 -0.56151193 0.56432295 0.07269588 0.03798987 -1.428836 0.3198158 -1.7011906 -0.30389383 -0.3130425 -0.12649505 -0.6669887 0.25465575 0.008790791 -0.42318437 -0.25401652 0.11580875 0.21285918 -0.5937394 -0.112193316 1.379163 0.9382007 -0.7573405 0.9284788 -0.21341729 -0.10603829 -0.54009044 -0.61396414 0.59947836 0.4370182 -0.13370128 1.1521249 1.0578907 -0.3230541 -0.0057649966 -0.025775265 0.4702342 -0.57741594 -0.4252814 -0.39124984 -0.06598572 -0.6221326 -0.19025372 -0.33881655 1.2096945 -1.269009 1.287881 0.16943961
child 0.28851396 1.3419204 -0.6381048 -0.63081396 -0.43581024 -0.6776773 0.11762404 -1.4745952 0.33701342 -0.18722524 -1.2973902 0.2385948 -1.2026808 -0.54428065 1.5008668 0.55728334 -0.2582657 -1.0724282 0.1556203 1.0429227 0.44224545 -0.063003905 1.4779968 1.480598 -1.5157797 0.78147644 0.46817815 0.17630623 -0.14656682 -0.070640646 -0.11768256 1.233385 -0.3043722 1.1000235 0.20290664 -0.22095142 -0.28537405 -0.051931497 -0.6274767 -1.2744267 0.027746359 -0.780124 0.6252417 -0.037896533 0.18668169 0.3731061 -0.07786414 -0.2283377 -0.5130658 -0.90544015
build 0.035122737 0.5134817 0.6569571 0.22228804 -0.9329338 0.0044127195 -0.36991507 0.72859937 -0.4370603 0.1378595 1.4558058 0.8128965 0.08069184 -0.5368055 -0.8723112 0.07064176 -0.0640369 -0.19668536 -1.4398891 0.44314736 0.21668826 -1.1272296 -1.258037 0.6905167 0.8980807 0.7114811 -0.28480572 -0.17613612 -0.21565263 0.65426755 -0.42411727 0.90208 1.1161349 -0.009524567 -0.5362754 0.9235297 0.31182763 0.9975466 0.045751277 0.7800085 0.28514835 0.21995673 0.05619115 0.050388716 -0.0033753475 0.09527838 0.02782597 1.4517542 0.5037608 0.8002501
learn 0.016924214 -0.09423865 0.55556107 0.5622961 0.16317895 -0.06448952 0.63294196 -0.0984465 -0.08933609 -0.06636187 0.18438756 0.47652534 -0.5617128 -0.1936588 0.7422594 0.8155065 0.32826266 -0.074035496 0.729433 0.40259656 0.44338325 -0.43761188 -0.040915627 1.234675 0.080209985 0.84543264 -0.24772973 -0.5589263 -0.79771864 0.21650782 0.16188747 -0.09422366 0.08905614 -0.9002552 0.017299209 0.39215428 0.1382812 -0.21443035 -0.8690812 0.5713576 0.35543936 -0.029167632 1.1773858 -0.03538705 0.36734235 -0.09595725 -0.5175795 0.63677526 -1.1644828 -1.1321223
turn -0.3192716 0.1253211 0.66059875 0.92854446 0.5359746 0.4690484 0.4623622 0.2932071 -0.72619194 0.14226079 0.08946244 -0.5949462 0.2982543 -0.4617725 -0.11784368 0.4465927 -0.01806333 -0.10866644 -0.6667639 -0.043235786 0.23560487 0.51969415 -0.4801513 -0.6188244 0.2501346 0.0012606834 0.10068628 0.57456785 -0.25377223 -0.18884434 0.45058236 -0.030444246 0.088408805 -0.06482196 0.15084697 -0.26083264 0.18254524 -0.3242721 -0.13621576 0.1532575 0.8799991 -0.2916543 -0.26933727 -0.15255757 -0.052402467 0.03120876 0.24403867 -0.3006225 -0.09232987 0.14326155
last -1.6141719 -1.1214627 -0.5821881 -0.46224555 -0.1578135 0.25059772 -0.26511055 -0.6651345 -0.97047156 0.0028283608 -0.7470328 -0.5964703 -0.17154542 -0.46128657 0.86768097 0.5881889 0.18696798 -0.7366869 -0.78418505 -1.1228172 1.0265975 1.2681881 0.7890857 -0.4340459 -0.21962902 1.0094961 -0.4589334 -1.4532102 -0.36254498 -0.7909256 -0.57879096 0.57866627 -0.26398027 1.0076988 0.4885961 0.19240655 0.3938098 -0.39653563 1.3281418 0.7464548 -0.31726393 0.7422993 -0.21040083 0.19503875 -0.6435774 1.0903238 -0.29836473 0.64336693 -0.19899233 0.3544172
help 0.98736507 -0.004928738 -0.66926426 0.5521611 -0.74310017 -0.5275544 -0.39536098 0.2943231 -0.1423618 0.23608746 0.5431039 1.409585 -1.2004347 -0.3697924 0.9657275 0.0805051 -0.5553495 0.22758731 -0.13905199 1.0942639 -0.18146683 -0.051761225 -0.093777865 1.5968663 -0.33118692 0.36639497 0.01487349 -0.25833267 -0.09428245 0.33457312 -0.497716 0.06912299 0.6581272 -0.68893075 -0.5766713 0.77919334 -0.017424535 0.15503745 -0.49134347 -0.044546954 0.69761264 -0.16914126 0.2881162 0.14448023 0.8454306 -0.027072854 0.4257892 0.087862596 0.15895654 -0.76373845
another -0.33925396 -0.2551117 -0.0877827 0.31708422 0.13515854 -0.055465028 -0.50846106 -0.44637722 -0.23415121 -0.63916725 -0.0679434 -0.0679005 -0.1021068 0.44027063 0.07387275 0.28914902 -0.059247542 -0.16038713 -0.15600257 0.31271663 0.9603577 0.16141224 -0.06303178 0.39587912 0.46289182 0.23816285 -0.04534142 0.32924908 -0.09625049 -0.20829491 0.13668327 -0.21287377 -0.13359222 0.23036058 -0.43199742 -0.07401598 -0.29436684 -0.60828674 0.37054393 0.2144036 0.360537 -0.2620942 0.62341684 0.5099056 -0.04766482 0.20014034 0.117191955 -0.17517084 0.117786095 0.12457766
old -1.1284236 1.2290521 -0.028215075 -0.30066592 0.4869652 -0.046428207 0.38835302 -0.9875462 -0.67141056 -0.45251447 -1.1399934 -0.46782398 0.20224655 -0.8447986 0.712355 1.0662425 -0.21931563 -1.4508356 -0.9229665 0.34515423 0.47217607 -0.14744507 0.9212375 0.5625681 -0.2602694 1.6662157 -0.4366956 -0.65554184 -0.3627932 -0.15376797 0.33371934 -0.00048559014 -0.43998644 1.4010899 0.70352304 -0.5522797 0.7224218 0.024176927 0.45941645 0.018336747 -0.74456507 -0.7825904 0.20929106 0.0794577 -0.7395563 0.28636286 0.4868522 0.39579728 0.41780636 -0.16852601
never 0.85606146 0.06704945 0.091794476 0.12962833 -0.15143271 0.32911912 0.021228898 0.10786125 0.14805071 0.22803982 -0.24377505 -0.13497461 -0.035130464 0.0809472 0.17405118 -0.121451505 -0.52334327 0.14985041 0.3032368 0.70538425 -0.041380666 0.6927949 1.0016463 0.8008445 -0.5425004 0.5762304 0.656837 -0.47494978 -0.76532567 -0.077609904 0.3822584 -0.40087196 0.14107074 0.15772328 0.28996298 -0.11531081 0.31610602 0.008201739 1.0513076 0.018574849 -0.29324162 -0.008770153 0.42379692 -0.46621475 0.37578958 0.0393304 -0.17206681 -0.5072206 -0.81888264 -0.12554972
love 0.3036744 1.1165775 0.41479903 -0.19942474 0.3107072 0.713459 -0.18154845 0.32617274 0.073729694 -0.79615504 0.06593804 0.010746308 0.6341082 -0.5454433 0.9560917 -0.02385998 -0.49294525 0.8660625 0.44507566 1.255615 -0.31697714 -0.19330472 0.85194635 0.85832757 -0.29908067 0.70903206 0.27678 -0.7071259 0.28547826 -1.2721016 -0.5138273 -0.4720115 0.029402956 -0.5247779 1.4310315 -0.895 -0.0910932 -0.8535624 -0.011564636 -0.0618004 -0.23207703 -0.029214997 0.28178397 0.35455596 1.0553279 -0.050396528 0.07111673 -0.4231012 -0.38761464 -0.66771054
technology -0.05284404 0.5309513 -0.92982256 -0.025416091 -0.38567686 -1.5561178 -0.6974728 0.5805921 0.020282079 1.5714215 1.6473287 1.0752383 -1.190097 0.19944097 -0.30223012 -0.40654665 0.51968545 0.40938777 -0.018199772 -0.03993613 0.17476851 -0.3251821 -0.7145751 0.6652142 0.34143773 -0.7600781 -0.14299354 0.76944065 -1.2977422 0.7489651 0.76024044 0.91375285 -0.58160484 -0.82643205 0.28376442 0.38625407 -0.15438074 -0.43140095 -0.33415088 1.5755229 0.8488639 0.12154435 -0.46804833 0.27726606 0.3537171 -1.1298457 -0.3875841 2.0500965 -0.107897565 -0.6994493
end -0.36383188 -0.11120376 -0.1894054 -0.30564162 -0.5893355 0.2610969 0.45085844 -0.33797732 -0.16550766 -0.2192149 -0.39038208 -0.090571046 0.52006227 -0.32381397 -0.09320583 0.44796196 -0.33892268 -0.26169354 -0.14264302 -0.2849416 0.16555262 1.0086733 -0.3738093 -0.4038373 -0.42757654 0.36209783 0.30405632 -0.33911294 -0.1542014 -0.4491315 -0.24142464 -0.30231705 0.038079564 -0.088869385 0.9154455 0.2800839 -0.061240364 0.19267385 0.1354304 0.3886529 0.45254204 0.17389482 -0.023485683 0.038102563 -0.4477083 0.628662 0.3606723 0.29078472 0.3231111 0.33390826
brain 0.30370867 0.79511005 1.0605792 0.3133626 1.2792828 0.76533204 -0.74545014 -1.3345555 -0.14923936 0.96334654 -0.41232735 0.32126924 -1.0193954 1.6400689 1.0128509 -0.13349813 0.0073987693 0.4503202 -0.48008627 -1.2917023 0.35192257 0.16672294 -0.7822033 -1.0399833 0.32400244 -0.873038 -0.0027202268 1.8035437 0.017528577 -0.41455138 -0.4522024 0.4320975 0.1750646 0.45154807 -1.9261456 -0.03088655 0.8803 -1.1158714 -1.6967504 0.16496792 1.1830983 -0.72536767 1.1165754 0.86117387 1.9777626 -1.1910139 -0.08547441 1.1577951 -0.44480205 -1.8175701
long -0.87209404 -0.1657795 0.18409224 -0.31088248 -0.15946148 -0.18763833 -0.8933283 -0.97646433 -0.030492343 0.006368947 -0.4965176 0.4993349 0.039477047 -0.5717373 0.06276128 0.88932306 -0.071284756 -0.51637256 -0.56965655 -0.37746117 0.014640558 1.0485132 -1.0472579 -0.5224101 -1.0550592 0.37333637 -0.11765358 -0.8238656 -0.35239485 -0.051450446 -0.40026644 0.400684 0.15815026 0.42336488 1.1537087 -0.5374537 0.98352754 -0.26139897 0.550898 -0.67015004 -0.049773306 0.8051284 0.7752011 0.4320258 -0.2847338 -0.4265755 0.16326068 0.104150206 -0.6799439 -0.2399298
understand 1.127385 -1.05171 0.3384063 1.2137711 0.55923957 -0.172003 -0.55266464 0.26437917 0.058826588 0.38999686 0.5736266 0.83650804 0.28685015 0.5726328 0.67446345 -0.45413387 0.07262483 -0.68637526 0.22306368 0.102301985 -0.18044849 0.03651555 -0.41566953 1.301164 0.07721923 -0.2457705 -0.06152931 0.352146 -0.6871024 0.35015407 -0.16556442 -0.32876936 -0.13180111 -0.4093962 -0.28633115 1.2637825 0.43693033 -0.77213913 -1.0796067 0.58376724 0.6601975 -0.13485642 0.45422173 0.43912452 0.825148 -0.8811163 -0.70477116 0.32176846 -0.67433745 -0.43362868
important 0.08420624 -1.090792 -0.026329698 0.44209018 0.033655323 -0.5533586 -1.2531513 0.2807768 0.33817175 -0.32424182 0.6820142 0.6752287 -0.20803976 0.586838 1.0792345 0.5474874 0.3135268 0.13745062 0.19174755 0.24184056 0.12483934 -0.13371558 -0.45278367 0.6671644 0.03399441 -0.02564392 0.6733178 -0.60935646 0.20388675 0.8444105 -0.03987016 0.07410076 -0.9320266 -0.6633168 -0.51670593 0.67541105 -0.2129672 -0.54329 -1.0352088 0.75485736 0.8213292 0.32026666 0.013697528 -0.14071456 0.83894676 -0.3888638 -0.21843696 -0.08366784 -0.63442236 -0.45092392
still 0.05653093 0.380565 -0.059846688 -0.31317404 0.78699803 0.2326581 -0.08377002 -0.34043622 -0.15287808 0.03165474 -0.43484375 0.25619164 0.15163119 -0.24344379 0.14687376 0.1363342 -0.1199248 -0.14649087 -0.10524052 -0.08713796 0.19407578 0.4979737 0.3199312 -0.33578205 -0.6502032 0.29841724 0.46991053 -0.24065894 -0.20353457 0.113807 0.14030711 0.41471398 -0.0955399 0.4079462 0.34761402 0.271464 0.5948995 0.07895891 0.028503181 -0.08405845 0.21954659 -0.2883872 0.10062577 -0.3585937 0.44307667 0.2305757 0.055768855 -0.13402171 -0.34357125 0.3741728
together 0.28912783 0.39021954 -0.14849134 0.55640924 -0.553536 0.3134052 -1.1528573 -0.7103263 -0.038033407 -0.5302684 0.41095728 1.3364725 -0.4229989 0.7993598 -1.1485322 0.5766791 -0.46142712 0.058634493 0.10792206 0.60887885 0.10851433 0.017995361 -0.40867376 0.71110135 0.27392712 0.4710012 -0.5195662 -0.6185131 0.6583058 -0.61666846 0.06595499 0.44910577 0.8838728 -1.2315683 -0.4853294 0.5388678 -0.39763227 0.102921344 0.10180754 0.96457535 0.6310144 -0.088192776 0.013836499 1.7347493 -0.38902763 -0.65558064 -0.034267776 0.18875723 1.4293689 0.3009127
move -0.8612441 0.3003468 -0.603364 1.058101 0.24977669 0.97101593 0.35165027 0.19742832 -0.08865733 -0.34778675 -0.15215592 0.19453907 0.25583407 -0.14580052 -1.0171753 0.44769755 -0.61497116 -0.3829945 -1.0368028 0.4141302 -0.4755723 0.628606 -1.7389106 0.15232275 0.27947778 0.6158217 -0.0023191574 0.2719755 -0.5067001 0.9565456 0.21403167 0.62280935 0.62722844 -0.5799517 -0.21895367 -0.8871663 0.44462007 0.26968998 -0.16006698 -0.6138719 1.6586756 -0.06695714 -0.6076431 -0.14421256 0.03773435 -0.4561763 -0.4994107 0.8800989 0.9543207 -0.4100668
point -0.059894405 -0.6006807 -0.73631746 0.5119805 0.121500045 0.61607605 -0.44854304 -0.0005027382 0.38715965 -0.038565625 0.6378128 -0.29307523 0.51994294 0.53018725 -0.16600913 0.16649893 0.011688953 -0.16211766 0.02003683 -0.044889 0.034563947 0.3704092 -0.8543273 -0.5964439 0.13856152 0.05841318 0.16812475 0.9090182 -0.22683993 0.61961764 -0.022618977 0.031896688 -0.18032378 -0.381518 0.52583593 0.047725134 -0.30591375 0.11128353 -0.40435967 0.097555086 -0.29262045 -0.3908011 0.0035856923 0.6884652 0.07654897 0.33453196 -0.5834435 -0.33556163 -0.23854204 -0.1017127
example -0.15119204 -0.4627271 0.1496346 -0.63014495 -0.04779192 -0.14145027 -0.3516168 0.53650624 -0.033328403 -0.6274328 0.56448364 -0.33520734 -0.14493813 -0.07518235 0.1320161 -0.23089312 -0.14261238 -0.12706764 0.32439145 -0.38385648 0.5781234 -0.60243624 -0.21043381 0.17154203 0.9849687 -0.39916676 -0.15249221 0.9021643 0.19262655 0.25894943 0.68133056 -0.3873568 -0.39637896 0.07477286 -0.2137903 -0.009093207 -0.15424605 -0.26270366 -0.58792233 0.61104107 -0.05213152 0.16078587 0.039166432 0.0980174 -0.44351515 0.37478244 -0.1630405 0.41777796 0.13395098 -0.49867225
able 0.85237396 0.28516406 -0.10030574 0.4528081 -0.11108612 0.2348281 -0.26365966 -0.4553169 -0.7499098 1.2538687 0.5573875 0.63056904 -1.3673344 0.11321812 -0.089911476 -0.24625851 -0.41981384 0.45229882 0.017677492 0.58844256 0.678315 0.5637625 -0.6210821 0.3693914 -0.3424237 0.0012528064 -0.17502296 0.14825931 -0.42719382 0.8390376 0.019261753 0.92125916 0.35299316 -0.42078212 -0.6221211 0.33491087 -0.08881656 -0.18995814 -0.09508594 -0.15330963 0.7655445 0.41976947 0.7083392 0.556136 0.3625152 -0.5066213 0.43279356 0.57282877 -0.17599092 -0.828241
next -0.6135867 -0.6198488 -0.72533274 0.91174984 -0.4621284 0.08347736 -0.148662 -0.575296 -1.6495372 0.2636336 -1.0424048 -0.010267719 -0.81632763 -0.08171393 0.4674287 1.2751346 -0.24004586 -0.60872084 -0.6154262 -0.44780916 0.48771852 0.7671017 0.10652407 -0.07507597 -0.19413778 1.36399 0.28260693 0.12476258 -0.30536702 -0.27112547 -0.32832143 0.5296408 -0.14583613 0.76967466 0.45435843 -0.048959512 -0.069993444 -0.20627242 0.9644823 0.42792025 0.22738516 0.47297144 0.116559796 0.23156981 -0.6752535 0.5109155 -0.472211 0.19021969 0.6515394 0.17806494
leave 0.010996136 0.48549706 -0.017382538 0.047457818 -0.07069013 1.2084349 0.1345244 0.09444011 0.002381134 -0.8080572 -0.78575426 0.30619588 0.7482631 -0.39277932 0.045608073 0.6458072 -0.6327383 -0.1386715 -0.78664637 0.15683615 0.00889139 0.98907083 -0.082550205 -0.26034817 0.22990152 0.23466563 0.8272314 0.022120794 -0.21360445 -0.09402655 -0.2747418 0.17870688 -0.07492629 0.8860255 -0.0996185 -0.77961457 0.19825102 0.2165804 0.008575093 -0.6727907 0.15246259 -0.76948935 -0.20156182 0.1077579 -0.085967 0.1085277 -0.030964885 -0.7561024 0.25585335 0.58220476
school 0.021121914 1.1610806 -0.0014845137 -0.80046767 -0.9619591 -0.6923089 1.0725098 -0.8171094 1.1450479 0.2528209 -0.29031095 0.22004709 -0.5155866 -2.2782633 1.127283 1.7813761 0.36144188 0.9141484 0.90234125 0.10639788 -0.07783497 -0.65379924 0.92354643 0.7534384 0.402179 2.553064 1.3719893 -0.28107014 0.14790654 0.62601274 -0.8615356 0.7387279 1.1366186 1.0936474 0.068932235 0.62761396 -0.47786304 2.076465 -0.09130922 -0.26472634 -1.2235688 -0.38808453 -0.53563875 0.004795848 -1.3169752 0.48060954 -0.71267235 0.4670238 -0.0047002565 -1.5292864
course -0.40879306 -0.12600625 0.2310597 0.3365653 0.29222077 -0.18379276 0.18106078 0.14720567 0.08674408 0.024093367 0.3000305 -0.33479834 0.13247478 -0.4266891 0.36903298 -0.038906205 -0.20273635 -0.51307595 0.057166796 -0.2398043 0.21469386 0.036338896 -0.25365445 -0.002672887 0.07263056 0.033957016 0.03417456 -0.06457864 -0.4531112 0.19326673 -0.25355098 -0.11242119 0.06322639 0.27896503 0.32100132 -0.007825029 0.045144767 0.030865518 0.03183228 0.5332661 0.22454984 0.07166889 0.3786859 -0.32268307 -0.13513137 0.015596353 -0.05655341 -0.09402701 -0.5842842 -0.12344192
million -1.8409508 -0.31556198 -1.4699466 -1.2132598 -0.042119365 0.22987454 -0.5930351 -1.8464841 -0.77643347 0.809557 -1.440558 -1.6740314 -1.211877 -0.074743986 -0.28485286 -0.08084706 -0.06854689 -1.1987525 -1.4023774 -0.10932585 0.8891763 0.19739431 0.4921885 -0.0955112 0.009302144 0.0060029835 -1.9322639 -1.091009 -0.33713928 -0.3503212 -0.13439749 2.9268491 0.95071596 1.5984005 -0.15258808 0.8471842 0.41443375 -0.4077639 1.4295511 -0.5674994 0.46383482 -1.1270676 0.9185511 0.62505984 -0.67182195 1.5988268 1.2041702 0.68657845 -0.7143244 0.92562455
design 0.543477 0.50226915 0.69363123 0.05068965 -0.58967066 -1.1418157 -0.3481769 1.2858819 0.17665526 0.16054781 1.5214725 1.0284401 -0.9049475 0.46075508 -0.67696714 -0.12360114 0.9032977 0.7932737 -0.65990055 -0.1455057 0.41314524 -0.6660564 -1.6459959 0.82800883 0.8106674 0.6080906 0.14929534 0.25007814 -0.1302448 0.6775591 -0.2095103 -0.27229634 0.34238353 -0.13608658 -0.1525998 0.31424537 -0.15613513 -0.3102585 -0.56563807 1.8209931 -0.11279944 -0.22726476 -0.014861089 -0.033420365 -0.015482859 -0.01604427 0.08848027 1.6121064 0.13104287 -0.42775905
number -1.2814634 -0.28140652 -1.011718 0.25961936 0.36576355 0.18130666 -0.7835874 -0.55828565 0.23161083 0.50688064 0.3416659 -1.7464176 -0.327706 0.35117182 0.24986674 0.56517017 0.102414705 -1.1467804 0.44349948 -0.14842956 0.2571462 0.6118494 -0.20142607 -0.3948146 0.2482515 0.20708168 -0.25783038 1.0135131 0.5101056 0.06553018 0.17033148 1.3015041 -0.106256366 -0.05854438 -0.6983708 0.72607887 -0.6698322 -0.66106564 0.08216554 -0.59226257 -0.040228676 -0.16471809 1.0329992 0.68607694 -0.6483769 0.69709533 -0.39435482 0.51379424 -0.32192323 0.41856328
city -1.817163 0.43963403 0.2254906 -1.7587403 -0.1340961 -0.01477782 -0.18138875 0.75436425 1.1386547 -0.20161122 0.45957842 0.898947 0.7717563 0.9417344 -0.45412225 0.09204035 0.007178193 -0.15068185 -0.55402774 0.12914358 -0.70730466 -0.56158704 -0.32015833 1.3797467 -0.52121866 0.259771 1.0957472 -0.32638404 0.10668577 -0.10018546 -0.5396236 1.4616764 1.6299074 -0.12855992 -1.1052837 -0.0926801 0.011954258 0.72300136 0.63785785 -0.95878834 -0.26757798 -0.105805546 -1.2545269 -1.0143082 -1.1192644 1.1781981 -0.14370558 1.6664821 1.4236951 -0.6364074
bit 0.21846046 0.20777917 1.1534667 0.43855006 1.3380152 -0.40691602 -0.62785536 -0.5930664 -0.74194723 0.6717959 0.005234822 -0.00065752806 -0.47512755 0.061536547 0.4844762 0.50333357 0.2627393 0.37392884 0.23733123 -0.895714 -0.107641675 0.46666604 0.038008224 -0.14141789 0.9142988 0.29307014 0.75958633 0.8667091 0.62899506 0.304999 0.33302107 -0.5205589 -0.15612368 -1.3770069 0.83239585 -0.46818012 1.0154341 -0.27234614 0.22013573 -0.43159515 0.966593 -0.5760829 -0.41519094 0.5493649 -0.019389506 -0.498721 -2.1714876 -0.20124015 -0.01803314 0.111153625
ago -2.096156 -1.4153345 -0.7359601 -1.8565185 -0.2587421 -0.0069254655 -0.6772291 -1.3183583 -1.6457335 0.012785553 -0.98774797 -0.84744984 -0.39990467 -0.19570479 0.51694685 0.41511416 0.61365366 -1.4793575 -1.296984 -0.9938547 0.5044677 0.75860167 0.94193965 0.12194647 0.5140678 1.3290832 -1.3353062 -1.6020083 -0.9522663 -0.7948972 0.34889802 0.5032072 0.023042168 2.1156003 0.46570694 0.015137647 0.7396702 0.2528124 1.8065705 1.1112707 -0.84855044 0.31195438 0.71375865 0.54176575 -1.0969195 0.9071123 -0.18361504 0.9677655 0.39149904 -0.041438725
high 0.26605976 0.36943957 0.23355295 0.23083249 0.15981527 -0.40113446 -0.0016956291 -0.73075706 1.6244625 -0.29139474 -0.80354583 -1.2530605 -0.08140343 -2.437756 -0.67524165 -0.16543348 0.045204625 -0.003102749 -0.3778537 -1.48928 1.8084054 -0.16979523 0.19415699 0.18096088 0.6881921 1.4869502 1.5516452 0.43587223 0.231134 2.2020144 -1.0006714 1.7251726 0.12555443 -0.7333589 -0.03381571 0.32420704 -0.5226792 0.59521985 -0.7765407 -1.1649741 0.0788776 0.67118645 -0.10532602 0.2554231 -0.5626942 -0.08461967 -0.14835258 0.4281248 -0.4533981 -0.25730774
kid -0.0975772 1.3882747 0.16886283 -0.24641539 0.014292313 -0.4404416 0.73914516 -0.33866104 -0.11313143 -0.082688555 -0.8505097 -0.0015617545 -0.7184111 -1.236448 0.8349631 1.5646927 0.42694557 0.67417717 0.31170276 0.8770334 0.17067897 -0.20879881 1.3114444 1.0349588 -0.9021092 1.6580619 0.7592746 0.30972844 0.4314037 0.06022605 -0.169339 0.16991311 0.60092634 0.21014665 0.48489335 -0.090368114 -0.3688349 0.9367205 0.49139357 -0.27300784 -0.18586014 -1.2705513 0.5159719 0.5497468 -0.15903543 0.22405623 -0.30763045 -0.19944759 -0.10646934 -1.0619977
believe 0.44753587 -0.5665729 -0.8111443 0.094214395 0.51059395 -0.40761164 -0.7888505 0.5882398 0.5761248 -0.48469734 0.8579874 0.03315072 0.41705865 0.23357089 0.16149816 -1.1313717 -0.15287666 -0.39433053 0.46933863 0.7201352 -1.0169884 -0.042448115 0.6571467 1.1953347 -0.43958956 0.3911975 0.30297348 -0.6628375 -0.5439053 -0.34184685 0.107476495 0.38878182 -0.1645839 -0.05668528 0.7374581 0.8310801 -0.033085264 -0.28397602 -0.76464945 0.5333268 0.1625647 0.26241407 0.1363013 -0.7613305 0.77354044 -0.48171604 0.16396815 -0.35042602 -0.4765489 0.27415076
state -0.2140894 -0.24224809 -1.9263403 -1.3610007 -0.1625083 -0.23525348 -1.0686084 -0.6672662 2.4733381 -0.30116686 0.20437732 -1.3717908 1.8148786 -0.6103615 -0.17323487 -0.45481712 0.7261765 -0.36362574 0.8058721 -0.0842156 -0.79954785 0.93868357 -0.38374698 0.40693992 -0.22623593 -0.20497125 0.44228986 -0.94309086 0.43006146 -0.9868656 -0.5138658 1.7585442 0.9179715 2.0222557 -2.4059906 0.0581632 0.034901854 0.6426909 -0.6649387 0.25394735 1.0762393 -0.1750749 -0.60070264 -1.5781373 -0.6578837 -0.10963543 0.45704806 1.14908 0.6932614 -1.1475621
water -0.26224172 0.68365884 1.5167049 -0.17657092 0.64677024 1.0274432 0.3743484 -0.18661523 -1.3010339 -0.18030894 -1.0652964 1.8465263 -0.32916477 -0.423909 -1.3614798 0.28056905 -1.3182445 0.08942544 0.8389517 -0.9343103 1.5878452 1.0300848 0.7991913 -1.7047331 -0.39225855 -1.4045923 0.6583564 -0.16603236 0.80527896 1.8313322 -1.6121536 1.5337458 1.8453659 -1.3955508 -0.04493748 0.24956508 0.47772205 1.0407635 0.5595806 -1.0598667 1.6801744 -0.17501278 -2.2010918 0.17268176 -0.5742456 0.12769829 0.6594481 0.6141548 -0.5168789 0.9200655
hear 0.52940273 -0.39962533 0.60566497 0.76115376 -0.35860822 0.6453849 0.20162845 0.3539142 -0.29897892 -0.20647058 -0.50831604 -0.6431557 0.30823404 -0.04531873 0.7373468 -0.25918716 -0.12790732 0.2828206 0.1832671 -0.93371755 -1.0279562 0.21173365 1.2573355 0.3464826 -0.41593418 0.5874876 0.47721794 -0.40284386 -0.47102538 -1.343183 0.9248528 -0.21370749 -0.9323293 0.48076499 0.087043874 -0.68859607 0.7011124 -0.6919037 0.8693533 0.044727936 0.58036053 1.0384194 0.5735505 0.5757717 1.107937 0.9027133 -0.43990573 -0.57007647 -0.14571434 -0.23556729
play 0.41352132 1.1151458 1.1965351 0.95099276 -0.12165004 -0.2575157 0.16087951 -0.5018719 1.0244766 -0.2474949 0.18408313 -0.8773602 -0.050474856 0.33243313 0.072059706 0.47920382 -0.28565067 0.53413194 -0.49419948 0.087727204 -0.13829377 -0.14324105 -0.56596756 0.1994205 -0.76021117 1.7734649 -0.51177406 -0.58151275 0.65620404 -0.7852446 1.085591 -0.8604757 -0.54821163 -0.25902086 0.4170583 -0.93337154 -0.84939766 0.2136337 -0.29631877 1.0204289 1.4736146 -0.36330104 0.33326152 1.5884626 -0.22169292 0.0047089895 -1.4377382 0.37587002 0.08421639 -1.1219074
maybe -0.15350059 -0.035451315 0.33721143 0.33570126 0.903793 -0.2506286 -0.50496906 -0.31303692 -1.1355616 0.43321297 -0.007685483 -0.5356726 -0.4077774 0.067558065 0.22292005 0.01617046 0.2638755 -0.21238482 -0.70932657 -0.013145039 0.21442491 0.4926045 0.42167193 0.16212542 0.41859677 0.3785869 0.3838356 -0.05569195 -0.1529361 -0.18308325 -0.048132427 0.0009880645 0.3052509 0.047044262 0.46103427 -0.1507634 -0.10322841 -0.2680247 0.13986157 0.29487982 -0.051606275 -0.31389317 -0.02610813 -0.035895895 0.13086 0.010390777 -0.08391725 -0.5066043 -0.40307897 0.007340104
sort -0.123711504 0.09623561 1.2686255 0.6488212 0.25825754 -0.21362475 -0.3069187 0.77429324 0.24470067 -0.13925585 0.8115622 0.3190371 0.03731982 0.5062494 -0.73684525 0.36784792 -0.091921546 0.31581128 0.3666117 -0.46175334 0.43107513 -0.15309234 -1.0110642 -0.13066283 0.50274885 0.17062548 0.37439394 0.3776698 0.15635175 0.0742052 0.0001257883 -0.36821848 0.06524212 -0.7307259 0.3048214 -0.3030702 -0.2230014 -0.26211664 0.048327565 0.3668134 0.36681265 -0.42664927 0.15007025 -0.07300324 0.66089803 -0.3764294 -0.11804203 -0.05184937 0.37052727 -0.13376707
bring 0.20886332 -0.45616984 -0.11825019 0.3312514 -1.1195939 0.43601638 -0.26451138 0.73162127 0.17749156 -0.660436 0.26520607 0.9545083 -0.29188836 -0.7662991 -0.42626822 0.10453275 -0.515372 -0.13609445 -0.21510719 0.34098208 0.057902474 -0.259272 -0.2306223 0.6652765 0.56862634 0.7803721 -0.18470474 -0.47836033 0.18563007 -0.23393558 -0.6734573 0.12243519 0.13534704 -0.28551006 0.23018697 0.450582 -0.049149618 0.07558204 -0.40476325 0.15267973 1.5033859 -0.14515086 -0.44841826 0.15557387 0.12608683 -0.09141996 -0.22602521 0.24657175 0.61746836 -0.23829995
word 1.0081065 0.817696 0.520665 0.09234675 -0.14516905 0.34749654 0.543549 0.008364104 -0.5262115 -0.67119217 1.0496615 -0.70955145 1.2543421 1.4338815 1.2285981 0.15235469 0.30001557 0.37854984 1.1754761 0.17938349 -0.052978467 0.37173656 0.9794009 0.41444606 0.16649577 -0.32578897 -0.34184745 0.5436596 -0.19818263 -0.91557485 0.8789993 0.04036871 -0.22585487 -0.2513177 0.99130577 0.50233376 -0.029455062 -0.889581 -0.008944941 0.33185825 -0.02007469 0.67890036 0.75522894 1.0647235 -0.35189384 0.5256705 0.34683838 -0.3941654 -0.53400743 0.039699323
second 0.026160704 -0.39062828 -0.19756657 0.45107514 -0.13111936 0.16396281 0.007884381 -1.5525211 -0.37012133 -0.05930493 -0.5040883 -1.145231 -0.079486735 0.20568317 0.28603008 0.7468218 0.12298357 -0.9108693 -0.5662322 -0.066958256 0.48965043 0.8746686 -0.8061308 0.043211434 0.24299575 0.10824748 0.12084921 0.26563674 -0.027098535 -0.59038305 -0.20257063 0.74087036 -0.44544333 0.5295538 -0.071735464 -0.036901925 -0.2541172 -0.5230789 -0.31522217 -0.03512915 0.042398803 0.29510862 -0.056206375 0.41035658 -0.3291102 0.54258 -0.80186015 0.24671076 -0.57086325 0.5576576
hand 1.5820754 0.7285789 -0.45153746 0.56548774 -0.4810811 1.0173587 0.46931252 -0.18252496 0.5683336 -0.2671396 -0.08432771 0.29205486 -0.6100101 -0.093189076 -0.8402783 1.2561004 -0.4710479 0.2511497 -0.22226146 0.8582473 -0.17959258 1.3372158 0.25633612 -0.6621448 0.88002425 -0.41171253 0.17989905 1.1242672 0.10831613 0.4162042 0.13725758 0.515002 -0.28857717 0.070438094 0.3712258 -1.734089 0.54408854 0.12914154 -0.5286705 -0.54915816 0.82024795 -0.8024102 -0.094426736 1.0652648 -0.21896742 -0.30948165 0.08712929 -1.03356 0.6217794 0.50432813
begin -0.32872456 -0.57469404 -0.10841164 -0.6347238 -0.15587835 0.00877251 -0.050750617 -0.44248685 -0.17695552 -0.11372142 0.24625227 0.36244094 0.09140942 -0.023582485 0.4701615 0.34445047 -0.5489158 -0.46575958 0.29914942 -0.4243877 0.6088251 0.68792355 -0.2004212 0.07674826 0.13409063 0.5089888 -0.06682012 -0.49158868 -0.8438118 -0.2613505 -0.34533036 -0.33181074 -0.3288052 -0.34277394 0.229177 0.13993375 0.40443805 -0.67171216 0.069405206 0.32509717 0.208291 0.052273966 0.033419855 -0.41544884 0.31914395 -0.40282416 -0.41267377 1.1373864 0.6414526 -0.20482841
real 0.88505787 -0.39325836 0.08785697 -0.19099331 -0.40182838 -0.46111855 -0.39615187 0.65371466 1.1700363 0.4914355 0.4289236 -0.11761314 0.16383609 0.32819605 0.17230187 -0.43976775 0.25334823 0.07191332 -0.09574535 -0.022323433 0.19322354 -0.24859123 -1.4284196 0.8130695 -0.004318885 0.45188525 0.26642317 0.71816283 -0.14922614 0.4555268 -0.2692405 -0.27311486 0.1476739 -0.9295362 0.37940103 0.76049733 -0.72952986 -1.0041717 0.5949214 0.52965814 1.3935546 -0.38034347 0.2641583 0.3834289 0.6956095 -0.15972622 -0.33407634 -0.44868764 0.18456201 0.21142858
grow -1.1332546 0.67003024 0.037710298 -0.40349442 1.6596804 -0.021770155 0.15388761 0.71123147 -0.7584142 -0.13870142 -0.5930343 0.35912457 0.21787801 -1.2444762 0.0743996 0.5249213 -0.90683824 -1.0880641 -0.27059785 0.07392056 0.6912127 -0.13085711 0.36680865 1.1478492 -0.6146693 0.36485872 0.20982437 -0.76363164 0.1473291 0.35646707 -0.85810405 1.1089725 0.36842415 -0.12947525 -0.53515637 -0.1381509 0.4382769 0.18382712 -1.1381135 -1.0866005 0.8116429 -1.0489213 -0.06437644 0.52553225 -0.12873627 -0.5776653 0.07724531 1.3909308 0.6897049 0.18873025
ever 0.7803093 0.07587802 -0.2958164 -0.61327225 0.35944927 0.42521414 -0.012895729 -0.1051859 -0.028991966 0.4162 0.118876204 -0.290407 -0.20398137 0.13763249 0.021157093 -0.30481136 -0.22012186 -0.06055804 -0.1386025 0.41888 0.58212686 0.61908925 0.30108276 0.031133084 -0.8749638 1.0894204 0.49123868 -1.0170482 -1.0236325 0.16213433 0.60818815 -0.31091622 -0.040736247 -0.011160242 0.40659368 -0.34421363 0.03699112 0.2888654 0.93816394 0.08779033 -0.05451396 0.027009167 0.28260934 -0.3510744 0.39877123 0.22970682 -0.019887593 -0.38204217 -0.67796254 -0.5720069
small -0.97928077 0.46971485 0.21618727 -0.15945163 0.246645 0.22401913 -0.7347438 -0.49834427 0.2805608 0.4972004 -0.3028031 0.28787905 -0.53472656 -0.44709712 -1.3618579 1.0757722 -0.7730927 -0.7586456 -0.8219739 0.2030936 1.261947 -0.8759889 -1.1207511 -0.23101847 0.36128804 0.22194056 0.47154945 0.0011817687 0.69852895 0.8322577 -0.015691921 1.2789682 -0.0057580555 -0.7253122 -1.361546 0.7660296 0.65630937 0.2878558 0.21076219 -0.33923036 0.9968821 -0.25572193 0.62417364 0.72168046 -0.30305994 -0.751152 0.043222137 -0.4885391 0.32275063 0.55111206
datum -0.20182446 -0.063902125 -0.8361452 -0.33230546 -1.0735267 -0.21249913 -1.2260517 0.38677734 -0.7869296 1.9194368 0.5536968 0.03877571 -0.98936045 0.65517324 -0.4095322 -0.30141693 -0.18544532 0.34115586 1.7825106 -0.8984742 0.041361134 -0.20381269 -1.8031785 -0.20896646 1.1905162 -0.9244683 -0.303221 0.9592935 0.68016225 1.8587333 0.26068568 0.98145425 0.080307476 -0.8415303 -1.2522845 1.4159225 -0.23801993 -1.1284369 1.583979 0.5989495 -0.020030683 0.16597617 -0.114335135 1.9077848 0.010571369 -0.57573754 -0.6494824 0.2719934 -1.1019391 -1.0697862
experience 0.7953253 0.37401444 0.086961664 -0.5694078 -0.43276295 0.1862997 -0.29614916 -0.24663429 0.7130721 -0.41198498 0.5403556 -0.0814209 -0.36155337 1.6335866 0.7846195 -0.5655563 0.26813057 -0.9661629 0.14400654 -0.7117295 0.2654772 -0.31611603 -0.37056336 0.89466536 -0.069892436 0.4840496 0.700899 -0.053322848 -0.5812335 -0.9512265 0.15648837 -0.24987827 0.65144414 -0.7511705 0.66715854 0.30068094 -0.53371525 -0.9980536 -0.6078537 -0.3901836 0.41138664 -0.313614 -0.35293213 -0.14953864 1.2535082 -0.30027223 -0.38368946 -0.2315978 -0.86895084 -1.4246355
always 0.5171034 0.45990568 0.3179156 0.20123146 0.596108 -0.21424723 0.05471967 0.55457574 0.29651475 -0.19812216 0.41100892 0.30955338 0.6230947 -0.0722469 0.26593614 0.18472876 -0.35692763 0.06617639 0.41227245 0.36352354 -0.47439334 0.17047876 0.14184727 0.45357883 -0.49511796 0.57413125 0.8714417 -0.107842 0.14572406 0.02618849 0.38371745 -0.4106658 -0.093824066 -0.291516 1.0327471 0.17404555 -0.10133464 -0.2630408 -0.33623442 0.26138481 -0.33775762 -0.31230286 0.29434463 -0.24923642 0.30637398 -0.26932222 -0.4987747 -0.77548057 0.22372724 -0.49859485
person 0.6268278 1.61157 -0.55944204 -0.30211592 0.1164351 0.38895306 -0.17789535 -0.26765764 0.3014732 -0.37771183 -0.2769239 -0.73387384 -0.71500933 1.3631963 0.62495726 -0.0697604 0.111591175 -0.10008965 -0.17924827 0.2063603 -0.6947099 0.32627425 0.43309727 0.48026907 -0.1514066 -0.038293127 0.46344674 0.7554954 -0.04544568 -0.17749806 0.5051219 0.46928146 0.3359701 1.0081167 -0.2326994 0.089235835 -0.91166425 -0.8092025 0.0362811 -0.6147003 -0.08427932 -0.679447 0.83961827 0.41741818 0.51280785 0.6866917 0.804292 -1.0920618 -0.08061033 -0.838876
four -1.5683239 0.66011095 -0.39076412 0.5455031 -0.3575625 0.4540526 -0.9198542 -2.1576357 -0.80474746 -0.37546724 -1.3881181 -0.29835647 -0.39232293 -0.09773397 -0.098628946 1.1881863 0.5236883 -1.1448439 -0.862543 -0.57796913 0.8898081 0.75349456 0.0838226 -0.23530072 0.19689962 1.1601515 -0.25636986 0.0017170482 0.06331195 -0.2533419 -0.78657246 0.4493108 0.12708992 0.9150628 0.14493561 0.16182272 0.35001338 -0.11984994 0.3426502 -0.06986989 -0.078905515 0.18392733 0.9875234 0.45370764 -1.5553752 1.2891132 -0.06590502 0.37891665 -0.1492323 0.3839542
write 0.21898451 0.13790858 0.53551567 0.47992268 -1.1685646 0.81943107 0.05341635 0.93662775 0.05955968 0.03939419 0.24207687 -1.002971 0.9285056 -0.22768405 1.2780412 0.9613832 0.35936457 0.034037 1.4020264 0.41064194 -0.45501956 0.29562324 0.68305075 0.26484466 1.5784101 0.95628715 -0.61773336 -0.45257974 -1.0630791 -0.39237446 0.9186861 -1.2959152 -0.91883963 0.73588175 0.7786168 0.6345876 0.17897087 -0.81182796 0.7857263 0.7784391 -1.0279123 -0.3400891 1.4932045 1.1787887 -0.023129273 0.75732994 0.72649074 0.99437654 -0.114295244 -0.059043307
run -0.6908295 0.4959653 -0.15628941 0.6673664 -0.6586166 0.16662115 0.9747279 0.14967506 -0.46348992 0.2554519 -0.29006028 -0.25367004 0.039628632 -1.489579 -0.34794462 0.20908622 -0.6897472 0.14301196 -1.0285727 -0.33259535 -0.07620381 0.13805296 -1.4020405 0.017192286 0.21840097 0.15365908 -0.05417846 0.18781745 -0.020124225 0.30355448 -0.13473335 0.009200304 1.0146095 0.87622714 0.027041227 0.007648468 0.87033033 1.0895523 1.0331709 0.080418445 0.5708954 0.14184497 0.1802966 0.2595842 -0.35882205 0.34904784 -0.025215521 0.014537496 0.025951263 -0.1357503
space -0.7254907 0.6691655 0.72097456 0.60286206 0.31877017 0.14546046 0.0950797 -0.27371445 1.1040496 -0.14211732 1.2282735 1.4500148 0.2798628 1.7551737 -1.3573661 -0.36290178 -0.19084856 0.25309396 -0.20690475 0.25025588 0.43447083 -0.9670289 -2.2533047 -1.0916218 0.71174383 1.6423454 0.23256646 0.40228194 -0.8560114 0.51780105 -0.25488895 1.5126458 1.8625833 0.18116266 0.19462447 0.84968436 -0.05726658 -0.43756685 0.8200341 -0.42128944 -0.08844946 0.17832607 -2.1986265 -0.20983075 0.17810647 -0.19819784 -0.71426266 0.64650637 -0.30572093 -0.0031156659
away -0.91297495 0.7878884 -0.4353232 0.88508123 0.46673465 1.7958021 0.5433979 -1.4670169 -0.6640155 0.4643342 -0.7875261 0.6676952 -0.22899531 -0.32983285 -0.49526533 0.53594214 -0.59443325 0.15457629 0.21590954 0.2563367 0.44226173 0.13316734 -0.8533004 -0.08000543 -0.091246106 -0.17235723 0.6304829 -0.06223962 -0.5896869 0.61058176 -1.0143527 0.22742024 1.0458074 0.13563012 1.012334 -1.5186213 0.6829588 0.4264058 1.1067078 -0.5111216 0.7131952 -0.39189303 -0.38518444 -0.5025493 -0.04474229 -0.1910012 0.26479223 -0.7257736 -0.55647886 0.49338457
family -0.27647272 1.5716279 -0.7123364 -1.5176084 -1.3932711 -0.6459765 -0.5386541 -0.9149754 0.16501789 -1.1757118 -0.592285 1.4709796 0.048550703 -0.29231334 0.5120544 0.7272004 -0.78657687 -1.0477654 0.19350798 0.9516889 -0.6154053 -0.14001909 0.7784166 1.2548925 -0.717913 0.7666071 1.0439544 -1.3536397 0.478967 -0.5995841 -0.17009352 -0.048148274 0.61039585 0.22150224 -1.1388627 0.28458673 -0.3598355 -0.055548113 -0.095075995 -1.1289935 -0.34608135 -0.8880375 0.4731182 0.4385315 -0.5457005 0.32044786 0.5837465 -1.3448571 -0.12894416 -1.4094884
bad 0.8168708 -0.2018374 0.018399982 -0.073948584 1.0238016 -0.9976723 1.075334 0.80750966 0.1947331 -0.33232176 -0.57496786 -0.6771131 0.640443 -0.85329473 0.07644117 -0.7602149 0.005654087 -0.211211 -0.23289646 0.19458161 -0.23137712 1.1048803 0.1248961 0.4255693 -0.34834 -0.67712176 2.1870077 -0.3062928 0.39478812 -0.307427 -0.24146406 -0.59052813 -0.8037975 -0.62347734 -0.42723203 0.16988276 0.10214834 -0.16350274 0.20437387 -0.0039756885 0.25846317 0.045798372 0.49994072 0.09323344 0.5238187 0.39187077 0.89360636 -1.1060994 -0.8473853 -0.010474346
home -0.24412777 0.99644905 0.49708062 -0.46654457 -1.5506396 0.44378 0.63833547 -0.60923046 -0.8163318 0.0081360005 -0.5328523 1.0683843 -0.12762316 -0.82268906 0.48986402 0.9423584 -0.64102834 0.2021829 -0.33579552 0.8194973 -0.7071064 -0.6447253 0.30517897 0.4640988 0.06466772 0.67226374 0.9293973 -0.4791355 0.36668977 0.18425912 -0.29526514 0.28973088 0.77871484 0.70744884 -0.09204702 -0.47829723 -0.060853716 0.43471962 1.0844187 -0.8935808 0.7311585 -0.9913879 -0.40735465 -0.48657045 -0.9093561 0.84665966 0.21533279 -0.42213115 -0.15932542 -0.6680885
everything 0.22980218 0.50314033 0.5215624 0.18766299 0.116480954 0.24071664 0.28191096 0.32080528 -0.35293722 0.940428 -0.26278004 0.105491996 0.4391264 1.5136913 -0.20094238 -0.16363867 -0.32264704 0.43559256 -0.32332182 0.114157535 -0.43090054 0.43376324 -0.47738406 0.24462701 -0.36730015 -0.29489473 0.6949599 -0.20058192 -0.2216169 0.7404924 -0.48019022 0.97801864 -0.07969437 -0.42353708 0.2662893 -0.2648993 0.0908583 -0.35600397 0.14972368 0.8661694 -0.09800672 -0.07661426 0.101887465 0.909654 0.6388185 -0.5589522 -0.15330839 -0.5954811 -0.3265288 -0.24295218
whole -0.7209813 -0.40157163 0.4681778 0.24785598 -0.34450942 -0.26350635 -0.553983 0.444531 -0.21459876 0.04976164 0.32678348 0.8325615 0.22659718 0.60692304 -0.43039963 1.0847334 -0.17530307 -0.17101948 0.17302321 -0.47153893 0.63145626 -0.3021616 -0.83453673 0.58366054 -0.08901993 0.46688852 0.3097717 -0.287207 0.25873017 -0.79232806 -0.75822085 0.074742645 0.017886104 -0.5225026 -0.14635168 -0.029475464 0.6730716 -0.119172886 0.5487392 0.27993706 0.15307449 -0.09879508 0.3798569 0.8025389 0.03865034 -0.86097056 0.4722541 1.0503306 0.07893335 0.029259441
power 0.97796917 0.6286164 -0.7917348 0.120718226 0.3189774 -0.61604285 0.29501817 0.04354002 0.08316421 0.13508932 1.8743724 0.71272457 1.2487515 -0.16398136 0.18051654 -1.3310603 -0.44791248 -0.72580737 -0.45293853 -0.67829126 -0.1359493 -0.020510875 -0.6088716 0.20960587 0.31932315 0.23746811 -0.047485325 0.6615374 0.3234866 0.4677554 0.29475006 2.3921144 0.6484767 -0.80448925 0.13986543 -0.2785574 -0.45677772 -0.99807876 0.09840389 0.4155468 0.6016502 0.7799411 -0.70821583 -0.30490702 -0.88543093 -1.6014792 1.07784 1.3181003 -0.3584324 0.10201939
body 0.672092 1.6227003 1.4727417 0.7429927 0.066671744 1.1000572 -0.20990872 -1.2806545 -0.40859884 -0.062587924 -0.16916217 0.86307836 -0.65068805 0.9485557 -0.51026666 -0.5445961 -0.8559472 -0.5059282 -0.06230454 -0.5348479 0.41173428 0.21238983 -0.2734827 -0.49438208 -0.03449331 -0.9323751 -0.039120007 0.30180365 -0.6156483 0.2982622 -0.3358 0.7552868 0.65156186 0.4065338 -0.5861147 -0.5519327 1.0517178 -0.5458123 -1.2242378 -0.60068005 0.7424524 -0.7627788 -0.18411058 0.13426115 1.4491175 -1.8277463 1.3312078 0.30862328 0.32555038 -0.79271966
keep 0.4700598 0.8075418 0.19457893 1.3710372 -0.16144964 0.69811606 0.27771473 -0.26150873 -0.5530169 0.54289716 -0.109038755 0.18435 -0.14691412 -0.71173126 0.25904313 0.6893175 -1.0904102 0.4566834 -0.30636755 0.745862 -0.109941274 0.23794721 -0.5247465 -0.5513628 -0.9230336 -0.6343082 0.686734 -0.81285566 -0.21888535 0.47580892 -0.23586188 0.55154693 0.124942005 -0.59770215 0.3798527 0.19861308 0.49553078 -0.11157546 0.25788996 -0.4266507 1.0190433 -0.29617614 -0.49401262 -0.21000303 -0.45657548 -0.08018197 0.13615482 -0.44237626 -0.2652578 -0.58222353
guy 0.2622869 0.74049693 0.4873376 -0.26355264 0.5646262 -0.042422317 0.63520795 0.5295587 -0.44273743 -0.42886135 -0.019389944 -0.3697236 -0.17658639 -0.9624192 -0.5053399 0.6121675 0.19083795 0.7426696 -0.28630728 0.18640183 -0.5549737 -0.07547686 0.4713804 -0.07466509 0.2081893 0.74548423 -0.20060588 1.0178248 0.38545176 -0.67696667 0.21958444 -0.4717913 0.29287517 0.38169628 0.6898789 -0.82178134 0.14747182 0.5136342 1.4961771 0.7385152 -0.66868645 -0.24480215 0.066256955 0.09260663 -0.15458128 0.9832983 0.12727115 -1.1521777 0.818282 0.037545774
light -0.7235864 0.19884817 2.2751849 0.72310114 1.0849191 1.695817 0.6989865 -1.3361183 -0.8455857 0.39820683 0.1819884 0.46015403 -0.48896888 0.47885358 -0.46266773 0.010138615 0.07925308 1.9956002 -0.5868899 -0.18903926 0.58321255 -0.061366927 -1.3300914 -1.5109714 -0.5614235 0.0050090784 0.6502471 2.3644297 -0.48033524 -0.30244616 0.08062961 1.7763323 -0.0046990477 -0.11434531 -0.01809256 -1.0998616 -0.6278966 -1.2542802 0.15347248 -1.2628794 1.6901314 -0.002961006 -2.3874812 0.15438555 -0.54285204 -0.55378515 1.179199 0.31964654 0.5407336 0.86208695
cell -1.6353252 2.2714105 0.6118213 0.8117466 0.9416101 1.2957103 -0.26125556 -1.4221264 -2.5410218 0.9626249 -0.24166869 1.0437608 -1.661224 0.40997416 0.6967391 0.39932054 -1.2666744 0.12373734 -0.8633131 0.1474322 1.2884517 -0.4349057 0.18806282 -1.1926365 0.5534013 -2.6315026 0.8399529 1.6948909 -0.29829094 0.27603638 0.6198663 0.9584025 0.57041866 1.8128275 -1.8518162 0.8137677 0.24556576 -0.56418484 -1.4078755 0.79560393 0.89614064 -0.28807956 0.56351024 0.5897308 1.7131296 -1.415549 1.3956321 1.5442483 1.3141327 -0.27551833
five -1.1580606 0.516941 -1.1798756 0.16765395 -0.0033424327 0.518556 -0.8789729 -2.2924657 -1.3926945 -0.15880927 -1.364861 -0.83366376 -0.5091315 -0.65326345 -0.004538865 1.1598027 0.30049682 -1.1824485 -0.93312734 -0.72092265 0.71216464 0.7329218 0.17907628 -0.20460232 0.1763195 1.4313105 -0.29882663 -0.53273755 -0.010912659 0.1389156 -0.6073986 1.0233587 -0.05871634 1.1613533 0.15805599 -0.09436923 0.074822135 -0.23514101 0.89476544 -0.20301384 -0.27640688 0.25616264 0.7933529 0.24879386 -0.98421615 1.258078 -0.13877322 0.28412318 -0.2814304 0.47412837
study -1.3430741 -1.2581476 0.24880596 -0.92669815 0.42928395 0.14505279 -0.66740656 0.095156856 0.19377328 0.17047514 0.1312663 -0.85131675 -1.303514 -0.5487351 0.23330472 -0.21991622 -0.0033612112 -0.275606 1.326101 -1.5148183 0.9976407 0.1889077 0.13507274 0.8044053 1.4615737 0.67473656 -0.6595796 -0.80660176 -0.3134646 0.5089906 0.14633939 -0.980082 0.2649801 0.95816284 -0.5191449 1.0187328 0.4661061 -0.20933807 -0.54122853 0.058920134 -0.5971774 -0.044986907 1.0746446 0.38894877 0.20045382 -0.91401106 0.2513065 0.9180415 -0.5538026 -1.9046932
reason 0.14634793 -0.28069648 -0.7622992 0.19158222 0.83757704 -0.7613204 -0.6472623 0.18271503 0.070311956 -0.6067244 1.1357992 -0.04538269 0.31672573 -0.03338644 0.50660044 -0.36261648 0.2926098 -0.6107159 0.5124406 -0.092331 -0.31617397 0.11643903 -0.050243665 -0.055120397 -0.36776257 -0.6452584 0.42817384 0.6011513 -0.049445655 -0.11726403 -0.17087336 -0.22748223 -0.011599324 0.39622 0.09808869 0.29386693 -0.48508167 -0.037809934 -0.5136134 0.7205571 -0.24514516 -0.2760753 0.39166948 -0.25172886 0.23899566 0.05545973 -0.39573392 -0.37627015 -0.96428543 0.09728483
information 1.0585115 0.99814826 -0.3850089 0.025944488 -0.86015415 0.08301871 -0.4889244 0.5813846 -0.49419755 1.7352144 1.3414623 1.2944623 -0.8519189 0.59781635 0.50519514 -0.23649718 -0.04902063 0.23410624 1.5049708 -0.70546913 0.546347 0.024731565 -1.591744 -0.2517829 1.3052012 -1.7763841 0.1592617 0.6203822 -0.09067203 0.56896895 0.8919113 1.834848 -0.058106586 -0.98590773 -1.3506949 1.3105066 -0.766152 -1.4425118 0.71788234 0.19698115 0.49809572 -0.501935 0.08859641 1.6182055 0.24056074 -1.0795896 -0.2056116 0.4304875 -0.9787544 -1.134368
community 0.10228207 -0.29410112 -1.2763026 -0.9089173 -0.9721227 -1.11186 -0.22639912 0.18626967 0.63265693 -1.3718431 0.79958194 2.0647247 -0.4801867 -0.07476313 0.00870528 -0.108379856 -0.6245685 0.29125446 0.36611176 -0.06908575 -0.33091122 -0.8609795 0.5555782 1.8828982 0.16931187 0.7676744 0.90007406 -1.2484488 -0.41472608 -0.13329478 0.142417 1.192051 1.4266036 -0.34264922 -1.5916892 1.3253564 -0.81684345 0.5238767 -0.23233366 -0.5380432 -0.021032687 -0.94956625 -0.37832785 -0.32737857 0.40105468 -0.1363418 0.80699956 0.4864099 0.31406015 -0.64243007
company -0.13943519 -0.020177348 -1.4664309 -0.63015544 -0.53874576 -2.1915054 0.14302354 0.6444869 0.2948014 0.25444514 1.9067485 -0.916638 -0.75960624 -1.0741185 -0.3172645 0.12914245 -0.58105236 0.78561234 -0.8598525 0.22336961 -0.25969136 -1.0619738 0.01726988 0.3001952 2.0687184 -0.8652013 -0.44897842 -0.6656961 0.27420783 0.35060096 0.17099953 0.7699203 1.0588902 -0.06653363 -0.82131594 1.2123618 -0.027528783 1.01751 1.3314685 1.4242162 0.17116451 -0.6767678 -0.6713272 0.5045958 -0.58714384 0.3033311 -0.06352228 0.67675406 0.19290325 -0.28262427
money 0.10478667 1.4864837 -1.3402797 -0.8440583 -0.2833796 -0.08031362 -0.1946244 -0.6326634 0.8475284 1.044178 0.9460283 0.4241198 -1.3110243 -1.4707454 0.60343295 0.6088765 -0.21232612 0.87826097 -0.62705976 0.31069702 -1.5406705 0.053313658 0.22885913 0.70484895 0.0070042824 -1.0151303 -0.04868811 -1.1688111 1.3844984 -0.28147444 -1.1060286 2.079859 0.47286513 -1.1526756 -0.25858203 0.7770589 -0.049755745 0.61150616 1.5070163 -0.49969307 0.1522989 -0.57013774 0.27315986 0.4794916 -0.66482776 0.6573608 0.72527397 -0.6471486 -1.6581417 0.17439637
sense 0.67722684 0.39149874 0.40064827 0.8464214 0.5246969 0.08182362 -0.23855229 -0.03563943 0.82156456 -0.26014933 1.525885 0.795646 0.44051942 1.3197817 -0.043973487 -0.6119718 -0.3903549 -0.1336044 0.10237123 0.25931543 -0.03405763 -0.16850469 -1.0426106 0.04654211 -0.021518642 -0.40421987 0.1616586 0.6176766 -0.15431902 -0.60188997 -0.07704016 0.53358954 -0.15394764 -1.0076712 0.7414709 0.6419104 -0.41719967 -1.0610609 -1.0005251 -0.18144885 0.007553452 0.11455377 -0.4579571 -0.39067742 0.89790946 -0.5322811 0.018941017 -0.285962 -0.9879598 -0.83134377
computer 0.82945096 1.1823276 0.32047662 0.32109487 -0.7580419 -0.41454124 0.20916909 0.12520659 -0.5455228 2.1332376 0.7663554 -0.619966 -0.1959152 0.066853866 -0.75664806 1.3676817 0.6249201 0.9674985 -0.55701673 0.15490504 0.0020692458 -0.67098045 -0.62890756 -0.13969643 0.54006916 0.53271407 -0.8692948 2.1588268 -0.9199684 0.77667034 0.40335238 -0.031966045 0.16210178 0.19535606 -0.74633574 0.50963074 0.21611208 -0.85403675 0.75068724 1.9759798 0.23338251 -0.5290802 1.319819 1.5858299 0.9520111 -0.1248936 -0.9722303 1.6369332 0.08579784 -0.7908546
future 0.26669478 -0.8568378 -1.4756424 -0.43932736 -0.275919 -0.4170099 -0.9932402 0.45204094 -0.4788107 0.6878923 0.96336466 1.2912877 -0.6932277 0.4603293 -0.89852107 -1.035083 -0.072200276 -0.502879 -0.3036242 0.81633 -0.60892034 0.105426684 -0.30589035 0.8671425 -0.9163602 0.46242565 0.9815372 0.2801829 -0.70590264 -0.011638326 -0.4581941 0.41253164 -0.17083037 -0.24032854 0.8955492 0.70083517 -0.5842509 -0.89966214 -0.8840382 -0.08128639 0.541701 0.50779605 -0.32350188 -0.1990924 0.11449357 -0.3787313 0.17256173 0.68035394 -0.31452894 -0.79557234
large -1.0629979 -0.6453416 -0.261533 -0.5262215 0.52617407 -0.1513939 -1.0055368 0.05845011 0.63553447 0.25779942 0.527351 -0.12631842 0.12143447 -0.26412752 -1.4929998 0.4253407 -0.4941676 -0.9997527 -0.4711707 -0.40166643 1.2671943 -0.95441455 -1.3340106 0.2166135 0.36062086 0.116876654 -0.3610059 -0.033844117 0.46509406 0.54982346 -0.24944246 1.4572642 -0.081418656 -0.40471837 -2.3887124 0.51485884 0.6746838 0.21438676 -0.2320118 -0.41476375 1.3154447 -0.42383346 0.16341227 0.029568128 -0.40389308 -0.27153865 0.20236547 0.40934575 -0.05817632 0.8034476
open -0.1468706 0.38621917 -0.6678762 1.5592021 -1.2755581 0.5005092 -0.5927822 1.9784231 0.7319258 0.38851961 0.810162 1.439872 0.43030044 0.053597067 0.1239046 1.2391359 -0.96036774 0.772872 0.27657142 -0.06399043 1.3967068 -0.7616379 -0.6009964 -0.1449306 0.6704507 0.033714056 0.3528149 0.16956483 -0.8799045 0.14011696 -0.35707444 0.7459598 0.73232687 -0.59648997 -0.3465617 -0.46669742 0.8593938 1.0209897 1.1660074 -0.14219165 1.1739583 1.0128521 -1.1013122 0.05529398 0.14240468 0.36700347 0.7422401 -0.08061956 0.50930613 0.59429103
picture -0.125102 -0.27289185 0.7768213 -0.61592555 -0.54888713 1.2571454 -0.3584254 0.41624752 -0.78027225 -0.68858355 -0.20758936 -0.36417615 0.10009478 0.5297917 -0.19322062 0.36380315 0.20511858 0.5863616 0.21446589 0.08475363 0.21498813 -0.6620114 -0.6548574 -0.70198333 0.13739501 0.7162567 -0.026722137 1.285136 -0.12912491 0.088985935 0.6202947 -0.13216719 -0.38403532 0.6681265 0.09246575 -0.4047192 0.87996775 -0.9114221 0.9606525 -0.0786695 -0.28328997 -0.44684282 -0.45034453 0.7887914 -0.48500088 0.142645 -0.8232976 -0.46989447 0.5497933 -0.45976895
10 -1.1166675 -0.05395124 -1.2968236 -0.23060893 0.18960223 0.14810458 -0.6501013 -2.216122 -1.5555987 0.573572 -0.95236593 -1.5488026 -0.8628547 -1.048356 -0.09999011 0.77400297 0.29848236 -0.68275136 -1.6168035 -1.1835357 0.29719347 0.9709725 0.12375533 0.053180274 0.11178225 1.1591254 -0.41119653 -0.7338615 0.19141297 -0.092770785 -1.2731653 1.6249337 -0.17248729 0.961534 0.019913703 0.018997813 0.21030612 -0.5666166 0.98383117 -0.3500261 -0.5655616 0.22482142 0.524116 0.48497915 -1.0191723 1.1964464 -0.17832296 0.57722014 -0.5304402 0.37828204
moment 0.8385932 -0.16067225 0.084664285 -0.6309771 -0.5786597 1.3620054 -0.18701866 -0.07348026 0.46162027 -0.03055607 0.28542364 0.22731507 -0.20106965 1.2308855 1.1105562 0.29939756 -0.38321808 -0.8563707 -0.057776887 0.0329606 -0.2728299 0.47275525 -0.22633584 -0.3177438 -0.96192765 0.47384104 0.5429317 0.3725013 -0.93555146 -1.0353643 0.14133452 -0.26892745 0.09901036 -0.5129569 1.0541912 -0.35376015 -0.5831818 -1.08692 0.31922486 0.61690336 0.37289408 0.5458965 -0.95065755 -0.37285423 0.4929448 -0.553197 -1.0210394 -0.7390784 -0.068295516 -0.29173312
car -0.7679501 2.2829914 0.5838792 0.76311445 -0.33925116 -1.0017172 -0.3914963 -1.1054101 -0.9878958 1.3732386 -0.19034158 -0.5136283 -0.09060221 -0.3731075 -0.7003062 -0.5976037 0.7002392 -0.0023856258 -1.249444 -0.021251522 -1.5909064 -1.1713343 -1.2745564 0.15061651 0.029095039 -0.25764477 0.7012799 1.2334595 0.03150566 0.5298799 -0.22708565 1.2361343 1.178732 -0.18109143 0.38824853 -1.614282 -0.35448 0.87739867 1.9191917 0.48954397 0.44862512 -0.07198473 -0.6103557 -1.2394843 -0.8743424 1.4983011 0.17817295 -0.16862527 0.80807227 -0.7092228
friend -0.4629116 0.90474457 -0.1078893 -0.994184 -1.3867347 -0.24176146 0.041113622 -0.18066277 -1.0008295 -0.9442042 -0.23461793 -0.009896529 0.034084633 -1.0234771 0.4015261 1.2684311 -0.54166025 -0.22365963 0.258641 1.1180189 -0.78164977 -0.30625588 0.87951297 1.1058055 0.66072804 0.76117706 0.20138824 -0.36066043 0.44906598 -1.7283418 0.875305 -1.4085364 0.35703713 0.28702584 -0.21161072 0.12712589 -0.43389916 -0.19606711 1.4109386 0.18498863 -0.5305914 0.12678301 -0.07848557 1.0868711 0.40749428 0.41360268 0.27054715 -2.0660248 0.80038023 -0.93979424
hard 0.7867971 0.372886 -0.070501484 0.09836962 0.82056683 -0.27842283 0.22875504 -0.5642728 0.05923688 0.2585633 1.0054632 0.69928485 -0.21217278 -0.2596996 -0.3234061 0.37301493 -0.024912665 0.07575469 -0.054436706 0.046756767 -0.063553 0.9318148 0.018139036 0.35891584 -0.77302563 0.32010818 0.6964401 -0.18572378 0.5420701 0.9035678 -0.3824106 0.07317401 -0.07537843 -0.8787556 0.65373284 0.5649826 0.051830012 0.36692768 0.03223115 0.25561094 -0.10230755 -0.15286554 0.60729015 -0.07446861 0.42657745 -0.7238679 0.15279384 -0.47523677 -0.5942267 0.081300706
case 0.26416844 -0.74344563 0.15083781 -0.48713976 0.24785487 -0.29394808 0.1640109 -0.3740752 0.51064914 -0.1269539 -0.3030646 -0.9020046 -0.08365487 0.12994288 0.29450664 -0.48082504 -0.50290215 -0.7731085 0.29365146 -0.041297108 0.47321358 0.9182551 -0.5561675 -0.49372306 0.5019376 -1.0206852 0.49685374 0.6289604 0.21735385 0.27878833 0.410157 -0.48065844 -0.13738954 1.0583977 -0.39524817 0.9324134 -0.18767336 0.79616284 -0.07947259 0.14625344 -0.1936397 -0.33584055 0.69796157 -0.14525709 0.27469572 0.23714754 0.12180618 -0.17799261 -0.21834497 -0.3002022
face 1.0290959 -0.16081412 0.1732311 -0.33870173 -0.34514683 0.5250851 -0.11519858 0.21564268 0.66350025 -1.3398852 0.562287 0.32900378 -0.012248409 0.76144034 0.40113634 0.26287675 -0.29452097 -1.2780485 0.28278217 -0.57070255 0.02504658 1.1897945 -0.2746149 0.4203402 -1.298818 -0.68047374 0.043494083 1.7382913 -0.40192696 0.27306604 0.1620526 -0.07275679 -0.23460071 -0.27926433 0.27208522 -0.267157 -0.17537618 -0.29918006 0.2474346 -1.2384754 1.169083 -0.78955245 -0.15561633 -0.7640533 0.4963234 -0.61228675 0.5341264 -1.0712433 0.73851264 0.93119204
project -0.75560725 -0.84637594 -0.5913838 -0.8344615 -0.7836114 0.011374884 -0.98072594 0.18475543 -0.2144082 -0.31181374 1.2662716 1.0667572 -0.9961264 -0.11330737 0.15380488 0.32224086 -0.24619463 0.27137208 -0.5611386 -0.25902978 0.37229982 -0.48578608 -0.3645138 0.073021926 0.5567173 0.75411385 -0.64943415 0.032527357 0.027171537 0.06793811 -0.6480724 -0.12545468 0.8212716 -0.23057765 -0.16925812 1.2059659 0.020112643 0.056071542 0.4017829 1.0243859 -1.203263 -0.22543393 -0.15226932 0.50566804 0.24570115 0.82942194 -1.1652882 1.6647756 1.069591 -0.3495572
book -0.592846 0.575135 -0.058076248 -0.5001441 -0.72784317 0.64626426 0.0557986 0.14023852 -0.11712449 -0.13181908 0.79792625 -0.363889 0.45385557 0.37468424 0.7186035 1.4889865 0.8783362 0.81004286 1.8080815 0.7905167 0.024505755 -0.83362514 -0.0023602159 -0.32276642 1.0735526 0.7161618 -0.80137676 -0.6814734 -1.7374003 -0.5206353 0.27770376 -0.90945965 -1.3344114 0.88802457 1.3094492 -0.43563944 0.06956905 -0.82462764 1.7433467 1.1157159 -1.7952296 -1.1993588 0.02250055 1.5328975 -0.2515029 0.5983987 0.5313428 0.33999917 -0.27298146 -0.1518607
enough 0.6638221 1.2936561 -0.29101768 -0.26053473 1.3191301 0.097180426 0.48161748 -0.107120275 -0.8444802 1.2808776 0.3625906 1.0409971 -0.5810847 -1.4538369 0.49130967 0.022876155 -0.32267582 -0.36335298 -0.5519622 0.018566513 -0.10472506 0.46910945 -0.018294754 -0.33636224 -0.6190363 0.039274823 0.33880436 -0.30016664 0.6153135 0.48195544 -0.21759035 1.0546389 0.2607738 -0.60492224 -0.07257536 0.84568286 0.7180749 0.08259467 0.32443708 -0.15764472 0.44903836 0.40293905 0.20812173 0.3997849 0.30229276 -0.15815903 0.27809313 -0.52580184 -0.7955304 -0.19608364
