4559 50
go -0.12507993 0.2022368 -0.53407544 0.04087291 -0.16815218 0.1591221 0.38580546 -0.57770383 -0.16694276 0.18475914 -0.39311016 0.1025247 0.48642462 -0.043005697 0.024841828 0.050801698 0.45577747 0.20979333 0.18668772 0.25143802 -0.38292116 0.0963698 -0.11564513 -0.53670466 0.009921775 0.4997782 -0.27429095 -0.3879188 -0.762899 0.28156823 0.0003190171 0.063940555 0.051073316 -0.6139716 -0.3046491 0.351462 -0.008410654 0.50553435 0.8923772 -0.17782733 0.071432926 -0.17987584 0.3338268 0.31035098 0.4445595 0.29856628 0.15381642 -0.18584205 0.18288185 0.2707967
one 0.07557192 0.7136731 -0.17599481 0.21145722 -0.20184165 -0.15014909 -0.051796515 0.2793927 -0.15386912 0.32577035 -0.21775825 0.2868662 0.031568352 -0.69922715 -0.030092157 0.15442502 0.31154203 -0.03594981 -0.14401849 -0.20999767 -0.3301018 0.27531102 -0.14869656 0.16332357 -0.3203282 0.25433585 0.12573203 -0.07099441 -0.39603454 -0.4478514 0.048254047 -0.5569924 -0.15192942 -0.5756443 -0.45945466 0.30303398 0.55824715 -0.1447454 -0.19740449 0.31367177 -0.2915718 0.22283977 -0.20461255 -0.035196695 0.028448423 0.24231182 -0.17216535 0.32518655 -0.15567268 -0.41081357
get -0.22005777 0.3791293 -0.28421897 0.027470078 -0.08458385 -0.22216311 0.94853365 -0.20717111 -0.26451442 0.17892982 -0.30190548 -0.2787351 -0.0147047965 0.39502215 0.0049373484 -0.3589156 0.3011835 -0.225769 -0.35513124 0.14511418 -0.99208355 0.31073353 0.50432324 0.08302106 -0.1953384 0.76822925 -0.31059143 -0.5583804 -0.54955876 0.28945187 0.10737885 0.15521216 -0.0021067208 -0.81347996 -0.24357441 -0.11464338 0.1663018 0.41090924 0.4573706 -0.17107639 0.6256088 -0.5135906 0.15560433 0.23752205 0.29183114 0.12957504 -0.29737747 0.03708216 0.33706093 0.114033766
people -0.26874518 0.16838501 1.3214359 0.06588498 0.37720332 0.3160269 -0.058238298 -0.044687826 0.57650864 -0.11368921 -0.13039714 -0.41853446 0.0395792 0.36478007 -0.10301252 0.023054726 -0.6719338 -1.2014576 -0.20511234 -0.10913838 0.3019117 0.06470481 -0.36491537 0.6533082 -0.21524972 0.07300244 -0.67780334 -0.16149868 0.30981258 -0.23178469 0.51521933 -0.38683176 -0.29539922 -0.008716685 -0.37991706 0.064908 0.3669198 -0.040495828 0.99623775 -0.11931251 -0.26446214 -0.15258907 -0.29352313 0.31910047 -0.3048512 0.7835829 -0.1876086 0.5556624 0.5445933 -0.023724472
like -0.22573358 0.12192582 -0.17329106 0.0074631777 -0.2689391 0.024299854 0.35658574 -0.22808743 -0.15739876 0.050035078 -0.05873767 0.14623736 -0.036700502 -0.44458473 0.4347445 0.036616713 0.2593117 0.09287038 0.0912238 0.34695292 -0.23724134 0.50725347 -0.027182737 0.6019531 -0.32959583 0.34186783 -0.15875942 -0.37980676 0.01924214 0.47611538 -0.57776475 0.58539003 0.25080582 -0.41185853 -0.34671274 0.19599257 0.09541979 -0.56956035 -0.21137397 0.26797175 -0.42574477 -0.27903605 0.30380228 -0.050709315 -0.10278118 -0.47917497 -0.08852566 -0.17192814 -0.36349168 0.18467094
say -0.42695987 -0.11665856 0.14029875 -0.36012128 0.17866227 0.013633077 0.39542866 -0.27334204 0.10386243 0.14324556 0.031074082 0.4529838 -0.18122706 -0.708834 -0.08071626 -0.13439925 0.45798716 0.3039732 -0.26035765 0.23183785 0.72631925 -0.0971645 1.035287 0.33640987 0.23781054 0.24335359 -0.69966507 -0.670688 -0.49137035 0.7564185 -0.5603062 -0.07845504 0.8051843 -0.8882826 -0.80184186 0.024095768 0.8104346 0.4390108 0.07624514 -0.21427941 0.14786224 0.3486251 -0.66217375 -0.2744782 -0.87628543 0.13515225 -0.47639307 0.022102166 0.51633006 0.5579957
would -0.08013188 -0.04303327 0.106963515 -0.26913297 0.03389403 0.031301886 0.5886795 -0.17429426 0.25855228 -0.2653101 -0.10702181 -0.037335094 -0.32115176 0.08717986 0.265157 -0.3000714 0.36217228 0.22379744 -0.16992438 0.27235273 0.011363821 0.12309376 0.12325465 -0.14203262 0.028957166 0.3307131 -0.6378132 -0.067443594 -0.62514704 0.12141307 -0.15551963 -0.06431657 0.23010926 -0.5861402 -0.2546721 -0.105695926 0.71264064 0.17433569 0.3937769 -0.09922407 -0.34197623 0.094161645 0.2262461 0.26756707 -0.343361 0.25183263 -0.17351283 -0.12535185 0.045214523 -0.09890134
think -0.18199503 -0.43053493 0.68025094 -0.10809731 -0.061430328 0.027358672 -0.10066834 0.3714288 -0.29020122 0.21238613 0.0032681543 0.060615603 -0.05430517 -0.31856123 -0.22586334 -0.33068863 -0.20497513 -0.5801115 0.15172885 0.36939007 -0.19756207 -0.22626577 0.50908864 0.149232 0.46437076 -0.2679457 -0.22356954 0.090328634 0.4155005 0.56648767 -0.64104044 -0.09654475 0.80509305 -0.019345548 -0.056234214 -0.015969975 0.70021933 -0.20458427 0.56048644 -0.37975466 0.015047974 -0.3049864 0.018771306 -0.27141848 -0.22281912 -0.7387868 -0.16093975 0.55757457 -0.21547313 -0.016044388
know -0.27475908 -0.010405 0.22704649 0.066485204 0.19931434 0.18134107 0.11578621 -0.2659993 0.27185065 0.16145203 -0.20737684 0.11670425 -0.06101127 -0.40102974 0.095880754 -0.4726338 0.13958643 -0.24218161 -0.14687085 0.07917476 -0.026634516 0.46416733 0.24883929 0.09424114 0.05081801 -0.039355353 -0.32010844 -0.59214413 0.03207735 0.57714874 -0.09839773 0.17774016 0.5141734 -0.5104626 -0.41756222 -0.080466576 0.5218084 0.2126729 -0.039532952 -0.44796917 -0.26113024 -0.08031067 -0.0024182624 -0.111289546 -0.44883692 -0.37140197 -0.14248185 0.5569273 0.056430686 0.41632336
see 0.25354904 0.23524475 -0.6926536 0.18909122 -0.74448305 0.04705725 0.20303807 -0.34098694 0.20185106 -0.22395502 -0.07729475 -0.26898128 0.5336403 -0.46080217 0.36137927 0.66373974 0.17199793 -0.024042493 -0.122187085 0.30412784 -0.59829843 0.53311306 -0.44118983 0.0068123415 -0.40348083 0.18252487 0.20239516 -0.58756113 0.17553702 0.32797158 -0.27202082 0.0186345 -0.22659245 -0.39026037 0.26780996 1.0877699 0.05665849 -0.3831314 -0.07895552 0.4037119 -0.38652888 0.14749004 0.4467269 -0.28145367 0.010814983 -0.71356076 0.3844283 0.15146922 -0.21742234 0.339908
make 0.17585552 -0.3657966 0.32996425 -0.25125766 -0.38787583 -0.35478678 0.80811965 0.007218817 -0.688836 0.33151612 0.22322674 -6.5021726e-05 -0.16558859 0.5420971 0.634952 -0.07344317 -0.2880586 -0.42716664 -0.054194037 0.0057555754 -0.72047275 0.08334738 0.37156355 0.74643165 -0.025149414 0.90892386 0.22633119 -0.10669474 -0.12320878 0.0104131615 -0.7488342 -0.016770264 0.07241148 -0.08229565 0.30766293 -0.14047901 0.11728355 0.18113717 0.32878417 -0.34569243 0.12269409 -0.4177398 0.4237476 0.060143355 -0.42985344 -0.2592712 0.2726956 0.5409192 -1.2754061 -0.61649567
thing 0.008424486 -0.30436328 0.5609022 -0.2775178 -0.103410564 -0.2854057 0.18108541 0.67644554 0.046684682 0.17516485 -0.30539435 -0.60762876 -0.4100671 0.136219 0.20801702 -0.18243514 -0.009465267 -1.0975074 -0.07537427 0.55807626 -0.90510005 -0.12200729 0.010626999 -0.3040976 0.2172553 -0.5384362 0.22394371 0.12060532 -0.20252843 0.21665269 -0.68343556 0.29637146 0.46195993 0.21288012 -0.009872054 -0.050545376 0.38794175 -0.5568954 0.35276714 -0.2886083 -0.0025672987 0.2113395 0.04861123 -0.2069567 0.18365803 -0.57373583 -0.4628467 0.31688204 -0.34265032 -0.45395768
us 0.2904997 -0.6277154 0.40777564 0.013321866 -0.17056832 0.75382006 0.23445763 0.24814264 0.49566922 -0.16098504 0.5325855 0.16887745 0.32415345 0.6578635 -0.033380922 -0.22360098 -0.03229453 -0.9361961 0.37807667 0.49586672 -0.36454573 -0.3362498 0.0783143 -0.20003629 0.7384948 -0.4515028 0.33577645 -0.2159517 0.14985208 -0.21664739 -0.56883013 -0.050341554 0.44770247 0.37736627 -0.024326943 0.72757304 0.51711667 0.43825588 0.55376405 -0.058847036 -0.24654949 -0.51120985 -0.15858522 0.5743167 0.026837256 0.3168941 -0.124803394 0.33664402 0.107714005 -0.14221507
year 0.2682996 1.2791055 -0.0076815216 0.7533738 0.412478 0.08495681 -1.3222113 0.3821919 0.35381964 0.21224785 -0.68653756 -0.063809186 0.48606712 -1.9337293 -0.43653154 -0.7308426 -0.027176967 0.73717237 -0.1905469 -1.5406122 0.39474928 0.19358037 -1.1320277 -1.0906831 -0.37768388 0.83953524 -0.6863511 -0.82950896 -1.4328785 -0.65714675 0.4731528 -1.9963524 -0.22526237 -0.13020459 -0.25098956 -0.42467266 -0.36556277 0.5440736 1.7324705 0.0826079 -0.38000822 0.56407773 -0.5280486 -0.49195087 0.67949 0.98829055 1.1977093 -0.13868706 0.18419263 -0.14357677
time 0.029040813 0.6374346 0.22058941 0.1006011 -0.13379188 -0.30522087 0.03331236 0.048812218 -0.17924137 -0.36048004 -0.08076113 -0.22704187 0.15148874 -0.06652541 -0.26812413 -0.04064714 0.17036478 0.013668967 -0.07302276 -0.30799526 -0.38117874 0.1436554 -1.0112605 -0.46344808 -0.22149974 0.29339823 -0.056458827 -0.29690892 -0.8570917 -0.030298164 0.6966068 -0.9796943 -0.028083052 -0.083672106 0.11310918 -0.17750406 0.39516565 -0.022628684 1.1902156 -0.42266563 -0.096031904 0.44299576 -0.07333735 -0.24258938 0.3765879 0.11268938 0.28249845 -0.108761445 -0.2576552 -0.17210816
look 0.26281798 -0.056000948 -0.8231334 0.12143302 -0.58132845 0.16573396 0.15575664 -0.12385037 0.03259346 0.3832006 -0.070005074 -0.38893244 0.4133455 -0.49249136 0.53097165 0.5463355 0.45294827 -0.0066003473 -0.15115812 0.59182256 -0.51333606 0.38789403 -0.17062162 -0.13611688 -0.07647463 0.086611524 0.4088974 -0.8876351 0.6218879 0.45898655 -0.5476694 -0.010386619 0.072074674 -0.4680087 -0.045630034 1.1603 0.2579935 -0.5498159 0.22724403 0.39560798 -0.3086827 -0.12830177 0.4487987 -0.38614702 -0.2061136 -0.6380674 0.19739087 0.1846978 0.0052274796 0.22865424
want -0.42074206 -0.13401136 0.49973303 -0.24275346 0.047836952 0.12124838 0.42074853 0.078396104 0.16358258 0.26194188 0.12674655 0.20779192 -0.1361493 0.19309041 0.039847244 -0.19578664 0.11107256 -0.42725825 0.40431213 0.21142071 0.2699619 -0.12576343 0.6573957 0.18068649 0.35625285 0.07684364 -0.56481236 -0.23928957 -0.65120435 0.08351145 -0.26419213 0.27224624 0.20702158 -0.13016967 -0.29858032 0.6049288 0.779281 -0.13123208 0.4670845 -0.33859727 -0.1521049 -0.23975636 0.06984679 0.6660971 -0.3711801 0.46082833 -0.35996187 0.45126453 0.068977796 -0.12176026
really -0.2741704 -0.20950171 0.53749347 -0.37786236 0.07814295 -0.28845623 0.55142754 0.55561066 -0.08765906 0.5077943 -0.1327679 -0.48052087 0.009267047 -0.11574007 -0.1122107 -0.44316998 -0.29739946 -1.1514015 0.27273664 0.59469306 -0.43821177 0.030400153 0.44214442 -0.07413081 0.637308 -0.17461354 0.3990506 -0.13836344 -0.27367458 0.534022 -0.49624643 0.5203903 0.65281427 0.5913614 0.01046202 -0.15054482 0.77558327 -0.5724891 0.4302145 -0.81257266 0.31754056 -0.099626236 0.19099577 -0.2202104 0.13584876 -0.7738067 -0.14820568 0.35735455 -0.35648823 -0.45965984
take -0.010202044 0.57500035 -0.4020266 0.34380654 -0.014996105 0.36472484 0.2966351 -0.16816173 -0.48975527 0.08575096 0.18515772 -0.034326274 0.15680802 -0.01503581 0.28389755 0.50594145 0.045356143 0.7115214 0.4964631 -0.25092068 -0.80634856 1.0958582 -0.0804489 -0.48610586 0.5999957 0.9765384 0.31051955 -0.47236896 -0.3053406 0.028893348 -0.06107158 -0.13131624 -0.052685857 -0.6773227 -0.04713796 0.40509656 0.26722428 0.6777433 0.7184669 0.45599803 -0.18426214 -0.18011679 -0.09175762 0.23195913 -0.02223434 0.3449546 -0.0077357045 -0.106414735 -0.073562056 0.066470385
come -0.563826 0.24970426 -0.7692037 0.4649032 -0.19991545 0.58242536 0.28049374 -0.142418 -0.3152126 0.0055184485 -0.18388753 0.05345947 0.69770145 -0.64279836 -0.09893338 0.2354506 0.068640165 0.29773918 0.3429978 0.11920401 0.13295871 0.06408639 0.28405705 0.18185647 -0.19891416 0.3606442 -0.2407106 -0.21892644 -0.48018906 0.60747284 -0.02973068 0.020296177 -0.15759097 -0.28392562 -0.47008625 0.33884534 0.09901859 0.74527895 0.40516502 0.059819818 -0.19380166 -0.18527642 -0.29229286 -0.12177887 0.15992714 0.04227105 0.015746279 -0.2984988 0.31907073 0.36408624
way 0.37444425 -0.57439786 0.21743664 0.2048292 0.26433027 0.19563095 -0.0035924693 0.4243097 0.15674376 -0.52301806 -0.40963948 -0.2800483 -0.21733637 0.74413186 0.29167166 -0.15782692 -0.34565374 -0.6514136 0.16281313 0.49332142 -0.74488187 -0.5296812 0.13581523 0.13638878 0.12195371 -0.32645997 0.30634978 0.43866467 0.39564255 0.16191173 -0.29973736 0.18011284 0.029479217 0.74039686 0.21061292 0.32966298 0.30324838 -0.19406998 0.7243696 -0.124847576 -0.17708933 -0.31172806 0.23161738 -0.17299774 0.0909419 -0.11197522 -0.0073528048 0.4867624 -0.041406382 -0.48998863
world -0.61302406 -0.51258636 0.6976692 0.31086606 0.30241188 0.91505075 -0.3372492 -0.5136868 0.66715485 -0.44408852 0.14270183 0.36525723 0.81794614 0.64853525 0.028363282 -0.043028235 -1.4161435 -0.5496168 0.104688 -0.1751306 0.36272216 -0.41943857 -0.7067117 0.38704887 -0.32512507 -0.23231445 0.42376715 0.18114956 0.66224295 -0.61144114 -0.47181684 -0.080186844 -0.3841237 0.62988544 0.053659305 0.70430404 -0.77299416 -0.18240784 0.9994644 -0.7449978 -0.40549818 0.25167927 -0.045423497 -0.732003 1.0431554 -0.009968804 0.26362357 0.4014046 -0.14465383 -0.38498402
work -0.3537008 -0.3979966 0.34880546 0.22110723 0.675137 0.020547453 -0.40321845 0.3348109 -0.30469677 0.38969034 -0.63596976 -0.052982792 0.71429014 0.2829532 0.079816796 -0.17661618 -1.0286866 0.2504058 0.09083212 -0.5994841 -0.43757245 -0.087118685 0.9321014 -0.07256118 0.15581998 0.4450291 0.2101998 -0.87230194 -0.51029384 0.07252875 -0.3749069 0.4606302 -0.26284266 0.7044919 0.20421189 0.16195583 0.054440454 0.22442 0.619321 -0.44754145 0.4878746 -0.3407309 -0.2544522 -0.19644812 -0.28999054 0.06295225 0.061281845 -0.029159987 -0.09666941 0.1975839
well 0.327283 0.045823097 0.37490967 -0.16191727 0.15177204 -0.13104683 0.055202562 0.045682386 -0.20388207 0.43162638 -0.22545244 0.09986616 -0.1604325 0.020350382 0.2351838 -0.594391 -0.27426216 -0.19587816 -0.16666736 0.029141812 -0.3207633 -0.10636512 0.6561013 0.30136856 0.23330545 -0.105866335 -0.106924646 -0.274791 0.023582047 -0.07446151 -0.010466192 0.04698419 0.388503 -0.11575677 -0.13321812 -0.049725875 0.595614 0.23041105 0.2889929 -0.3837375 0.17777959 -0.35912895 0.2368551 -0.1264775 -0.42625976 -0.1491228 0.23305166 0.30854326 0.24057414 0.10829031
could -0.14545882 -0.15572813 -0.19233604 -0.25661397 0.35444534 0.24372868 0.4257752 -0.0044834674 0.108098835 -0.56055754 -0.042419825 0.027323764 -0.46759048 0.6212818 0.35057214 -0.59414345 -0.33758742 -0.030428581 -0.34417367 -0.007762326 -0.911769 0.31841928 0.069333285 -0.3656644 -0.18678454 0.32849687 -0.47541323 -0.2749473 -0.25975835 -0.11369595 -0.3567071 0.11594997 -0.0447392 -0.3602606 0.060590986 0.3197499 0.50273854 0.26925966 0.1697795 -0.1628709 -0.4171167 -0.14438078 0.80985034 0.3672068 0.20068483 0.2707659 0.025486223 0.4110623 -0.09062495 -0.60081476
use 0.11198409 0.2503162 -0.50027657 0.12510237 -0.31874952 0.109781325 -0.4446748 0.26089874 -0.68336076 -0.2465881 0.3555267 0.07413257 -0.20208378 1.2994014 1.2779535 -0.23265532 -0.70376235 0.37215835 0.1737416 -0.36683142 -1.3431535 0.16263361 1.0479864 0.32016417 -0.68605703 0.71084726 0.6880526 -0.62358916 0.046382222 -0.7492012 -0.5470632 0.7654724 0.2658439 0.42347577 -0.41147336 -0.042263806 -0.15468249 0.22752436 0.45991418 0.5714636 -0.42601815 -0.52176344 0.34761226 0.30359107 0.5355665 -0.40127784 -0.14347443 0.18482824 -0.58414215 -0.043769244
actually 0.33220917 0.1350491 -0.22681941 0.13467592 -0.30177504 -0.09093101 -0.023881573 0.43801758 -0.41117024 0.07415214 -0.25189266 -0.026301688 -0.21038334 0.41417998 0.43487343 -0.2350186 -0.28719312 -0.16071607 -0.30951482 -0.01924539 -0.7031583 0.3147851 -0.21617007 -0.0002489461 -0.21583924 0.11078775 0.51456195 -0.049823973 -0.16380806 0.0022185862 -0.13649362 0.15376648 0.07432546 -0.029803585 0.04054233 0.14170662 0.41249058 0.127279 0.13379219 0.11096327 -0.09863835 -0.33465022 0.4863517 0.18187958 0.07097272 -0.4641401 0.18831986 0.022767754 -0.09918039 -0.08737002
right 0.27820146 -0.13179258 0.021610502 0.100937106 0.07567549 0.19281407 0.26441804 -0.62107176 0.27354738 -0.12883562 -0.036696054 0.19459066 0.30183458 -0.1793195 -0.048245057 0.85704154 -0.26002252 0.22462793 -0.092876345 0.845744 -0.3904813 -0.19958428 -0.3675221 0.7799539 0.48845157 0.246039 0.30163237 0.064414196 -0.036105946 0.15210061 -0.54792494 0.35736617 -0.16029452 -0.73413754 -0.30960518 0.9731297 -0.18845864 0.51276857 -0.014717172 0.32962883 0.79993975 -0.15657768 -0.05124686 -0.39865056 -0.26394027 0.13106176 -0.10637442 0.11827754 0.25728896 0.4033207
start -0.23078564 0.14414024 -0.3940132 0.4301061 -0.17808087 0.3261959 -0.07280255 0.5355262 -0.11858834 0.20217276 -0.5042182 0.36518428 0.48324758 -0.36098614 0.11769285 0.02996936 -0.3854515 -0.0021662337 0.11523033 -0.11835847 -0.40995634 0.32862306 -0.4412705 -0.20183474 -0.6071426 0.35450593 -0.13637298 -0.33912155 -0.49226576 0.5710793 -0.52391106 0.25860652 0.24814698 0.3779884 -0.1283532 0.5472428 0.13874936 0.31493437 0.71871483 0.056207936 0.482136 -0.14096776 0.30853266 0.58170646 0.3269948 0.18465734 0.037270125 -0.5576931 0.20136599 0.25332144
life 0.14651832 -0.20543572 0.71906537 -0.4877783 -0.014912675 0.7615921 -0.20791349 0.22161043 0.7519715 -0.9795088 0.21447393 -0.40962127 0.25360385 -0.24379984 -0.53878754 -0.16965167 -0.22854973 -0.22726233 0.6651533 -0.10020122 -0.73055583 0.061301112 -0.5143265 -0.18098898 0.60701865 -0.10807721 -0.20456536 0.27329388 -0.02683811 -0.15575112 1.1515093 -0.6600453 0.25134423 0.97404784 0.9528191 -0.5254205 0.29974753 -0.9728423 0.855175 -1.7267547 -0.48363832 -0.43551967 0.22756343 0.19062789 -0.33041835 0.45900932 0.49927446 0.49197888 -0.49026176 -1.5032557
first -0.20934749 0.31009504 -0.42205855 0.3411348 -0.30874512 0.101252936 -0.5158333 0.43616685 -0.3672803 -0.089582466 -0.3583173 0.657208 0.4573788 -0.6133075 -0.04083524 0.02456345 -0.31651002 0.7612686 0.052549906 -0.50235224 0.39422262 0.28891167 -0.3150088 -0.112052 0.1478447 0.44181603 -0.21235578 -0.17832421 -0.72608864 -0.05148697 -0.11604251 0.048103593 0.0004740435 -0.19035472 -0.19679403 0.25466684 0.7779356 0.36206383 0.2522043 0.35251933 -0.20545882 0.22837411 0.029964555 0.38989806 0.031260565 -0.07951488 0.12741625 -0.071563676 0.22889403 0.10632727
something -0.30703706 -0.21680188 0.45590842 -0.48724523 0.08411283 0.1517496 0.22026093 0.6342448 0.13542557 0.117592014 -0.04866893 -0.30579937 -0.6517114 0.3275179 -0.13172103 -0.3691681 -0.016221656 -0.7259554 -0.13174583 0.767175 -0.5289987 0.071826786 -0.10610174 0.027154854 0.38306493 -0.32779127 -0.20405477 0.15608804 -0.017624723 0.47398314 -0.47401196 0.08900874 0.3055895 0.40535656 0.17537493 0.052358583 0.7168569 -0.4315448 0.22671925 -0.36624348 -0.19425195 0.2253365 0.22902827 0.016967192 -0.27984035 -0.46574348 -0.56546116 0.50135225 -0.34410205 -0.43433082
two 0.6325882 1.6585758 -0.10670665 0.80141044 -0.08633599 -0.3033487 -0.25276816 0.37673107 -0.60455364 0.25485882 -0.47231442 0.03211449 0.21370733 -1.0562927 -0.5505988 -0.10844748 0.57809365 0.66770566 -0.16409473 -0.30820647 -0.68129146 0.27711874 -0.74498415 0.25971174 -0.6158063 0.5938865 0.043916102 0.25803247 -0.52965033 -0.6200799 0.016172474 -1.2536983 -0.69969624 -0.750006 -0.562835 0.53211224 0.5747096 0.11379493 0.15563087 0.5462256 -0.089310855 0.16350526 -0.20964107 0.086846575 0.58281356 0.8943913 0.6710125 -0.20756571 -0.116963655 -0.43790063
good 0.16929951 -0.29505482 0.71163344 -0.4172104 -0.31668267 -0.20763135 0.72001326 0.044051375 -0.73409617 0.76867527 -0.19707803 0.26459476 -0.47469684 0.07063364 0.5517639 -0.6055568 -0.26341337 -0.21007885 -0.047027703 -0.17837884 0.36436814 -0.15505552 1.3842456 0.78804874 -0.14836515 -0.09060082 -0.10346549 -0.25493342 0.2722062 0.09532363 0.013978467 0.28764242 0.3730861 -0.106526025 0.11635745 -0.23228627 0.46623248 0.58268034 0.58659047 -1.2334216 -0.078304745 -0.5211501 -0.10682389 0.34709114 -0.7395334 -0.20021446 -0.07878563 0.39149514 0.46392298 -0.061341066
call -0.48096913 -0.13600016 -0.7524164 0.2606578 -0.22587278 0.5339107 -0.32265836 0.37929654 -0.61186373 0.19027035 -0.22306019 0.72100335 0.6767754 -0.3611852 0.19920303 0.6007109 -0.4261612 1.1354896 0.022564149 -0.4619488 0.0062106512 0.24940196 0.1880502 0.8389281 -0.7471302 0.17473188 0.37606993 -0.39980075 -0.26885992 0.18048023 -0.6382962 0.31279063 -0.1562523 0.14081208 -0.40224293 -0.17492634 -0.27861655 -0.0021350747 -0.3950642 0.6184223 -0.36570862 -0.34738466 -0.6640937 -0.08258556 -0.21642 -0.71820205 -0.07277642 -0.092861086 0.2293233 0.5659441
need 0.31967276 -0.3381448 0.23394877 -0.411964 0.774783 0.6924309 0.14641805 -0.012480513 -0.8495766 -0.09730612 0.121476695 0.13314967 -0.5795721 1.0544493 -0.1671966 -0.41773492 -1.1761334 -0.7002845 0.6022415 -0.09221532 -0.86853844 -0.45194724 0.83628094 0.24890316 0.51592344 0.16161883 -0.0135332495 -0.19610748 0.13938159 -0.3074708 0.20080586 0.30450732 -0.3684318 0.17242572 0.13925137 0.1435066 0.24589573 0.796739 0.8692933 -0.4186719 0.79304296 -1.0032519 -0.13081108 0.32868588 0.16389649 0.14730686 -0.35964352 0.19234712 -0.30171737 -0.17721012
much 0.14151879 0.5563404 0.45798844 -0.65868694 0.15412585 -0.23304872 0.25635424 -0.38565248 0.14678122 0.60598123 0.5326032 -0.32654172 -0.6143017 0.65150344 0.43267047 -0.82281125 0.109654136 -0.4728808 -0.008442047 0.31197965 -0.26617736 -0.19631715 0.24046896 0.519829 0.23214291 0.10758363 0.41324562 -0.7201655 0.098102234 0.0035833754 0.5558831 -0.3534941 0.037412066 -0.030355405 0.33827472 -0.56916845 0.30595246 0.105387636 0.66270405 -1.1311247 -0.0631017 -0.21014316 0.18383005 -0.9872412 0.41907904 -0.42102218 0.49895337 0.3225031 -0.8197543 0.1691127
tell -0.5132182 0.19868737 0.09654407 0.33467296 -0.5234653 0.16421726 0.13943666 -0.08831178 0.45431146 0.0047773425 0.07554128 -0.0015635937 0.3491258 -0.39942724 -0.17084947 -0.08290637 0.4046291 -0.061926328 0.041407946 -0.2851531 0.18857193 0.5363951 0.49607795 -0.055260763 0.39399707 -0.067707255 -0.527967 -0.99363446 -0.5354653 0.68947273 -0.43479824 -0.12388485 0.5663836 -0.058382276 -0.5058859 0.07979615 1.3958477 0.38824776 -0.098654784 -0.20713262 -0.023512304 -0.26837388 -0.17828104 0.44489366 -0.6065111 0.07714378 0.06859072 0.3686725 0.02921331 0.55417824
find -0.05826935 0.6366499 -0.61232686 0.3218039 -0.109234676 0.27929202 -0.36902145 0.23021522 -0.31711277 0.12325457 -0.5550531 -0.5446078 0.21739171 -0.015446867 0.32917297 0.06043879 -0.35187304 -0.17557819 -0.41185328 -0.08111294 -0.33853137 0.48129216 0.582747 -0.13214192 0.035844207 0.17363366 0.46492535 -0.4451421 0.1057962 0.8475748 0.031292427 -0.22859539 -0.17756444 0.05483267 -0.069196664 -0.07933166 0.12108983 0.29479852 -0.004190033 -0.19703038 -0.85019153 -0.37222645 0.47076222 -0.04357043 -0.32078713 -0.53916824 -0.08580455 0.98208493 -0.2679087 -0.008005031
also 0.15295917 0.06604866 0.28940877 0.008927894 -0.03049686 0.205405 -0.36746654 0.44431335 -0.27204144 -0.25515565 0.07265983 0.10222981 0.02788062 0.48121098 0.29934132 0.004475903 -0.9048767 -0.59184486 0.29164973 -0.11685908 -0.17829384 0.062740326 0.18658772 0.593491 0.072471544 -0.15620303 0.5039872 -0.063816205 0.5321317 -0.11381163 -0.10894846 0.6486667 -0.48325294 0.6448831 0.17794706 -0.03639078 0.1409456 0.02362454 0.12970382 -0.42604795 -0.22439143 -0.36278135 -0.205991 0.111120746 -0.06322679 -0.7030561 0.24588972 0.36464772 -0.15573429 -0.24670786
new -0.9526985 -0.6368941 -0.59732455 0.29459438 -0.8202332 0.6509481 -1.1637751 0.73114556 -0.76530516 -0.378851 -1.8641096 0.8520568 -0.19632402 0.3577074 -0.25405353 -0.34917933 -0.94013715 0.6756883 0.9448806 -1.0384164 0.08289198 -0.29903385 0.108795546 0.16457245 -0.8710517 1.1189119 0.24150744 0.3879168 0.55854255 0.022773402 -0.77577364 0.4581022 -1.0497011 1.38799 -0.4151659 0.77278125 0.2437487 -0.15531893 0.95039314 0.50839424 -0.32390043 -0.15528299 0.92601424 -0.5789776 0.60016954 -0.7160679 0.25457513 0.42425776 0.4275013 0.50355965
give -0.15952408 0.3139263 0.14519769 -0.37361735 -0.8782112 0.1461356 -0.044595096 0.5639531 -0.45453495 0.14978148 0.29051468 -0.10138972 0.2047231 0.2057717 0.21058208 -0.21291786 0.22591196 0.57414776 0.692501 -0.000631681 -0.6501581 0.32496256 0.6063993 0.9177367 0.5849183 1.1916894 0.21056971 -0.5462472 0.005325138 -0.73636585 0.18353966 -0.2765872 0.43238637 -0.6503035 -0.11912916 0.18001574 0.85962075 0.91808325 0.25700313 -0.5748719 -0.049533233 -0.11892353 -0.1649041 0.1576546 -0.4611327 0.47235376 -0.6527094 0.35663214 -0.036031377 0.025852164
even 0.16081011 0.04194196 0.34182698 0.36915317 0.030248975 -0.044857472 -0.026516961 -0.51780504 0.34235924 -0.17662887 0.10171375 0.086045966 0.02830577 0.06530205 0.44083017 -0.15466785 -0.29726887 -0.28455552 -0.7890189 0.1414256 -0.13619044 0.24266493 -0.14369816 -0.15620455 0.12911804 0.34741104 -0.22106034 -0.17748123 0.29319176 0.07077661 0.011865722 -0.017000888 0.14947082 -0.3272992 0.1590734 -0.52947 0.7238836 0.062229022 0.17577936 -0.3968433 0.17024827 -0.13662744 0.21503036 -0.36698508 -0.31616655 -0.39890847 0.20290428 0.49703696 -0.28654748 -0.26674417
back 0.3773872 0.18426464 -1.4846451 0.16874446 -0.34997046 0.6722561 0.8209443 -0.34515953 -0.04342013 -0.14412251 -0.120650195 -0.11667026 0.40287676 -0.52014714 -0.19545522 0.3344893 0.7552187 0.61014 0.220283 0.5053811 -0.23058678 0.28767678 -0.32337645 -0.6580333 0.15441157 0.47874248 -0.21438274 -0.28221473 -0.9381798 0.08439516 -0.3981308 -0.015654618 -0.0420423 -0.289088 -0.06567029 0.62522346 -0.25579688 0.69360185 0.74194527 0.27245003 -0.048717316 -0.23020124 -0.17537776 0.15003537 0.61543024 0.8869386 -0.34907782 -0.9951491 0.418901 0.4473119
little 0.1244474 0.2766434 -0.07950422 0.33958745 -0.93174744 -0.1844351 0.76155496 0.17785268 0.15110518 0.77474 0.12785167 -0.30252242 0.5000204 -0.30274576 0.3193835 0.09416155 0.93880355 -0.33012336 0.33430946 0.93740094 -1.5028995 1.348522 0.15838927 0.29300287 -0.14506787 0.22876988 -0.38922334 -0.6441921 -1.0007898 0.18376835 -0.011920936 0.85728395 0.61631656 -0.08274625 -0.43874186 0.14316572 0.6409757 -0.33954972 -0.52455664 0.23987232 -0.02495054 -0.64954704 1.1850724 -0.9307799 0.2812073 0.35727677 0.31751925 -1.4003496 -0.48737428 -0.089887924
lot -0.1929861 0.2553414 0.9427145 0.056337874 -0.37222368 0.0023037596 -0.09629867 0.13897009 -0.6305614 0.77492654 -0.2938582 -0.29054198 0.15190168 0.5876127 -0.2425841 -0.33928752 -0.19238347 -0.7571478 0.12613837 0.111716285 -0.89871 0.524066 0.4157433 0.05241654 -0.47635785 0.30815613 0.13823844 -0.47362742 0.2581305 0.37177396 0.37536627 0.26337895 -0.063901246 -0.12514101 -0.44325945 -0.87838244 -0.27522978 0.0391187 0.66949475 -0.40527952 -0.028858067 -0.03668332 -0.27209994 -0.29539412 -0.034012403 -0.5683018 0.3226802 -0.2801257 -0.44899958 0.6052754
kind 0.024411341 -0.4657444 0.4246699 0.05607777 -0.6368672 0.11293897 0.25360253 0.7620874 -0.5506777 0.20109938 -0.24936768 -0.01885052 0.29293144 0.32950348 0.18587676 0.10016189 -0.38070536 -0.3534978 0.26189616 0.43372738 -0.7198063 -0.054668978 0.10177475 0.6291644 -0.3117671 -0.10474433 0.17140312 0.11371792 0.46521378 0.18265341 -0.30014113 0.6113788 0.38770497 0.36814722 0.19925305 0.111707345 0.13818485 -0.6413669 0.20619188 0.09651798 -0.1746092 -0.6341979 0.21611905 -0.2920779 -0.06933421 -0.89679265 -0.5306398 -0.12439911 -0.4807887 0.011367723
talk -0.7607328 0.07206532 0.74347633 0.17330842 -0.24128345 0.22552931 -0.59417516 0.23047064 -0.19843136 0.33847252 0.3996167 -0.021604113 0.23470849 -0.1440061 -0.40852314 -0.363598 -0.12666036 0.13817681 0.98741806 0.23833819 0.47458237 -0.15187599 0.21164423 0.5284271 0.5186278 -0.17922924 -0.13152035 -0.5729591 -0.73716927 0.74076235 -0.43473393 0.11264895 0.38899416 -0.38624918 -0.7834455 0.13750641 0.879474 -0.39118606 0.51642317 -0.31523454 0.22804213 -0.05003151 -0.6219117 0.058907717 -0.118418515 -0.49712127 0.16434535 0.06932802 0.32634372 0.51693547
day -0.42230925 0.92121804 -0.6134328 0.08851411 -0.33922714 -0.23061316 -0.116802916 -0.52508634 -0.36474836 -0.825707 -0.21844438 -0.40881437 -0.06546172 -1.0928342 0.09686386 -0.119042404 0.63811564 0.37066817 -0.06367743 -0.2998604 0.20453228 0.4901473 -0.7699873 -0.6405903 0.1872555 0.7286551 -0.8610935 -0.52129155 -1.4800408 0.0102003515 1.1224432 -1.0430102 -0.6860832 -0.65915316 -0.43091425 -0.31188795 0.34218973 -0.1411106 1.3117362 -0.2680713 0.07525288 0.97368413 -0.5916886 0.46908224 0.33564952 1.1263067 0.11342969 -0.4375056 0.128743 -0.14015213
many 0.024893252 0.2835845 0.783214 0.7239283 -0.011213759 0.45635548 -0.65346247 0.17277361 0.07765177 0.041929007 -0.36323273 0.12976028 0.36580053 -0.54713017 -0.121929675 -0.15109621 -1.2073089 -0.48464784 -0.18272233 -0.68304217 0.24711776 0.41432709 -0.45698437 0.14648205 -0.21795532 -0.28266597 -0.11200495 -0.22912717 0.62650347 0.3352432 0.23694925 -0.3879654 -0.17613478 -0.1691977 -0.38331673 -0.10494283 0.66292435 0.51210624 0.47417116 0.11432527 -0.56081486 0.057392847 -0.059549086 0.054892384 -0.05389649 -0.11774775 0.044252567 0.41326576 0.031049024 -0.23266533
change 0.3640252 -0.12525114 -0.042015992 0.08085254 -0.22285427 0.70782214 -0.14548206 -0.10069375 0.12203688 -0.5722867 0.16456293 0.015644936 0.26811525 0.35750917 -0.14517571 -0.17802691 -0.5725198 -0.73119 0.9086338 -0.54035944 -1.2437807 -1.1842629 -0.5070733 0.70146656 0.38850662 -0.53701186 0.71677613 0.5733599 1.319904 0.16891453 -0.5546549 0.78987 0.40628618 0.15419318 1.118827 0.82763445 -0.18081896 0.27443194 1.1151445 -0.42524114 1.1615711 -0.051419944 0.16388993 -0.17646277 -0.48332256 -1.4775805 1.2821286 0.768358 -0.67254496 -0.13377585
happen -0.17918546 0.31689796 0.12528503 0.059876803 -0.27248228 0.5294638 0.05359045 -0.387022 -0.07563218 -0.28733855 -0.6740996 -0.08132534 0.4683725 0.13438828 0.047924805 -0.43341342 -0.13826704 -0.020391267 0.16376933 0.14715277 -0.31775048 -0.045543015 -1.2278804 -0.7443211 0.06827316 -0.028122129 -0.2335926 0.2888748 -0.08543799 0.66336006 0.011774088 -0.19567975 0.4310525 0.10489271 0.16268641 0.16893102 0.4034082 0.18926667 0.6185517 -0.17343299 -0.07959156 0.4710816 -0.37297368 -0.31892753 0.11885606 -0.9469671 0.22192028 0.38317138 -0.08742078 0.2215275
may -0.025996163 -0.08205503 0.30697486 -0.41095847 -0.09956039 0.3962682 0.2671115 0.3409142 0.3433332 0.036317974 -0.035869233 -0.049442507 -0.2181926 -0.2375696 0.22608654 -0.72582114 0.09557979 -0.5942861 -0.36373085 0.6105149 -0.26832387 -0.10415712 -0.36167845 -0.032869518 0.509012 -0.06331051 -0.281415 0.04447245 0.58073974 0.47389948 0.19565344 0.07394119 0.41558132 -0.41403803 0.24181992 -0.22846818 0.8772799 0.19896238 -0.16646783 -0.13574398 -0.43978938 -0.3117889 0.25416744 -0.0007146876 -0.15887082 -0.8325415 -0.0038510943 0.49011788 -0.06883186 -0.12796505
mean 0.0045414143 0.30734342 0.43965966 -0.15632378 0.14346467 0.20587909 -0.120634645 -0.25048587 -0.047625504 -0.34026393 0.39446262 0.12356187 -0.31501248 0.36787888 -0.07372837 -0.15940349 -0.13902517 -0.074777275 -0.19897622 0.12316346 -0.24997965 -0.25972688 -0.030816652 0.5520329 -0.09702121 0.07385908 -0.068257555 0.20746991 0.33124736 0.06446608 -0.14232568 0.061622947 0.3717499 -0.10054268 -0.057895873 -0.052089274 0.1013895 -0.20119263 0.31714094 -0.76306546 -0.025915474 -0.1398296 -0.015417255 -0.19854659 -0.36013564 -0.31001976 -0.2670122 0.43216565 -0.4669704 0.20898584
try 0.0031906597 -0.24187136 0.42863724 0.39145714 -0.081998676 0.35659033 0.4064491 0.6148468 0.14498372 -0.40314212 -0.20578925 0.4320574 0.053953413 0.85211855 -0.25342637 -0.5333964 -0.5675538 -0.54011214 -0.43594742 -0.21124303 -0.90609926 -0.3263289 0.5205394 -0.52072084 0.2197164 -0.5207167 -0.26303697 -0.20621268 -0.6259397 0.5263104 -0.398668 0.44532427 0.08982176 -0.17282756 0.24493578 0.35844848 0.6872327 0.6263577 0.16787253 0.2915066 0.27229884 -0.46202698 0.5385997 0.9940563 -0.29412213 0.40189654 -0.62970555 -0.31088147 -0.045585025 -0.38543415
every -0.31429294 0.9808747 0.003280901 0.2601302 -0.28082117 0.18043435 -0.22294708 -0.60011166 -0.8809771 -1.2874358 -0.17174107 0.44626313 -0.06255518 -0.9479877 -0.052352216 -0.31706318 0.12181446 0.30065194 0.17208584 -0.40700093 -0.7599994 0.36021188 -1.3537847 -0.32301465 -0.87849516 0.5331445 0.024752036 -0.30422172 0.018205157 -0.3070936 1.2351345 -0.7503108 -0.8021587 -0.8760652 -0.5049958 0.6187355 0.8182506 0.33026177 0.91744214 0.11590276 -0.115774885 0.6406077 -0.22406232 0.8671049 -0.5963546 1.0194867 0.061650425 0.02044206 -0.06232696 -0.6856107
let 0.23422574 -0.45064765 0.18308869 -0.051393073 -0.845503 0.70413524 0.54136246 0.064823896 0.1327252 0.4899009 0.2972025 0.38591012 0.2837699 0.20456052 0.2856506 0.19486271 0.66940916 -0.5394261 0.769958 0.66424024 -0.29754427 -0.21254952 0.26150343 -0.31762418 0.49861717 -0.68439347 0.17782265 -0.5252501 -0.7783723 -0.052062076 -0.66563 -0.021264661 1.0594906 -0.20661159 -0.3305353 1.1056082 0.7061788 0.46074793 0.49235392 0.51567084 -0.006084953 -0.101963505 -0.04200372 0.53617424 -0.10395103 0.5348609 -0.09229137 -0.12916978 0.27234307 0.40285888
around 0.06307252 -0.20450751 -0.6151258 1.010218 0.26518136 0.78356385 0.59021926 -0.79949653 0.073233575 -0.4112673 -0.71119714 -0.026809277 0.7235725 0.08310962 0.7664104 0.44936025 0.055715606 -0.032586694 0.68537706 0.7996981 -0.25714624 0.55225796 -0.9894508 -0.03872797 -1.1155903 0.42285067 0.21031234 0.23379456 -0.09343901 0.3557745 -0.13835448 -0.08340001 -0.52485704 -0.12365952 -0.32899332 0.9579492 -0.38924706 -0.44706547 0.8550811 0.30298188 -0.6612453 -0.48708326 0.37620306 0.31152874 0.7983393 0.50106835 -0.030583406 -0.5349737 -0.026422586 -0.27998292
show 0.478057 0.23329781 -0.19254668 0.16137679 -1.7710129 -0.495205 -0.30456823 0.4322161 -0.0035566667 0.7431921 -0.39174995 -0.09836153 0.6994232 -0.3495148 0.63094807 0.2679195 0.13775022 0.7662397 0.24377778 -0.3794045 -0.32629415 0.3287746 -0.3688192 0.25510737 -0.31657448 0.15252836 0.87938476 -0.9625202 -0.49064204 0.13335124 -0.12464338 0.21467151 0.1792119 -0.18230651 0.13546604 1.0286862 0.46849537 -0.54468745 0.060090546 0.41246617 -0.3497888 0.2064698 0.04532724 0.083421275 0.050216448 -0.48377582 0.2031679 0.25459453 0.23885696 0.5011198
different 0.89424795 0.11738563 0.34500378 0.95683336 -0.6647749 0.2094504 -0.33541468 1.1278121 -0.48243934 -0.043852955 -0.89422077 -0.24923743 0.22776298 0.19794585 0.27561498 -0.2396735 -0.31392327 0.1398093 0.19758973 -0.68575174 -1.3344207 0.09775992 -0.50019264 1.2205852 -0.38236782 -0.8723024 1.0160971 0.23595047 1.5872576 0.09647298 -0.013039555 0.6091129 -0.3591039 0.21375462 -0.68470573 1.6090561 0.27020633 -0.47399607 0.3166559 1.1293577 -0.3877387 -0.035664316 0.7957364 -0.030666819 -0.14048173 -0.24925259 0.5185194 0.58739936 -1.0223553 -0.1733438
live -0.16008069 0.18131863 -0.00032909587 -0.15746202 0.38066664 1.204012 -0.47272953 -1.4768986 0.46039858 -0.7537957 0.11621327 -0.70736706 0.93481344 -0.60721606 -0.5624316 -0.05075292 -0.296161 -0.26852116 0.066051535 -0.73360026 0.041270826 0.21130677 -0.46732125 0.16447127 0.3369614 0.43900108 -0.21823904 -0.02804085 0.56463116 -0.21714823 0.7408988 -0.42885065 -0.5274102 0.3707962 -0.822708 0.053585958 -0.29624724 -0.69038385 0.59121495 -0.978683 -1.0102991 -0.7861254 0.7222709 -0.6007547 -0.2795349 0.3726069 0.9622852 0.5475029 -0.3897076 -0.3374949
put 0.2806742 0.02617596 -0.87924284 0.31993923 -0.41178024 0.21056448 0.99757373 -0.09862883 -0.43589604 0.31056485 0.54812104 0.08783721 0.035566602 0.481125 0.2414479 0.69720864 -0.02487082 0.5737937 0.22828421 -0.041959524 -1.2468661 0.7269781 0.370267 0.46681592 -0.528357 1.170186 0.5017516 -0.87785757 -0.5340947 0.12956275 -0.80142045 0.4857265 -0.46320117 -1.0913279 -0.7159272 0.54902536 -0.61904013 0.20628469 0.14212233 0.90162504 0.40821192 -0.57219845 -0.032802965 0.4033538 -0.17899154 -0.09358609 -0.63043547 -0.13828827 -0.46935672 -0.03329951
human 1.3701413 -0.3873945 1.2812611 -0.17598303 0.20097277 0.54377234 -0.88060004 1.1614064 0.3398628 -0.97258306 0.83899134 -0.23768076 0.08464432 -0.15594947 -0.5432829 -0.22352092 -1.4334241 0.044985466 0.08538577 0.49231824 -0.9021745 0.062201876 -0.55811024 0.4308505 0.4171924 -0.5140895 1.0949606 0.25798514 0.9223614 -0.7205959 -0.25279507 -0.26322207 0.41467312 0.34442133 0.31269753 0.2886362 -0.2778891 0.16798231 -0.096800976 -0.11125636 -1.1406882 -1.7922145 0.6142974 -0.09437485 -0.22153452 -0.7339712 0.6093012 0.8476975 -0.8505805 -0.15053792
idea -0.6657056 -1.2247576 0.54088813 -0.24151303 -0.13421157 0.18169188 -0.47919968 1.5418859 0.0002659328 0.08173561 -0.46816334 0.12218545 -0.14679398 0.37851882 -0.03613477 -0.15489297 -0.6362551 -0.616647 0.19560495 0.71777433 -0.08214249 -0.7133821 0.331312 0.21517538 -0.07155276 0.06829999 0.2619378 0.9521576 -0.16543481 0.24592103 -1.1685017 -0.064618535 0.35059363 0.7132733 0.2904204 0.112714946 0.45405614 -0.16832624 0.48824772 0.01948559 -0.21425064 -0.08557786 -0.10049893 -0.42509356 0.31969684 -0.39343467 -0.6545118 0.30771318 -0.26963028 -0.6686941
problem 0.06323818 0.31653744 0.77745146 0.6609006 0.9033145 1.0341989 -0.26219994 0.14958416 -0.54218906 0.6048001 0.09652084 0.24724963 0.050891023 0.94213396 -0.70203954 -0.0965335 -2.2205937 -1.3484967 -0.28095314 -0.18351015 -1.5512999 -0.8323924 0.78200966 -0.5728112 0.5337783 -1.4773253 -0.16013777 0.7708654 0.7400215 -0.5734562 -0.39186305 -0.18297194 -0.058373567 -0.543848 -0.1412931 -0.57920724 0.39548922 -0.10512023 0.28030524 -0.22104506 1.1799537 0.031632517 -0.084951065 -0.5073115 1.2322042 -1.1025493 -0.3102107 0.19309373 0.29526487 -0.20442592
great 0.15200123 -0.0914411 0.8717987 0.34087276 0.19323617 0.88595843 -0.17070694 0.47250775 -0.6400794 0.30637974 0.1313919 0.6003844 0.53750163 -0.6260901 -0.68424815 0.41291487 -0.48618186 0.42604527 1.0230626 -0.06294152 0.92806023 0.26088592 0.7237421 0.63859916 -0.113982454 0.38070515 -0.30019552 0.4139731 0.27393338 0.23415656 -0.14733112 0.07313617 0.6540965 -0.14302057 0.35582486 0.10333222 0.020997591 0.18448184 0.24705994 -1.4173353 -0.9275638 0.1804753 -0.6842833 -0.20854066 0.3216422 -0.9026761 -0.21883875 -0.10238533 0.08535055 0.3746947
big -0.11971348 0.2242588 0.34411904 0.88965017 -0.12614958 0.24554509 0.52093077 -0.38474947 -0.7429848 1.2074566 0.05195823 1.1800213 0.27131298 -0.2937666 -0.09668736 0.12436513 -0.44006875 -0.4195996 0.07976556 0.40226543 -0.43239632 0.6779447 -0.1430499 -0.02917799 -0.6411467 0.63577664 -0.061426412 0.06877459 -0.08487464 0.18478537 -0.21510196 -0.18703766 -0.13527541 -1.0139015 0.20504886 0.22036092 -0.5431295 0.0007137709 0.0229178 -0.3047116 0.026614204 -0.3513093 0.43013752 -0.41130543 0.9713709 -1.3286098 0.22775973 -1.2059909 0.14282028 -0.54609036
three 0.8217138 1.4740025 -0.28428817 1.1399713 -0.17696117 -0.48216888 -0.6174254 0.4199457 -0.73979187 0.17361563 -0.39745963 0.2972331 0.30494604 -1.4500409 -0.8560675 -0.6576427 0.6573218 0.7430312 0.21094069 -0.736015 -0.6105145 0.31455272 -0.59086883 0.069194704 -0.58659714 0.554938 -0.058547486 0.060410596 -0.91749597 -0.9204016 0.43532318 -1.5356104 -1.0003943 -0.6584883 -0.4283528 0.40042266 1.1409203 -0.27808693 0.67798954 0.4702721 0.225779 0.15690368 0.022643063 0.12084574 0.39700124 0.9840503 0.6506879 -0.5133926 0.001736399 -0.6588099
ask -0.4126858 0.29965696 -0.23661011 0.23350446 0.14934081 -0.1129862 -0.10178233 0.70734125 0.16314916 0.6204625 -0.3507578 -0.022543957 1.1200904 -0.14983045 -0.21442121 0.14977203 -0.3332564 -0.3331774 -0.0051663956 -0.2645937 0.38471907 -0.2163984 0.27792695 0.43614563 0.84360904 0.1977545 -0.691604 -0.9116696 -0.4796938 0.19442163 -0.13295667 -0.18366428 0.76767486 -0.3177236 -0.41581228 0.27970135 1.4134576 0.44256485 0.51694465 0.12703303 0.20115066 0.17802167 -0.14057289 0.45829317 -1.3484473 0.5454983 -0.97422814 0.32158387 0.38910422 0.6954614
thank -1.4799426 -0.6879408 -0.15748608 -1.0968362 0.2586918 0.07256687 -0.055083774 -0.18558241 0.060626052 0.79969376 0.78715694 -0.3283833 -1.2173064 -0.2672962 0.06963865 -0.5173067 0.20485073 -0.65344155 1.0644337 0.0050725625 0.6697949 0.588358 0.733669 0.7871662 0.63932085 0.18969892 0.6939163 -2.1893506 -0.70028394 0.46294615 -0.8433098 -0.9629604 0.5445204 -0.10147418 -0.44250542 -0.2178141 1.1124785 -0.06262933 0.011696151 -0.7773239 -0.18555902 0.6327825 -1.6593071 -0.534176 -0.43891674 0.0953139 0.20513156 -0.32613316 -0.695564 1.9529563
feel 0.1803802 -0.3304729 0.44022816 -0.5501053 -0.3254789 -0.5576329 1.7381294 -0.2000324 0.74419713 -1.0726326 0.5506927 -1.2197294 -0.40192103 -0.03554093 -1.1037042 0.3064707 0.22972646 -1.2445205 -0.25696424 1.0687875 0.103930876 0.430015 -0.17649701 1.2292788 0.982542 0.5249693 -0.8132985 -0.012757468 0.32328856 0.6947276 -0.08686054 0.12112641 -0.018458055 0.25721446 0.07513763 -0.46823937 1.0535915 -0.25158 0.43082017 -0.68069214 0.25556695 -0.18362227 -0.15908316 -0.07834024 -0.24376395 -0.034535024 -0.010540554 0.6743142 -0.3200637 0.040603157
become -0.2937598 -0.457268 0.28040013 0.14124565 0.25636923 -0.11635891 0.09983573 -0.02856625 -0.5909461 -0.5561649 0.07086929 0.54428905 0.7270432 -0.1526806 0.5185466 0.39490655 -0.9136009 -0.28901383 -0.5206761 -0.163897 0.3986542 -0.13361564 0.28340372 0.54713637 -0.080675036 -0.22137621 0.2252181 0.20096019 0.35205004 0.41192785 -0.10376616 0.47840452 -0.88706195 0.70529217 -0.08405766 -0.47486857 0.3331183 -0.039810844 0.0035283999 -0.98562557 0.31965023 -0.87936664 -0.27656695 -0.55396974 0.38335815 -0.79534864 -0.106177606 0.83019394 -0.5343861 -0.11132067
story -0.76106685 0.0059536113 0.7469898 0.6562635 -0.9954262 0.9283639 -0.4630152 0.7907479 0.71009177 -0.2441085 0.6393782 -0.13043883 -0.09819515 -0.6184886 -0.8717312 0.8715296 0.24794857 -0.37592515 -0.22799191 -0.42518717 1.1315094 0.328923 0.22690816 -0.3901924 0.3138862 -0.8549859 0.17542802 0.061823893 -0.906747 0.46572444 -0.034442786 -0.42084476 0.6122535 0.9923403 0.1789848 0.14104338 1.2808433 -1.0569234 0.26951295 -0.41678995 -0.17714874 0.4534648 -0.29524222 0.06633436 -0.2623874 -0.089997694 0.03188753 0.19253138 0.0038388087 -0.16701433
place -0.33964476 0.0047132582 -0.7918028 0.07947467 0.2294617 0.58614516 0.20696847 -0.8985829 -0.14567652 -0.113912836 -0.37773973 -0.26067302 0.4304171 0.0082241185 -0.10174877 0.36586857 -0.23608796 -0.5078368 0.13416967 0.3936346 0.16732222 0.19855069 -0.30947033 -0.2040539 0.76724213 0.2737941 0.3430884 0.5673786 0.16984114 -0.06190066 0.23047094 0.3773956 -0.8694083 0.43138942 -0.186084 0.405889 -0.6959425 -0.30388018 0.51263446 -0.3898514 -0.9803046 0.17311494 0.33148608 -0.50972116 -0.13883486 0.09644566 -0.077402964 0.1933428 -0.45959002 -0.16690972
create -0.06506594 -0.69313747 0.19128609 0.10143201 -0.15088591 0.92577344 -0.038917117 0.45373902 -1.1141478 -0.5040927 0.07665752 0.31620303 0.3703178 1.1344428 -0.31537452 0.35802746 -1.5236017 -0.04245359 0.9050007 -0.5964588 -0.7002 -0.4583491 0.7707329 1.1962128 -0.86311245 1.0205747 1.3638191 0.4379476 0.40350682 -0.34568247 -0.95547163 0.044643626 -0.52324694 1.001367 0.6487902 0.44918326 -0.46541753 -0.5952664 0.4343084 -0.34280345 -0.20277429 -0.46813017 0.33245552 0.22594938 -0.041102618 -0.79912794 -0.14555183 -0.1106093 -0.80746335 -0.22681057
country -0.25193584 0.65433955 0.8579115 0.8774164 0.7029277 0.7767259 -1.2391644 -1.476661 0.52502346 0.5567728 0.17801046 1.1075956 0.42762548 0.33798274 0.26150128 0.0299275 -0.93642604 -1.0394433 -0.43841973 -0.87542707 0.99056983 -0.78181326 -0.7528026 0.96151584 -0.02588037 -0.040241238 0.22775033 0.7146379 0.5197996 -1.4432853 1.1067506 -0.358349 -1.2918096 -0.032182317 -0.46975422 0.38358155 -0.6019554 0.79801965 0.9898514 -0.5168631 0.094524786 0.59278274 -0.53430504 -1.6026722 0.49335736 1.1171839 0.5046825 0.75533605 0.8975003 -0.33126375
today -0.5636078 0.11756747 0.62674165 0.26228935 0.3054773 0.33678025 -0.965021 -0.19615252 -0.10796587 0.27777 0.7866412 0.61085594 0.19620772 -0.24974433 -0.06877622 -0.6029732 -0.95707875 -0.20701434 0.57066053 -0.3364314 0.33124125 0.022543753 -0.30036047 0.1354189 0.28980586 0.07081505 0.12567991 -0.07495402 0.08898716 -0.77555054 -0.19512068 -0.41833073 -0.13995355 0.25265628 -0.3491366 0.25890163 0.7327234 -0.16037892 1.0048796 -0.55037963 -0.006903446 0.18720716 -0.089300066 -0.40983716 0.7807862 -0.0039201006 0.71781904 0.5260108 0.116731904 -0.0453161
woman -0.23785001 0.78155214 0.65335184 1.4067886 0.15812388 -0.94134337 -0.6477046 -0.31478962 1.3857176 -0.53410196 0.058998168 -0.035955407 -0.55964327 -0.60961324 -0.17738819 0.5810675 -0.15330964 -0.64344925 -0.32223424 -0.88631374 1.5641973 0.42040852 -0.46087676 1.2746708 0.8206454 0.5913665 -1.3110014 -0.3753639 0.80144835 -0.1507098 1.1799561 0.035818838 -0.46435 0.2811693 -0.18148962 0.43986478 0.3987835 -0.33989853 0.5945338 -0.64391863 0.18453607 -0.38806745 -2.1081815 -0.44523665 -0.85170656 1.4209008 0.51832134 0.23415194 0.99832875 -0.15572207
percent 1.9055109 1.4413651 0.52092147 0.16779275 0.3441044 -0.010519776 -1.570383 -1.481449 0.44721574 0.8741522 0.014290418 0.35082793 -0.3042581 -0.43485478 -0.6323074 -0.27100968 0.17127864 -0.03992876 -0.42714018 -1.4939817 -0.3567297 -0.18210597 -0.7504519 0.14810307 -1.0898015 1.0830566 0.5888143 0.10283831 0.193589 -1.8007494 2.3174624 -1.229215 -0.9293821 -1.538452 -0.55838364 -0.30543935 -0.17501183 1.0898374 1.0714885 -0.87261826 0.11536605 0.14723258 -0.16257308 -0.41468006 0.10669217 0.6149684 1.9688377 0.07774922 0.5427554 0.035454787
system 0.75487703 -1.7979666 -0.67871773 -0.28437692 1.3830838 0.51338536 0.44025245 0.21709526 -1.0750421 -0.22860517 0.6663133 0.2977584 0.47418094 1.9348978 0.6991435 -0.67057383 -1.1094277 0.24220298 -1.0466954 0.11667543 -1.6362226 -1.0192146 -0.1644766 0.016742608 0.38610435 -0.15200643 1.2693964 0.51016486 0.17025344 -1.8152927 0.5484011 0.41264582 -0.7788888 0.69983524 0.32884598 -0.4341775 -1.3035139 -0.14922902 1.1007853 0.36344767 0.17670248 -1.2677163 0.052760795 -0.16658406 -0.101913996 -0.908232 0.53682834 0.74645364 0.5343417 -0.023974162
part 0.21003339 -0.39537543 0.28705323 0.06725583 0.15323332 0.60051984 -0.376821 0.30775845 -0.7708895 -0.28173286 0.06958403 0.38014677 0.56508964 0.023512907 -0.024992278 0.17207032 -1.1075532 0.050691564 0.24677815 0.053149905 -0.43653065 0.34798998 -0.3960055 0.4902572 0.17900242 -0.5584711 0.5719438 0.40183797 -0.292356 -0.2822121 -0.12887754 0.3151565 -0.82302946 0.50631416 -0.3322464 -0.08330714 -0.3855414 -0.52324796 -0.26690838 -0.26302263 -0.21750812 -0.16219723 0.03546125 -0.59834516 -0.0005290449 -0.2513439 0.1872498 0.31575283 -0.5535348 -0.45587245
question -0.07279944 0.38487235 -0.17015548 0.105469815 0.8314319 -0.22655798 -0.5334955 1.2292528 0.3409135 1.3137025 -0.582166 0.29266235 0.8407209 -0.10478581 -1.024282 0.04008028 -0.7485449 -1.1603161 -0.26539612 0.5474762 -0.20157574 -1.0240744 0.073644556 0.04695693 1.489357 -0.9887886 -0.17262264 0.47815537 -0.12869863 -0.11564596 -0.23197785 -0.6845133 1.6055777 0.10088164 0.2766991 0.14311837 1.5596495 0.15121962 0.53639543 0.08295107 0.39412352 0.41964662 -0.0069368016 0.52496487 -0.78325766 -0.15267573 -1.4136405 0.642997 0.070193194 0.55593413
fact -0.25741875 0.14751546 0.47758153 0.09548197 0.12965469 0.13792446 -0.7480866 -0.031642426 0.48417297 0.6204138 0.2505226 -0.24475396 0.21489415 -0.050877936 -0.021978527 -0.29569852 -0.4328226 -0.14874478 -0.64006925 0.26039037 0.017739676 -0.0072470093 -0.53267795 0.19562921 -0.049571484 -0.3317494 0.78486824 0.031199995 0.6001039 -0.1326539 -0.017764766 -0.28541222 0.06837486 -0.18218024 0.24916974 -0.5489975 0.4613896 0.1656515 0.3657374 -0.31298682 -0.49235567 -0.12410851 -0.34863302 -0.17415412 -0.3641584 -0.4790484 0.24485937 0.5246705 -0.5816535 -0.21894667
man -0.059858844 0.67045146 0.13842225 0.8632057 0.34780866 -1.0461502 0.25264707 -0.35148513 1.8787683 -0.88950735 -0.044094678 -0.07429072 -0.47997832 -1.1610008 -0.13281693 0.86922985 0.5070515 -0.18280989 -0.6532166 -0.49529037 1.181728 0.2965068 -0.030457681 0.86592865 0.2874321 0.61795056 -1.2878017 -0.17839177 0.5868555 0.4378206 -0.021691151 -0.5493053 -0.123069905 -0.06456445 -0.3006376 0.28828326 0.0145259295 -0.34361136 0.30285072 -0.3002447 -0.3374482 -0.6293432 -1.8839401 -0.32294136 -0.64965016 1.3886238 0.072355464 -0.51465493 0.45576003 -0.122826755
child 0.3503771 0.83293974 0.79501337 -0.013414748 0.1344687 -0.11018032 -0.57336926 -0.20121363 1.438545 -1.7460994 -0.04022238 0.08837953 0.11409167 -0.66951954 0.2139037 -0.28762746 0.2837731 -0.25203124 0.18373084 -0.6117061 -0.310265 0.43508503 -0.36721712 0.51058227 0.9838587 0.41174546 -1.8538243 -0.72688067 0.25187433 -1.4300396 1.8129402 -0.711961 -0.010166319 0.8837362 -0.9771905 -0.1025615 0.66668046 0.12760966 0.41784924 -1.3402101 -0.029611401 -0.7440016 -0.44105005 0.0036293992 -0.0995403 1.2398281 -0.2890376 0.38480693 1.2798445 -0.49838462
build -0.36310497 -0.818204 -0.3893836 0.7397066 0.7330847 0.49215367 0.24338526 -0.35881728 -1.6542519 -0.14379527 -0.3050801 0.2033368 0.25088322 0.5601488 0.16858104 -0.03738302 -1.3067976 0.35581377 0.016217526 -0.94832355 -1.0495703 -0.84260887 0.98806614 -0.38844442 -0.28680784 1.4585158 0.9324597 0.06225283 0.17897943 -0.7600172 -1.445477 -0.06713876 -0.63855916 0.82403654 -0.59182966 0.57641244 -0.8878034 -0.090857975 0.9863653 0.120566055 -0.67577136 -0.5648981 0.46484524 0.19656241 0.45228317 0.062191017 -0.108245715 -0.9666724 -0.6017244 -0.25225168
learn -0.007093728 0.27423942 0.7742192 0.36767152 -0.003060007 -0.17269616 -0.8661582 0.6876117 -0.26669002 -0.91046137 -0.41066858 0.23303413 0.6368776 0.009759629 -0.23470892 -0.24399284 -0.30978933 -0.3959681 0.65037495 -0.33989146 -0.9614386 -0.05513248 0.62032545 0.03964935 -0.017801959 -0.8688183 -0.032907955 -1.089709 -0.12418169 0.09970993 0.3208829 0.5623671 0.93596566 1.3822197 -0.31606337 0.2116331 0.42468634 0.71819806 0.7029689 -0.6100773 -0.43743366 -0.24557576 0.065900244 0.43204537 -0.07799879 -0.05965318 -0.41851974 0.28279793 -0.95478344 0.2702483
turn 0.13986969 -0.14783509 -0.80678016 0.3701495 -0.199621 -0.21256945 0.40268213 -0.41688135 -0.22018652 -0.54576707 -0.07339196 -0.18218407 0.21435986 -0.19833301 0.76273227 0.26939443 0.42806175 0.001393053 0.09094436 0.27924997 -1.0141635 0.38879675 0.046531312 0.19495325 -0.8583268 0.3699152 0.0652998 0.016353449 -0.43991134 0.07990449 -0.16489877 0.055389684 0.47190258 -0.625032 -0.14116438 0.21601577 -0.27876422 -0.048355866 0.07345739 0.113485016 0.07225808 -0.22316898 -0.4215956 -0.21452756 0.3938479 -0.65278774 0.17146237 0.5240332 -0.7181434 0.023649454
last -0.31213325 1.2229053 -0.46469632 0.38535497 -0.1738342 0.5306201 -1.1002434 0.009766981 -0.59481627 0.43825158 -0.3915355 1.0258414 0.4395978 -1.6963872 -0.80097514 -0.80260116 0.18304525 0.82259667 0.23088516 -0.89547455 0.36717886 0.35766348 -1.4306861 -0.5046972 -0.4069579 0.7952066 -0.2081074 -0.18139495 -1.2653748 0.51061577 0.24686883 -1.2683705 -0.3445576 -0.570745 0.32882828 -0.46214333 0.6322019 0.66437876 0.69813305 -0.18275182 -0.14878549 1.0359361 -0.18699466 0.34863463 0.827174 0.29500774 1.157467 -0.36767906 0.090371475 0.21631621
help -0.2230429 -0.6863234 0.4422532 0.20039795 0.61549866 0.57442904 0.13295063 0.6110459 -0.26337397 -0.57387835 0.0886544 -0.0023892014 0.20050465 1.104118 -0.18232365 -0.6509652 -1.1274948 -1.0559375 0.66980106 -0.49519455 -0.8165518 -0.096389614 0.9855812 0.4675928 0.7060214 0.20020536 -0.8066058 -0.69977 -0.16096511 -0.36328188 -0.042336226 -0.14774454 -0.35528627 0.514879 0.07264686 0.5518127 0.475653 0.50808674 0.59688896 -0.76467484 0.62977856 -1.2693788 -0.06277377 0.9886415 -0.34397563 0.19262263 -0.5088045 0.19010502 0.7015748 0.039783277
another 0.07953835 0.6186409 -0.02475559 0.18070193 -0.41014862 0.22754763 -0.013964683 0.70828116 -0.056186616 0.0728641 -0.3958703 0.2681558 0.31969157 -0.43658015 -0.35631415 0.31443322 -0.0524406 -0.021130838 0.062196195 -0.4302937 -0.27413955 0.5153695 -0.26035035 0.21020414 -0.25800216 -0.12995395 0.14695081 -0.16105942 0.10356185 -0.26969495 -0.2055733 -0.28863403 -0.18206158 -0.21094534 -0.27328157 0.5519731 0.6460979 -0.18507251 -0.324475 0.79202265 -0.5018251 -0.5461058 -0.17821461 0.36012834 -0.023955826 0.026193274 0.044075135 0.115991995 -0.3542995 -0.29916638
old 0.15156744 0.6532346 -0.2401031 0.6153133 0.38890702 -0.08932891 -0.36411062 0.16855547 0.63933474 -0.60230213 -0.37859133 0.7186823 0.31315014 -1.9373082 -0.24195884 0.012815123 0.7896961 0.68758464 -0.51607364 -1.3641654 0.25949964 0.94597095 0.085254915 -0.18199676 -0.7163311 0.9766528 -1.6705444 -0.75124085 -0.070732966 -0.15227024 0.2587749 -0.8127431 0.17649853 0.4670186 -0.75737405 -0.33276448 0.34663 -0.43682593 0.7990315 0.034005385 0.2678273 -0.9118992 -0.26860842 -0.50806665 0.08808812 1.3109753 0.4252073 -0.47042146 -0.11682023 0.39742666
never -0.57523024 -0.024933934 0.16117552 0.3737924 0.15458712 0.6470547 0.577619 -0.47565585 0.6982292 -0.82976437 0.18541338 0.11719065 -0.045169603 -0.1797936 -0.34164423 0.16031696 0.17206647 -0.20665239 -0.3445199 -0.07703673 0.54788274 0.34616208 0.09958316 -0.51576656 0.23834352 0.081227906 -1.0147418 -0.08305934 -0.385539 0.61629057 0.042993538 0.050493576 0.4901884 0.18118058 -0.121219836 -0.0366849 1.1371515 0.47191766 0.43403074 -0.7275066 -0.37560162 0.32791504 0.3229998 0.35070497 -0.54726684 0.22591458 0.085782416 0.40905917 0.005439721 0.028618319
love -0.39942917 -0.2652836 0.7029315 -0.72104347 -0.09999036 1.114036 0.37016544 0.3585078 0.41564977 -0.562357 -0.39327943 0.041350365 -0.28349796 -0.48845503 -1.1055907 -0.19114193 1.1033572 -0.3164849 0.2167308 0.31979588 1.0492402 0.69608974 1.0113058 1.041724 0.15539585 0.5818033 -0.72712046 -0.71097875 -0.43152025 1.1658295 0.26201612 0.52763444 0.7559005 0.83862203 -0.27680138 -0.63790894 0.10118242 -0.62917787 -0.022689287 -0.6660288 -0.8750514 -0.3304653 -0.15518372 -0.34966433 -0.3014746 0.9779679 -0.700111 0.6613928 -0.29523447 0.35125858
technology -0.5332173 -1.0959994 0.124754265 -0.12962292 0.40877625 -0.12981446 -1.5671662 1.1768326 -0.18821692 0.44350314 0.34424633 0.21960305 -0.7406753 1.3942941 0.83226633 -0.6890348 -1.6053411 -0.18720317 0.4021191 0.19770132 -1.1229259 -0.9217905 -0.28320205 -0.36222547 -0.067601934 0.25726727 0.8579036 0.29738805 0.31341726 -1.3461841 -1.3965437 0.7367374 0.8182894 1.563542 0.40141863 0.5213155 -0.05510546 0.12892127 1.1471988 -0.58677155 -0.18046242 -0.81977624 -0.24324809 0.018070802 1.6823299 -0.57488763 0.28225034 0.791938 0.11731539 -0.40922207
end 0.060678374 0.39512402 -0.0015069972 -0.039274156 -0.098327294 0.72881305 0.3362917 -0.45277065 -0.09392459 0.15750183 0.034529403 0.28674194 0.35901016 -0.7895263 -0.027750894 0.6467141 0.19605723 1.0873247 0.13757746 -0.17418507 -0.39532652 -0.13719569 -0.45744446 0.52294934 -0.25555894 -0.008052005 -0.5803601 0.82702684 -0.940067 0.73676217 0.072846495 -0.40329677 -0.27179608 -0.29901016 0.14238222 -0.017687341 -0.12560892 0.19029215 0.39331704 -0.12699538 0.36060107 -0.06100749 0.012510679 0.11132154 0.09922064 0.016208794 0.35325772 -0.23203847 0.16024847 0.21224855
brain 1.51525 -0.6578552 0.2368804 -0.6991871 -0.4269787 -0.7323332 -0.01248611 1.6446499 -0.28148 -0.9186686 0.077809885 -0.8626783 0.10971726 0.23331401 -0.29180235 -0.7136422 -1.1771344 -0.2309499 -1.3042556 1.5314621 -3.0246325 1.059257 -2.2947018 -0.054919694 -0.53309524 -1.3751328 0.80469614 -1.0193851 -0.11108116 -0.84779286 0.54082465 0.40501267 -0.52482843 0.5301169 0.046867345 0.010307559 0.19509849 -0.07148439 -1.3314984 0.8654751 -0.38470188 -1.1689912 -0.04045503 -0.2040858 0.44359282 0.27707803 0.3020535 1.1089898 -0.92921084 0.982221
long 0.54608166 1.0510758 -0.2922294 0.958145 0.8946039 0.41268063 0.08692855 -0.15257487 -0.59614176 0.06593277 0.24682099 -0.2665603 0.25066036 -0.057542056 -0.72731024 0.35368654 0.4847098 0.61265284 -0.26784953 -0.10366815 0.075791664 0.382771 -0.6914682 -0.25494546 -0.02617781 0.121199355 0.07128225 0.5687042 -1.1830983 0.6184192 0.46436092 -0.6019851 0.33288223 -0.2987351 0.8252487 -0.22426036 0.16341831 -0.0025294144 0.87235284 -0.756681 -0.22387247 -1.3021361 0.60237294 -0.68493646 0.09826426 0.17517881 0.93489796 -0.54290724 0.15498023 -0.2981826
understand 0.61711365 -0.43960395 0.28705254 0.18755507 0.21158265 0.88145494 -0.26368532 0.73550916 -0.11056675 -0.35065907 0.5714419 0.33693174 0.7627008 0.8395527 -0.6067527 -0.6132115 -1.0469768 -0.21079557 0.32483757 0.3068299 -1.3250952 -0.20985694 0.08303013 0.359742 0.7187755 -1.3390741 0.33805534 -0.57587993 0.7240845 0.31981796 -0.79440796 -0.35954893 0.6720478 1.129757 0.24828283 0.16644354 0.73141885 0.3505125 0.25148517 -0.3338925 0.28010318 -0.55465376 0.17853552 0.060372077 -0.4618138 -1.3389665 -0.40369958 0.8044056 -0.71809995 0.071332544
important 0.47861505 0.066671565 0.51120234 0.31784707 0.051782463 0.6005673 -0.19150154 0.5414836 -1.3585614 0.49860418 -0.0050829104 0.68405694 -0.0793762 0.12738515 -0.33794668 -0.68418103 -0.792054 -0.6526931 0.80601203 0.45499948 -0.16154604 -0.10726194 -0.18538558 0.56921816 0.9828264 -0.75885814 0.8657367 -0.32480037 0.49902788 -0.118339166 0.27938765 0.57345825 0.38877234 0.8149806 0.24215403 0.49160853 1.0223172 0.40078363 0.006744608 -0.64765227 0.34440905 -0.5592007 -0.3137019 0.45268247 -0.33984494 -1.0315381 0.3111433 0.657778 -0.46841353 -0.6949274
still 0.17571376 0.11623243 -0.1557964 0.15367943 -0.11190093 0.002572966 0.14185096 -0.7737282 0.23115441 -0.2729642 0.3596534 -0.17028558 0.028694905 -0.36480546 -0.2744569 -0.47536713 -0.16735952 -0.24466437 -0.72068405 0.4300741 -0.05458054 0.40964422 -0.23587814 0.33482125 0.19250908 0.2760969 -0.36412126 0.1301895 -0.12561458 0.1315654 0.36118978 -0.22363983 -0.182453 -0.002341125 -0.21458931 -0.20396835 0.34855014 0.27392197 0.21067771 -0.6801913 0.15687935 -0.0020612483 0.0044368794 -0.2961009 0.39437893 -0.021212993 0.25775707 0.09679942 -0.34250507 -0.3284634
together 0.07061958 -0.3062957 0.22851855 0.65868175 0.89771426 0.9784922 0.5083325 1.1254319 -0.5102789 0.3584501 -0.3081644 0.09692492 0.08441795 0.52065843 -0.2038985 0.16801225 -0.6950581 -0.5844828 0.87306446 0.4865735 -0.56023484 0.5238241 -0.17796971 0.7700286 -0.24117517 0.0697961 0.6922864 0.30518675 -0.8022793 0.21844086 -1.0737381 -0.18947954 -0.54080075 0.6599669 -0.3205512 1.5774311 -0.732158 -0.147915 0.3022607 0.8344246 0.049880967 -0.36545774 -0.29677877 0.32722887 -0.87960225 1.0282216 -0.27672505 -0.93530256 -0.22136171 -0.74381393
move 0.69244313 -0.15082595 -0.77546024 0.19893959 0.44921115 -0.082711905 0.72481215 -0.8594127 -0.18177179 -0.68608946 -0.43436164 -0.02382524 0.95316505 0.13538375 0.37506968 0.7783414 0.43178785 0.22381365 0.38592494 0.72928345 -0.9980456 -0.044650752 -0.3561132 -0.03914667 -0.56309557 0.5792486 0.635371 0.022996396 0.43367267 0.42384365 -0.83103335 0.22677858 -1.0749457 0.11155902 0.36485934 1.6774198 -0.22647701 0.53079545 0.9948417 0.10427395 0.5292245 -1.1763222 0.38952443 -0.79270154 1.2246423 -0.02436221 0.40304214 -0.14815804 -0.7590976 0.15340103
point 0.49643058 0.054415442 0.1218615 -0.49955314 -0.18404321 -0.019270143 0.41448414 0.005754299 0.16858657 0.32180044 -0.19795477 0.15424398 0.11347903 -0.1296843 -0.22011243 0.61288387 0.25854456 0.21419299 -0.23752198 0.59122795 -0.5284284 -0.3103668 -0.34374037 0.11419299 -0.09404023 -0.5221868 1.1277717 0.157028 -0.07489194 -0.08027084 -0.39720136 -0.49050868 -0.11292988 -0.58984524 0.5258184 0.9114178 0.567252 -0.079628065 0.33120534 0.03715544 0.24834773 0.27373794 0.14315444 0.028119171 0.45883346 -0.39312643 -0.33800787 0.49862337 -0.03871232 -0.47066134
example -0.021445235 0.57025105 0.025300294 -0.10225125 -0.60035956 0.05204292 -0.7500848 0.6030579 -0.12960729 0.5884304 -0.2699149 0.062223773 0.33568075 -0.28389308 0.84537137 0.63847464 -0.46490493 0.12256099 0.16557446 -0.39131442 0.033880576 -0.22011413 0.20515248 0.26170602 0.23418929 -0.10377513 0.78767747 -0.37111068 0.06641836 -0.9802621 -0.5024966 0.4766622 0.3006089 0.11417132 -0.33184117 -0.02835904 -0.096364856 -0.42962095 -0.14904429 0.55830705 -0.7973807 0.13030721 -0.33933467 -0.15469941 -0.03908263 -0.59509337 0.11197982 0.4847869 0.2956868 0.15024696
able 0.39546815 -0.061876133 -0.24923141 -0.148478 0.5731689 0.078325294 0.26502743 0.7119222 -0.11127456 -1.005236 0.060355794 -0.25438607 -0.27283838 1.3283274 0.5047361 -0.402039 -0.8503637 -0.62864685 0.2010095 -0.12494379 -1.5203631 0.30265823 -0.2645384 -0.42373613 -0.020880863 0.3463545 0.5311066 -0.09401665 -0.5450173 -0.73133427 -0.06296121 0.022851182 -0.13656932 0.40054387 0.59877485 0.6701217 0.8536504 0.9435306 0.02015378 -0.26225498 -0.5261614 -0.64898986 0.8478103 0.587497 -0.09189392 0.33671615 0.068344444 0.0921616 -0.1618213 -0.20100115
next 0.36596102 0.45058802 -0.9684705 0.12300948 -0.5557222 -0.1439769 -0.16469014 0.07717256 -0.51811606 0.05369465 -0.07096203 0.5387509 0.40589234 -1.2130846 -0.47722578 -0.42951098 -0.0049467636 -0.014976426 0.7009314 -0.24255483 -0.35475957 -0.039935596 -0.82128936 -0.6487752 -0.727183 1.157318 -1.139688 0.19130732 -1.2243799 0.05104465 0.03217581 -1.1380854 -0.01333102 -0.61480796 -0.11865767 1.200607 1.1810886 0.48662135 0.81859875 0.097967125 0.32322928 -0.15516007 0.187948 0.5527256 0.44244945 0.330886 0.17017564 -0.6262031 0.49453387 0.17564847
leave 0.53197414 0.1851348 -0.733065 0.4143454 -0.6649102 0.72164094 0.6497424 -0.8482264 0.37985 -0.4223153 0.11915152 -0.015661767 0.43668678 -0.8001394 -0.6074875 0.8914988 0.6059161 0.21292713 -0.7462219 1.0551637 0.21884437 0.22437719 0.03210687 -0.073754296 0.0802747 0.92743176 -0.47025833 -0.18374538 -0.2627396 0.08390125 0.49623364 0.018882867 -0.66748685 -0.44772255 -0.5586411 0.6148111 -0.24819969 0.12242516 -0.08587741 0.2632897 0.80269444 -0.207757 -0.098566495 -0.033409502 -0.3239868 0.26304063 0.4677052 0.03742829 -0.4023321 0.07404173
school -0.86367553 -0.5363742 0.08687342 0.6422947 0.68623745 -1.1011705 -0.92310494 -0.9488201 0.3570039 0.3599832 -1.5227442 1.1430407 1.1678052 -0.09329484 -0.05246553 0.32295248 0.4748607 1.0826707 -0.0012195904 -0.9504116 -0.76061386 -0.4642569 1.1625277 -0.29957828 0.6294492 0.6120762 -0.49018762 -0.98758936 -1.1224377 -0.571243 2.5451202 1.1492364 0.10928672 1.0302663 -1.2300129 0.23812522 -0.28439093 0.15877981 1.4870416 -1.6398193 0.39458907 0.7864176 -0.5765002 -0.46640632 -0.55397785 1.5557874 -0.932647 -1.178741 1.9486843 0.14019495
million -0.03038059 1.4201391 0.78758377 0.35151273 0.74188524 0.9232276 -1.1637654 -0.71934867 -0.025067642 -0.1386964 -0.01754232 -0.54621667 -0.26926354 -0.9610729 0.118960716 -0.38705426 -0.36380103 -0.14535315 -0.30701667 -1.671125 -1.0630269 0.56961715 -1.3809701 -0.10698569 -1.8969661 1.6436522 0.012586185 -0.65483546 -0.36891857 -1.6759261 0.108375326 -2.3786526 -1.1116898 -1.2513101 -0.41111013 -0.280737 -0.4550072 0.47402698 1.0460923 0.63729393 -0.96695167 0.47515443 -0.19484672 0.38878956 0.5446895 1.291148 1.1262321 -0.021212444 0.26617688 -0.88820356
course 0.0939812 0.40430975 0.13403441 0.23915298 0.045620903 -0.21121041 -0.27837056 -0.15139072 -0.26826832 -0.04837983 -0.18382372 0.5766302 0.18523994 -0.23875132 -0.12615518 -0.030669797 -0.1814562 0.11709154 -0.017018711 -0.13723078 -0.10962176 0.015168837 0.0010042265 -0.20510441 0.022488791 0.014356642 0.3048398 0.17370841 0.13451616 -0.12247392 0.07767089 0.35091302 0.39705956 -0.3368736 -0.058920998 -0.3926792 0.14045762 0.32705685 0.5328003 -0.25072283 -0.33817744 -0.45251065 -0.1668546 0.14310367 0.3132241 -0.49883938 -0.24362536 0.09691155 -0.47065994 0.01495086
design -0.17379263 -1.5627177 0.37503895 0.1104261 0.16031528 -0.40295327 0.016861856 1.5338002 -1.5241002 0.15720513 -0.2606931 0.04343374 0.11635931 0.5003045 0.3839254 -0.16514663 -1.8280767 0.76862836 0.30535418 -0.4749373 -0.9703962 -0.72524035 1.3576263 -0.507792 -0.09737336 0.48385862 0.8054988 0.419989 -0.024762753 -0.3926695 -1.0022787 1.1489383 -0.10965575 0.90442514 -0.12209147 0.4000876 0.16452959 -1.0304418 0.89580804 0.21143635 -0.24022625 -0.5227521 0.14667276 0.16588667 -0.22708178 -0.96026903 -0.12893409 -0.165268 -0.30086705 -0.47702134
number 0.5692449 0.9345233 0.4143947 0.059476417 -0.09730477 -0.0034551488 -1.1863232 0.67532575 -0.018023524 0.61857885 -0.29342145 -0.036065757 0.4021503 0.0681058 0.06023278 0.2825038 0.4849569 -0.43293145 -0.23867695 -0.45378244 -0.97538036 -0.20380746 -1.0154147 0.769675 -1.0275809 0.06419933 0.847583 0.11995063 -0.2974772 -1.386802 0.6632457 -1.4802324 0.03566453 -1.1505358 -0.6143062 0.2259718 0.3036816 0.518695 0.31365758 1.2052658e-05 -0.1775166 1.0349772 0.09530312 -0.54653054 0.38117096 -0.41530454 -0.4990927 0.3174908 0.1845867 -0.4642829
city -0.45860234 -0.58142114 -0.053684533 -0.0731182 0.09566275 0.43089816 -0.23859783 -1.2513708 -1.349034 -0.4360913 -1.5754094 0.863931 0.14300123 -0.022034697 -0.429822 0.27450585 -0.3703198 -0.6021428 0.41357166 -0.538471 0.6537003 -0.9746562 -0.34409633 -0.6484004 -0.07001724 0.36999935 -0.37867185 1.3333571 1.0391563 -0.55888385 0.38432997 0.342432 -2.5100532 0.69325715 -0.9431344 0.75936806 -0.86879164 -1.2555487 1.6234401 -0.4024393 -0.90699524 0.8863564 0.3815397 -1.6898122 0.3329217 0.8772069 0.6204365 -0.40545365 0.8463865 0.22441147
bit 0.32812446 -0.057294317 0.3616064 -0.12732808 -0.9576099 -0.26945272 0.2615774 0.68776995 0.1414996 0.89119446 0.31709266 -0.48805305 0.28856233 0.21138664 0.20875506 -0.40692854 0.73218554 -0.7333576 0.28502935 1.3963233 -1.5386566 0.5424856 0.02691812 0.049084418 0.29242867 -0.5727455 -0.34110203 -0.51737434 -0.87102383 0.2557336 -0.26485172 0.8933544 0.8535413 -0.18216154 0.20113125 -0.22665113 0.7350033 -0.41933665 -0.19038527 0.099455 0.12674147 -0.30136505 0.95729 -1.109131 0.53333503 0.08990407 0.61507237 -1.4149834 -0.6446684 -0.1520287
ago -0.35657755 1.3682092 -0.3982934 1.0294378 0.5362421 0.26112884 -1.252351 0.5177238 -0.40210715 0.73163295 -0.9074951 0.21120134 0.63645923 -2.433418 -0.68502694 -0.5302064 -0.38916123 1.0130011 -0.42528573 -1.6442068 0.82548416 0.46863616 -1.5236865 -1.1587954 -0.61887217 0.8892295 -0.31060067 -0.8342281 -1.2634476 0.11912778 -0.651175 -1.7543474 -0.1609359 -0.15038997 -0.20101614 -0.26322347 0.80920124 0.071343966 1.0053685 0.6675946 -0.7244034 0.60401064 -0.17797281 -0.4949725 0.7295284 1.0628633 1.3059627 -0.3263462 0.4111362 0.28038618
high 1.123072 0.6757609 -0.26876172 -0.2804814 0.7496596 -0.9822898 -0.39017305 -1.7912169 0.3905287 0.8498094 -0.8456644 0.6991492 -0.006114659 -0.18159005 -0.28002357 1.0656798 0.020094406 1.3136773 0.6181993 -0.7570661 -1.6486604 0.09363248 0.21013308 1.9470162 -0.16157076 1.5599151 1.5825679 -0.7502067 0.63570845 -0.86758137 2.1293972 1.1678841 -0.04797004 -0.02960628 0.5382303 -0.5336802 0.49070776 0.392222 0.083695084 -1.3345459 -0.15495986 -0.06487541 1.098802 -0.0823001 0.7896275 -0.104178704 0.74543625 -1.0060712 0.7925458 0.7226836
kid -0.6685868 0.1770084 0.49703363 -0.023189351 0.21866058 -0.81749916 0.09468123 -0.43372932 0.8708995 -0.3305702 -0.7817132 0.34576723 0.72377986 -0.57855 0.18528858 -0.24455902 0.602364 -0.4866215 0.037564274 -0.28262162 -0.71306974 0.93667436 0.7876618 -0.13247705 -0.35912088 0.48380846 -1.3421142 -0.5668949 -0.5331502 -0.2056284 1.3281952 0.6392363 0.26565307 0.55983925 -1.2994655 0.4428333 0.140394 -0.53174657 0.8069871 -1.2847971 0.3234116 -0.2464717 -0.0009854838 0.21197087 -0.43029684 1.3537772 -0.93477964 -0.36340946 1.0839518 -0.05449704
believe -0.6232912 -0.7785338 0.93733186 0.27503356 0.8441854 0.67518735 -0.35329685 -0.27118945 0.5168852 -0.21380241 0.19891936 0.44837087 -0.029031008 -0.19992165 -0.6840325 -0.04815344 -0.71365404 -0.8188037 0.32316765 0.1485624 0.50018 -0.43870187 0.63031507 0.814919 0.7641767 -0.24732406 0.1350009 0.57868433 0.6998695 0.5153765 -0.64600325 -0.68619525 0.7044392 0.08187086 0.189523 -0.06417452 0.5296347 0.5729368 0.3271648 -0.8525746 -0.27764 -0.28179985 -0.64997125 -0.31901222 -0.45152012 -0.40723783 -0.06737196 0.9577509 -0.19746263 -0.14091529
state 0.07239047 0.68739015 1.3910899 0.15379952 1.798341 0.38899204 -0.2367464 -0.4477216 -0.0966954 -0.28485316 0.40265104 2.1410303 0.978885 -0.2146241 -0.09127485 -0.36904687 0.30069402 0.6653389 -0.7538274 0.19678389 0.97100824 -1.475729 -1.698976 0.5255866 0.57948434 0.057875503 1.350594 -0.081221044 1.2883418 -0.50706935 0.6580047 0.33949578 -1.8918631 0.1415531 -0.92089397 -0.78130203 -1.0522494 1.3881346 1.6536072 0.67116964 -0.98123443 0.90721154 -1.0536054 -1.7773231 0.1461729 -0.23237835 0.7869009 0.87951136 1.509507 -0.16856852
water 0.9104346 1.1155202 -3.6520345 -1.0185637 -0.18884239 1.2956437 1.1371685 -1.5744424 -0.28684068 0.30929372 0.29172584 -0.8885973 -0.78704196 0.10144169 0.009676143 -0.1130668 -0.27735898 -1.3813564 0.363614 0.88059515 -1.7344955 1.0490304 0.5115962 -0.015262652 0.0300867 0.5672075 0.36344913 1.4865588 -0.22835714 -0.31653395 1.1132911 2.115868 -1.2732772 -0.7594654 -0.061109796 -1.1550009 -1.8036526 0.07285683 0.21666257 -0.653188 0.24210905 -0.4398744 0.8732862 0.7251185 1.6081705 1.0677636 1.0073205 -1.0024009 -0.42323893 -0.9373835
hear -0.81159765 0.29036203 0.19625689 0.34870037 -0.33637983 0.18672882 -0.061742626 -0.5634136 0.16842683 -1.1841751 0.7480779 -0.39470175 0.1476937 -0.46732467 -0.5831569 -0.5895295 -0.040361892 0.014802169 0.07876881 0.6158079 0.7939587 0.6183587 -0.33616313 0.60689676 -0.29643792 -0.5876981 -0.68527 -0.85155624 -1.011492 0.74224776 -0.32781535 0.5726899 0.72753197 -0.7933826 -0.52118057 0.21742721 1.4245971 -0.40786803 -0.2648605 -0.36780703 -0.22042346 0.89931434 -0.020959673 -0.060322788 -0.56872106 -0.52310854 0.4892427 0.18438512 0.30461773 1.1016998
play -0.029269489 0.47419465 1.4238242 0.21705724 -0.49095294 -0.89123994 0.6656973 0.56238073 -0.0695725 -1.283822 -1.1816858 0.6110864 1.1351128 -0.20074973 0.02616592 -1.0618786 0.5975639 0.71091264 0.7028082 0.9189464 -0.20979004 0.8085232 -0.17612709 0.5954375 -1.0177344 0.19317311 -0.52498555 -0.32746428 -1.1573887 -0.53984463 -1.1691084 1.0425098 1.0303797 0.6578127 -0.6290519 1.0539522 -0.594369 -0.7372272 -0.21130507 -0.7295825 0.30648443 -0.15805116 -0.7357254 0.6105049 -0.62212217 -0.19968145 -0.32859892 -0.2764207 -0.8753773 -0.002749163
maybe 0.20324902 -0.014190904 0.11879593 -0.07812307 0.03462247 -0.17750879 0.25947654 0.35735828 -0.12565452 0.012410473 -0.31492725 0.074015036 -0.29583114 -0.48635653 0.0061196852 -0.67454743 0.15702152 -0.46460268 -0.14937623 0.31201127 -0.68928045 0.25641525 -0.14440265 -0.12243487 -0.19259782 0.33002257 -0.2023166 -0.4094453 -0.09790398 0.34170306 -0.07583754 -0.4349246 0.6120407 -0.6883167 -0.24823664 -0.010584533 0.5254736 -0.020383283 0.11632063 -0.15558098 -0.37873876 -0.10232983 0.35756895 0.1183041 -0.12987341 0.2315023 0.015294759 0.2890291 -0.340404 0.092655815
sort 0.14130713 -0.45858514 -0.09101153 0.18314344 -0.46647665 0.10753266 0.3022377 0.72303075 -0.402788 0.11389789 -0.48567748 -0.021706631 0.32610717 0.04686956 0.18061952 0.41122115 -0.121927544 -0.08815332 0.022222871 0.7441324 -0.74327844 -0.11029768 0.13699923 0.30537173 -0.23106647 -0.052017435 0.48143572 0.29016146 0.35401675 0.35372823 -0.38413712 0.99454343 0.1333021 0.2753838 0.043020528 0.024437245 -0.07737526 -0.9991405 0.06569301 0.36428756 -0.24501325 -0.57850385 0.49959067 0.12722115 -0.09012147 -0.91179 -0.5581953 -0.32697043 -0.6072285 -0.08797394
bring -0.35492504 -0.20338969 -0.07143946 0.60771817 0.20520405 1.211748 0.14758602 0.0587766 -0.54877913 0.178659 0.19008222 0.26370132 0.84653306 -0.18360502 0.1299698 0.12765193 -0.40521848 0.32338125 1.2662914 0.08999493 -0.43731096 0.15438218 0.55305135 0.7449506 0.5150321 0.69744873 0.14643459 -0.66206384 0.0014495207 0.10450187 -0.2852945 0.09445266 -0.5691391 0.4129222 -0.25630012 1.045912 -0.76716536 0.3369338 0.3736069 -0.24693295 -0.05189912 -0.4162462 -0.5437765 0.18668614 0.40520242 -0.096177444 -0.51018953 -0.14525434 -0.16652484 0.2833016
word -0.71863854 0.87690365 -0.14610548 -0.3139957 -0.5758859 0.5584853 -0.54182506 1.1265249 0.2661244 -0.9823047 1.0082209 -0.27573752 -1.0510399 0.3178726 -0.44062555 0.7155937 0.4538953 0.12795818 -0.34336632 -0.02492155 0.20147765 -0.4392142 0.23861302 0.97619385 -0.83756256 -1.1910857 -0.96515226 -0.0030195178 -0.4480075 0.24384518 -0.28805214 -0.16920033 1.3408622 -0.15104917 -0.13170479 -0.3168424 1.0436155 -0.6065596 0.03607645 -0.1312856 -0.50080585 0.9671302 -0.4151982 -0.3672109 -0.9286047 0.390313 -1.1098081 0.5362508 -1.0578316 -0.01769456
second 0.8670721 1.0959096 0.08545407 0.020526567 -0.54368037 0.25540617 0.14523952 0.012248399 -0.2994996 -0.45307633 0.008353191 0.56221414 -0.02660651 -0.24987838 -0.15796252 0.36010456 0.32769707 0.5815067 0.18326363 -0.23348138 -0.69054025 -0.14252937 -0.8114795 0.1681842 -0.22526832 0.40232232 0.27319503 0.35510814 -1.0431904 -0.9170129 0.39115846 -1.448147 0.24102922 -0.26364958 0.024419827 0.2778807 1.1200224 0.2408022 -0.24390812 0.16954967 0.36172286 0.1690309 -0.1610445 0.36884028 0.5418094 0.06483523 0.17358224 -0.2660687 -0.26256847 -0.10740251
hand 0.7766715 -0.28723115 -0.9111122 -0.17370339 -0.15429893 0.44764772 1.2856355 -0.12816308 1.3497884 -0.7388759 0.35051024 -0.24621594 -0.15452696 -0.16478382 0.36438194 1.3816239 0.27681214 0.08676576 -0.12793574 1.3930864 -0.68560743 0.5715896 0.3408124 1.1003611 -0.2939025 0.7776189 -0.29882497 -0.07228318 -0.5598308 -0.88267326 -0.48066387 0.5728354 0.24212332 -0.678526 -0.56078684 1.0163797 0.44281256 0.48767474 -0.7440776 0.52005935 1.1868349 -0.0067560175 -0.13101263 -0.146201 0.45657104 1.0029206 -0.8062433 -0.36202514 0.16535738 -0.3258704
begin 0.03578816 -0.23665386 -0.44715673 0.4436494 -0.07337404 1.0108774 -0.56806725 0.7918615 0.10229626 -0.22676666 -0.013394021 0.54043275 0.776714 -0.8150915 -0.27047026 0.028423984 -0.6431642 0.56235284 -0.086531766 -0.24258001 -0.11473086 0.21948223 -0.5830165 -0.31225386 0.29263017 -0.45936063 -0.3764667 0.10847273 -0.025168328 0.5712918 -0.046201713 0.027828615 0.14904234 0.9972129 0.8276975 0.3069277 0.07925836 0.22425365 0.59538054 0.019840395 0.05018272 -0.3659992 0.12606724 0.18873514 0.5991932 -0.23769271 0.38615954 -0.5023104 -0.2871216 0.31551424
real -0.41511616 -0.13927795 0.9413653 0.2887436 -0.8213923 0.28122833 0.8697814 0.3218068 -0.39631814 0.8723944 0.29587463 0.38374 0.44192034 1.0003867 -0.5635202 0.26354587 -0.8267935 -0.1251616 0.38073772 0.1693633 -0.57078475 0.20656835 -0.21937571 0.5484315 -0.14072172 0.38657305 -0.04249739 -0.25911644 0.7515621 -0.0096537545 -0.60686535 0.22024189 0.062295932 0.40006313 0.56351966 0.7254185 0.39300025 -0.42899448 0.1661502 -0.8282149 -0.7328027 0.079870045 0.43378916 0.8596315 0.401228 -1.2192483 -0.43894532 0.17817633 -0.3365468 0.32438138
grow 0.86751676 0.23402013 -0.7587174 -0.23495132 0.64086723 0.7783089 -1.1178569 -1.0565649 -0.19114111 -0.47463676 -0.44579816 0.42106414 0.38532922 -0.93864226 0.59156185 -0.07555588 0.14173594 -0.9994283 0.111228004 -0.8656668 -0.89462906 0.9269664 -0.21758364 0.6009798 -0.6578706 0.5568859 -0.060130876 -0.1428401 0.95389193 0.46505737 0.6407746 -0.11965957 -1.0125867 0.49072525 -0.8949778 -0.18918404 -1.2268827 0.27337998 0.6810572 -1.2243562 0.7953198 -1.0429142 0.49530596 -0.9874182 0.6167157 0.32491666 0.34429005 -0.5005461 -0.2734702 0.32209936
ever -0.40349633 -0.23289134 0.5331808 0.1270967 0.46241185 -0.018813549 0.57319456 -0.349981 0.76276004 -0.4845655 -0.046446923 0.32202616 -0.1028196 -0.27829424 -0.41361016 -0.019574571 -0.15537097 0.2552076 -0.49957526 -0.44136566 0.48298162 0.71431947 -0.3990046 -0.12550879 0.32460368 0.45638207 -0.4612473 -0.3233162 -0.7776865 0.40898484 0.11334852 -0.051237907 0.3284578 -0.0236927 0.27207768 -0.24396451 0.91293514 0.04240876 0.4738208 -0.81963575 -0.7732579 0.5379036 1.0281271 0.17246614 0.23773345 0.18478034 0.22778356 0.65854543 -0.08957036 -0.20474966
small 0.1992604 -0.011257853 -0.30194145 0.8172553 0.5532068 0.18389429 -0.08199258 -0.6507483 -0.52643937 0.9775694 -0.41416332 0.41858009 0.6396246 0.55303633 1.1415753 0.65672165 -0.28252015 -0.59089905 -0.015183464 -0.17384909 -1.584729 1.254869 -0.66426736 0.6521333 -0.78568685 0.78894275 0.50281805 0.24940196 -0.15982051 -1.1871476 0.44163343 -0.29604834 -0.83496875 -0.2651858 -0.3560756 0.4657446 -0.25082 0.11034033 -0.55880606 -0.12249636 -0.3309151 -0.7994091 1.12949 -0.14299491 0.05882298 -0.082543336 0.6318278 -1.3650873 -0.85097164 -1.3174956
datum 0.6657441 -0.050499965 -0.6917861 -0.4380256 -1.1836691 0.13911726 -0.2666432 1.5384775 -0.5422692 2.1742723 0.46887776 -0.7582797 -0.4024342 2.659908 0.7303908 0.022954594 -1.2695396 -0.7960823 -0.58195776 0.434691 -1.0099348 0.28331488 -0.68058497 -0.58756685 -1.0429984 -0.38875479 1.9955738 -1.1236365 0.19153884 -1.6850495 -0.30249766 -0.63557476 0.33497044 0.52722573 0.52184254 0.121519156 0.31933677 0.024226358 1.8486972 0.69088286 -0.9474069 0.58394456 0.30822882 1.243591 0.028824292 0.10151708 0.308439 0.21064936 0.9938379 -0.06596859
experience -0.025886504 -0.61595756 1.4416807 -0.4924603 -0.6965514 -0.00050040236 0.11367878 1.6231211 0.26420373 -1.286151 0.10719115 -0.78198385 0.43139568 0.10089538 -0.80868435 0.7599392 -0.38534883 0.044930354 0.6930189 0.5579469 -0.45410144 0.09577935 -0.96866304 0.71283 1.0301697 -0.47380942 -0.08674318 -0.05517071 0.79296607 0.05764961 0.61173743 -0.10120902 -0.15924442 0.91522884 0.4946307 -0.31416023 0.59074205 -0.63049024 0.7724942 -1.0655332 -0.7850287 0.11039109 -0.19281633 0.07784791 -0.24818037 -0.14224012 0.014540158 0.55918854 -0.42757937 0.20010926
always -0.21215144 -0.06349423 0.3392126 -0.42531624 0.23386794 -0.079499096 0.42521232 0.15422279 0.14629371 -0.17709048 -0.26212484 0.181298 0.30991536 -0.39967 -0.3604049 0.15209801 0.19554578 -0.43395227 -0.22631943 0.65816677 0.45343554 -0.20014012 0.47284967 0.49323454 0.43990788 -0.0044834088 -0.44431895 0.39678612 0.2241076 0.90117264 -0.19111274 0.0291326 0.54511863 0.44216308 0.26371214 -0.019246206 0.9342221 -0.3591929 0.15320666 -0.8316863 0.17924045 -0.55392814 -0.17685676 0.00769571 -0.5667747 -0.039333455 -0.64523524 0.1776617 -0.44877034 0.29045987
person -0.016525943 0.67824525 0.4814908 -0.67031026 0.14033914 -0.7936486 0.8349372 0.6371455 0.7732214 -1.0807378 -0.055965714 -0.47166538 -0.8389432 0.31426448 -0.27068985 0.6226395 -0.025645278 -0.16167912 -0.5034441 0.13927093 0.2229944 -0.017951833 -0.6932092 0.35449868 -0.6132467 0.26095748 -0.5783452 -0.45390823 0.085753046 -0.6996683 0.52178824 -0.7374622 -0.60145986 -0.38338023 -0.5050779 0.17046522 1.046656 -0.38668996 0.07997178 -0.5051036 -0.2793338 -0.26508942 -0.65940726 -0.21385321 -0.85910124 0.6632557 -0.50253195 1.3636415 0.018609742 -0.061695635
four 0.9197545 1.3961157 -0.33088925 1.0296615 -0.19829682 -0.6934974 -0.88148427 0.19272609 -0.6152044 -0.013622176 -0.5006101 0.062414534 0.39627343 -1.3442034 -0.55771315 -0.3481157 1.0371718 1.0916792 -0.13846375 -0.70736533 -1.0689738 0.23912719 -0.7037648 -0.19403085 -0.9407578 0.6144702 -0.21504667 -0.044299573 -1.1285554 -0.7595242 0.50009596 -1.680257 -0.82658726 -0.90882534 -0.8690632 0.25725487 0.5820185 0.1613944 0.734462 -0.024739513 -0.057397712 0.23860754 0.10633789 0.2047211 0.59053946 1.3607607 0.9978408 -0.4714107 0.06118717 -0.6282285
write -1.1481001 0.18481632 -0.55510336 0.015810959 -0.9088692 0.9107875 -0.5764505 1.5235529 0.34747702 -0.3056948 0.5189539 0.39374787 0.5979428 -0.6531791 -1.0288613 0.4461866 -0.3669214 1.5755758 -0.62877953 -1.1493403 0.33783698 -0.7362679 0.5635709 0.7387647 -1.2829881 -0.08987459 0.15729553 -1.0182707 -1.2595847 0.83999056 -0.3999275 -0.012282698 1.3226836 0.15268266 -0.5622729 -0.57920843 1.3006904 -0.14560476 0.14203122 0.50543755 -0.23087065 0.89677596 -0.08682606 -0.074170314 -1.2354367 0.34132782 -1.3290879 0.5557485 0.2889551 0.47198665
run -0.08631248 0.2117813 -0.44975612 0.49616903 0.16565901 -0.040792406 0.38167772 -1.0937008 -0.5212615 0.045697443 -0.5599924 -0.10631044 0.7843718 0.72335434 0.54398817 0.33901924 0.2902351 0.8692627 -0.4745332 -0.30935287 -0.48966107 0.119567886 0.09276264 -0.27815932 -0.66916645 1.2346525 0.23722757 -0.32940882 -1.331906 0.34111303 -0.14016351 0.07122109 -0.37299332 -0.8087426 -0.20844002 0.23277193 -0.46649268 0.47266147 0.78166944 0.4427388 -0.009462013 -0.827717 0.105742045 0.03868376 0.6351139 0.17072266 0.078642316 -0.3612595 0.5862103 0.41423368
space -0.39866325 -1.8019365 -1.0805194 0.7321869 0.066035405 -1.027697 -0.28317332 -0.6635868 -0.43127966 -0.22757646 0.008505734 0.15876547 0.40516734 1.497814 -1.0315988 0.26425266 0.14092599 0.11901978 0.22428754 1.0603453 -1.0721233 -0.34622443 -0.525469 -0.37547395 0.19583128 0.4839423 1.5072668 0.7489442 -0.09255161 -0.26533762 0.21364407 -0.49167898 -2.0260546 0.7149297 0.9315756 0.8439333 -0.053821508 -1.787225 1.109912 -0.10264273 -1.6201614 0.43210226 0.44180143 0.2732427 0.38295764 -0.08858239 0.037970707 -1.4504113 -2.1934264 -0.35466343
away 0.28757256 -0.24445209 -0.743295 -0.08762926 -0.07649228 0.4344889 1.7856911 -1.0581291 0.17549744 -0.16145627 0.17005879 0.05069411 0.57341486 0.05618712 0.02587766 1.1477336 1.6172698 0.053790756 -0.7050043 0.65475 -1.2898878 0.5032858 -0.58119434 -0.6626574 -0.3496127 0.30498913 -0.24592136 0.664143 -0.2258477 0.7441363 0.52249944 -0.10252015 -0.41348702 -0.7101486 0.20518151 -0.16770685 0.26536936 0.5932547 0.66625446 0.16554657 -0.71995705 -0.9369583 0.49880105 0.065170355 1.2766279 1.5474302 0.29631346 -0.4811831 0.17863233 -0.5516185
family -0.0690265 0.7331008 0.5819981 -0.051174354 0.92390746 1.2192274 0.047355697 0.050207075 0.27133843 -0.5583612 -0.480545 0.2129994 0.7830933 0.19082077 0.29693526 0.25638258 0.2159729 -0.19299938 0.070389666 -0.004743896 1.1677847 0.36758915 -0.09248073 0.37969923 0.5189553 0.24702361 -1.484952 -0.14902967 0.03850607 -0.31752026 2.2181895 -0.83128315 -1.6998508 0.7438048 -1.118647 -0.033836722 0.10973524 -0.58802974 0.6287702 -1.0475016 0.2288122 -1.0203525 -0.91650534 -0.49229604 -1.1871092 1.3734379 -0.25952622 -0.040501833 1.0446187 -0.7587102
bad 0.26254356 0.4257177 1.2942259 -0.34929982 -1.240072 0.15038638 1.2485023 -1.3485553 0.108719334 0.25612974 -0.024107676 0.41646814 -0.16199844 -0.24921468 0.31731847 -0.83062387 0.11043998 -0.28419638 -0.9884877 -0.5207924 0.53042966 0.2728024 0.35793567 0.5916033 0.007983944 -0.43343443 -0.54582834 0.24677211 0.7775327 0.5861615 0.1833174 0.048776906 0.3469066 -0.99071324 0.22336233 -0.86107284 0.45825315 0.449399 0.34151885 -0.7738501 0.48563874 -0.30631372 -0.35714138 -0.008439857 -0.63590586 -0.94737595 0.11621889 0.7826368 0.57556796 0.09098336
home -0.96753365 0.018344112 -0.6955163 -0.00891022 0.08609811 0.7049722 0.9766454 -0.9864451 -0.35898584 -0.5505369 -0.23826107 -0.40807173 0.69325835 -0.009465117 0.5016138 0.15719454 0.69073635 0.24203083 0.17269301 -0.034198906 0.17207661 -0.34659067 0.06289639 -0.5688267 0.04517965 0.93889976 -1.3341075 -0.85363954 -0.7336053 -0.6094771 1.2340878 0.27390254 -0.9296784 0.05945523 -1.2437552 -0.053481806 -0.20248362 -0.2950348 1.1278535 -0.39772487 -0.12033787 -0.352648 -0.7392839 0.4383225 -0.18312612 1.3482348 0.02826138 -0.647085 0.43870923 -0.041165873
everything 0.14068423 -0.50383484 0.2831217 -0.50737935 0.014928475 0.5030881 0.45060703 -0.5863005 0.17352071 -0.033089332 0.1720356 0.30485046 -0.9075903 0.665815 -0.06344891 -0.35984683 -0.007544738 0.44945845 -0.2861117 1.1244575 -0.8451003 0.2056194 -0.95495987 -0.45760798 -0.46914995 -0.22478934 0.2826381 -0.18549056 -0.009097168 0.5591011 -0.27567223 0.39772403 0.63495284 0.25033528 -0.07634123 0.19750814 0.50855535 -0.5838459 0.4654189 -0.4996349 -0.045905687 -0.15050326 0.45192036 0.12658037 -0.47916466 0.25901002 -0.44490045 0.45596588 -0.45609006 -0.8690226
whole 0.28735936 -0.81550795 0.12905501 0.59912586 -0.24898943 0.8333842 -0.39903504 0.87786996 -0.70194775 0.59045494 -0.47290218 0.10311539 0.59252065 0.1540341 -0.5224833 0.1837885 -0.5110883 0.3713992 -0.123258546 -0.4335965 -0.81057787 0.46922714 -0.3997074 0.3475838 -0.68730706 -0.39550373 0.013179542 0.63060766 -0.107147336 0.7844769 0.4108036 0.33346367 -0.18015164 -0.013722612 -0.5832448 0.76243055 -0.6614063 -0.56153995 0.6612705 0.19054992 -0.040927857 -0.33783862 0.41487065 0.35560688 0.15239212 -0.26417157 0.39071378 -0.24811648 -0.26254222 -0.6095867
power -0.25968164 -0.12630983 -0.16625042 -0.4893934 1.5785489 0.73257416 0.29857787 -0.046406392 0.47256795 -0.522413 1.0802089 -0.049294237 -0.59343237 1.5540972 0.09980254 -0.33241004 -0.91070384 0.2509207 0.31971523 0.6222234 -0.29740128 -0.66644627 0.093155466 1.0081565 -0.4752158 0.7486515 1.4106429 1.4648321 1.0204135 -0.9121372 0.1669682 -0.12578338 0.20821807 0.56945837 -0.09014308 -0.22080149 -0.27472997 0.1093945 1.4716219 -0.15589115 -0.06112132 0.21278721 -0.954495 -0.4357315 1.5570612 -0.27123937 0.3384307 -0.42631927 -0.8935549 0.7197724
body 1.0630221 -0.32085583 -0.9932208 -0.38440168 0.027219199 -0.10105424 0.43403837 1.0984076 0.9536293 -2.4171505 0.46855772 -0.8178466 -0.58208436 0.5116572 -0.12089512 -0.316388 -0.62348783 0.5597932 -0.8480957 0.80763793 -1.6076366 0.48652837 -1.4385668 0.5940025 0.5025014 -0.17008838 0.90881383 0.092669114 0.55183965 0.4810716 0.37654385 0.8686095 -1.3147218 0.14246087 -0.71353036 -0.17327072 -0.69514364 -0.23440063 -0.5102773 0.021479195 -0.049683888 -1.295166 0.30180666 -0.031572323 0.23010829 0.5434616 0.14012758 -0.39382824 -0.7691026 -0.6410933
keep 0.00817204 -0.12146364 -0.5520372 -0.19397977 -0.43617204 0.49707332 1.0315632 -0.43942615 0.18061575 -0.8560558 0.25184602 -0.16506784 -0.02574882 0.47045466 0.20539807 -0.54052585 1.368433 -0.17339578 -0.29864138 0.6308032 -0.41811678 -0.274564 0.2583847 0.40925437 -0.05191635 0.8092376 0.101243325 -0.3906809 -0.6491393 0.12774003 0.13266848 0.48643917 -0.43334302 -0.06351607 0.09722048 -0.12902226 -0.54497373 1.1299319 0.7966739 -0.79440403 0.6085606 -0.8924713 0.28999886 0.8004369 0.20130858 0.5050127 0.38689747 0.25001365 -0.20072605 -0.27500075
guy -0.6744083 -0.049323685 0.0268095 -0.0747094 -0.27295974 -0.92399704 1.101674 -0.31629437 0.36728388 0.601684 -0.6754917 -0.013905862 -0.27023154 -0.7723342 0.4611947 0.15744694 0.7931937 -0.43852252 -0.85352015 -0.026509497 0.70443416 0.19879122 0.67473346 -0.1068924 -0.5073844 0.53825843 -0.9737671 -0.37617385 -1.2043034 0.14598928 -0.8002516 0.37200418 0.3290063 -0.6160863 -0.84125626 0.21426874 -0.057622004 -0.72673106 -0.09577411 0.19601703 -0.050267644 0.11920137 -0.7268254 0.12501436 -0.19930723 0.113239795 -0.6207128 -0.8436027 0.5422936 0.62903726
light 0.46249074 -0.7393365 -2.3502734 -0.19418593 -1.2304484 -0.3652107 0.9035058 -0.84126365 1.0213279 -1.0853772 0.3136059 -0.87287277 -0.482352 0.8796136 0.5414819 -0.23999442 1.1816709 -0.23910752 0.3607507 1.2036296 -2.5808969 -0.30595088 -0.13566865 0.22591238 -0.79468423 0.43968853 -0.13996202 -0.3048429 -0.20612063 -0.6711262 0.8675565 0.4322882 -0.4781587 -0.39049408 1.367232 1.5696304 -0.99491423 -1.8787063 -1.1035162 0.7470946 -1.3752081 0.0716612 -0.96814066 -0.4489097 1.4424436 0.5079928 1.5295726 -0.0944886 -1.2296641 0.0592311
cell 0.72618395 -1.2398975 -2.8671968 -0.765806 0.09090213 -0.13139665 -1.3156899 1.5377196 -0.33610067 -1.3843426 -0.12394671 -0.43803757 -0.96594626 0.99123585 1.1453534 -0.7766921 -0.36695224 -0.7988183 -2.0762587 -0.44976524 -3.4019186 0.655836 -2.514863 0.4460603 0.27434805 0.06683711 0.05667826 0.086142965 -0.5724628 -0.95649505 0.14177468 0.1035574 -0.38487858 0.104799844 -2.4023256 -0.13433088 -1.6728731 -0.13527197 -1.6345943 1.2929522 -0.069805324 -1.4899466 0.41202947 -0.13205537 0.4596511 1.174364 0.76019025 1.670498 -0.84612244 0.39313945
five 1.0118113 1.5554497 -0.08238363 0.59101987 0.28881875 -0.5538967 -0.5529518 -0.04794499 -0.36882183 0.0032857468 -0.2630439 0.3383321 -0.09145449 -1.5825068 -0.69619006 -0.120390125 0.74677134 0.85619366 -0.29111934 -0.9598039 -0.63753974 0.24657264 -1.0595281 -0.21064167 -0.9842202 1.0940084 -0.28149813 -0.6015181 -1.2078162 -0.9370759 0.703619 -2.007088 -0.5692846 -0.87161124 -0.6070527 -0.13154821 0.6193268 0.3117658 1.0997739 0.099190585 -0.039569806 0.52648157 0.2897734 0.3390457 0.46500602 1.5530533 1.0773519 -0.5187003 0.27055687 -0.1677171
study 1.1821542 -0.10105952 0.10204472 1.2364658 -0.22908615 -0.21132419 -1.7245209 1.5778837 0.4971473 0.97917825 -1.3524696 -0.10213318 1.2036915 -0.015157078 0.06625824 0.14895713 -1.53315 0.4313087 0.18389858 -1.078023 -0.4608431 0.30613047 -0.2015652 -0.183144 0.16479924 -0.5286539 1.2493916 -1.6472039 0.038874015 0.47531092 0.81381243 0.17329699 0.37398303 0.2789766 -0.092137806 -0.97409356 0.22106043 0.5525533 0.2279534 0.10825471 -1.1692306 -0.04686464 0.12080412 -0.18603101 -0.6866334 -0.36316732 0.83164793 0.7025492 0.5637812 0.76694685
reason 0.2985847 0.11481882 0.46606565 0.029558972 0.23502395 -0.0991789 -0.43210673 0.41984072 -0.046465565 0.16297686 0.22059974 0.2345581 -0.0141328415 -0.32052797 -0.30116493 -0.26878324 -0.14213575 -1.1885234 -0.60693437 0.15622224 -0.0008114332 -0.5544317 0.47921818 -0.014678787 0.7214013 -0.52692956 0.810086 0.6857248 0.11777672 -0.25525048 0.06855841 -0.42726663 0.48153946 -0.46799493 -0.039562855 -0.7080638 0.84245616 0.29185224 0.3444368 0.14758454 0.040819284 -0.13683365 -0.56466144 0.030953547 0.22991708 -0.63786244 -0.604482 0.93320787 -0.058312483 -0.25201488
information 0.0066065043 -0.14363295 -0.73941386 -1.2204266 -0.8043392 0.4843504 -0.8375547 1.8828397 -0.59052783 0.6788214 1.5026395 -0.7572492 -0.3805893 3.250336 0.7280127 0.0058819563 -1.0659345 -0.82713497 -0.889649 0.84785897 -1.3247736 0.35236016 -1.0836282 -0.036850378 -0.7703653 -0.13397813 1.591034 -0.41393828 0.37502274 -1.0667593 0.085286185 0.2993384 0.10594066 1.2841821 0.39043435 0.017553015 0.29685932 0.24279067 1.1828464 -0.24353144 -0.12644668 -0.110050425 -0.26494578 0.9597311 -0.34338632 0.052162964 -0.42330536 0.9021971 -0.30286917 -0.38969055
community -0.72071856 -0.87435764 0.7075167 0.43904093 1.6486847 0.7549649 -1.0675403 -0.23494631 -0.3427171 -0.4804267 -0.52484566 0.06512963 0.91043776 1.219249 -0.38544253 0.7146508 -2.1733513 -1.141181 0.8461641 -0.47087216 0.60849553 -0.1624178 0.26233205 1.0614771 0.6759942 -0.12723017 -0.20625465 0.13655451 0.7094795 -0.5078769 1.0583432 0.57484883 -1.5917364 0.7797527 -0.88753104 0.65241843 -0.4698089 -0.5469482 1.2246658 -0.54147464 -0.14949416 -0.6099863 -0.89801633 0.6285383 -0.87435085 0.61316353 0.32155287 -0.11881398 1.2376302 -0.3889504
company -0.95359164 -1.2167219 0.84654415 0.59173656 1.568664 0.6335254 -0.5533907 1.2407879 -0.6036767 1.8313177 -0.6433453 1.187665 -0.6771185 1.4095591 1.4047631 -0.3200079 -1.0601127 -0.59612215 -0.6302222 -1.2375494 0.7367962 -0.16475232 0.254677 -0.43881077 -1.4571129 1.2564689 0.54581857 -0.6898724 -0.36081314 -1.2116529 -0.71860594 0.9594825 -1.3492279 -0.12742178 0.49601278 -0.15104496 -0.50233805 1.2501211 0.96186715 -0.15195706 0.34759682 0.6392682 -0.93593967 0.16201273 0.26650754 0.11862025 -0.3619729 -0.21399505 0.0976213 0.21616983
money -1.2465512 0.22933306 1.6456534 -0.6082853 0.76326114 0.44238073 0.08909677 -0.18601675 -0.073878 1.6177119 0.14847153 0.07599771 -0.97580093 2.1596384 -0.40847808 0.16761288 0.26183462 -1.4004827 -0.37013596 0.006364079 -0.6974673 0.24407996 0.27785075 0.04491971 -0.676668 1.2160769 -1.0268295 -0.6096297 -0.50158197 -1.597503 0.77121276 0.07831231 -0.75119054 -0.46088296 -0.21532203 -0.91574025 -0.5631613 1.4837974 1.1112238 -1.3594352 0.5349543 0.22321713 -0.8687347 0.033438303 -0.6400124 1.7393177 0.33777758 -0.97415537 0.11653415 -0.5655307
sense 0.5535391 -1.0003707 0.45333052 -0.39562878 -0.17090476 -0.13133533 0.38726845 0.7466658 -0.118661165 -0.4681075 0.5251814 -0.21811944 -0.43145946 0.84904474 -0.8792102 0.06563066 -0.19696712 -0.31533712 0.5258561 0.6654826 -0.8809495 -0.2359812 0.07401964 1.0674193 0.91372186 -0.5602095 0.46537787 0.7361759 0.7520188 -0.29017237 -0.45889083 -0.04627661 0.040821504 0.32944646 1.3046931 -0.33914694 0.22655973 -0.68401104 0.30670947 -0.56463003 -0.9117332 -0.41610265 0.06521026 -0.40650403 -0.22293684 -0.26349783 -0.79427755 0.7115574 -1.546172 0.15173738
computer -0.21829018 -0.75529546 -0.10905932 0.027446553 0.083441816 -0.9476903 0.57675046 1.4524786 -0.07902007 0.116359174 0.6652232 0.13209127 0.2273946 1.0265135 0.3316544 -0.7015944 -0.873157 0.5904072 -1.2913493 -0.39081743 -1.6020186 -0.21266493 -0.427936 -0.7315338 -2.2614603 0.113575004 0.38210642 -1.5020202 -1.4575492 -1.7030041 -1.8229309 0.79491097 1.1978657 1.2320534 -0.5543453 0.8489733 0.2580962 -0.45712698 0.28753227 0.1601173 -0.82651865 0.005858657 0.8998991 0.24941671 0.5261383 -0.39916217 -1.1607608 0.03687769 -0.2539726 0.83667576
future -0.11891525 -1.0478449 -0.063071735 -0.6483921 0.3962399 0.66452426 -0.19452858 0.6269077 0.40920398 0.064858705 0.39105392 0.37418163 0.19506909 0.2675517 0.035160437 -0.39348927 -0.78350544 -0.97963125 1.2850753 -0.23591062 -0.13948926 -1.0207928 -0.030732073 -0.2514286 1.1428005 0.23872721 -0.70355886 0.46083847 0.8413141 -0.7370717 -0.5200404 -1.3152976 0.10333932 0.3720617 0.92231196 0.5199087 0.34922025 0.09690391 1.3408674 -1.0424274 -0.9054935 -1.124203 0.63340324 -0.46483335 0.21986648 -0.42164513 0.6511165 1.0837367 0.18079191 -0.46136257
large 0.5999038 0.064673625 0.3157782 0.4704298 0.62137485 0.47363782 -0.60644805 -0.5319316 -1.0306863 0.7590239 -0.197185 1.1868656 0.61442405 0.63011014 0.93691844 0.78473675 -0.7730144 -0.5822558 -0.06683945 -0.5415776 -0.7727392 0.645575 -1.0057997 0.46125427 -1.0623437 0.15901774 1.436121 0.16335858 0.62604445 -1.2521124 0.6452997 -0.42523912 -1.3891702 -0.38874906 -0.41198832 0.17410176 -0.69519943 0.34476402 -0.06074415 -0.018725468 -0.690692 -0.24976325 0.6795723 -0.62431383 0.58147436 -1.0210477 0.907468 -0.75017697 -0.8192814 -0.7949754
open -0.31161618 -1.5732163 -1.9582087 0.23969716 -0.92325914 0.88806045 -0.075507656 -0.038742855 -1.4766873 -0.17720173 0.49924013 0.2688571 -0.53867537 1.5194061 -0.3892182 0.6661783 0.16411407 -0.18099399 0.025689948 0.7292124 0.8053914 -0.21751636 0.27133748 0.48435202 -0.6945583 1.1196234 0.047592755 -0.32108688 -0.33725107 0.51213956 -0.06926879 0.95386344 -0.7539758 -0.40128222 -0.5499259 1.6119481 -0.4338779 0.8820463 1.0711752 -0.14265494 -0.6484856 -0.41175082 0.5487803 0.8380827 1.170996 -0.91393656 0.11398321 -0.30138245 0.6304237 -0.5549773
picture -0.38958994 0.062862195 -1.0098014 0.33275238 -1.1342518 -0.1266121 0.30396876 0.33773798 0.11793073 0.21704897 0.26354438 -0.27892438 0.24167427 -0.6840707 0.8944241 1.0066739 0.7002644 0.33215764 -0.41919717 0.221808 0.22438957 1.0969559 -0.5826714 -0.6767143 -0.02416043 -0.4649399 0.34968165 -1.1037816 -0.70320535 -0.007013424 -0.54615307 -0.19733787 -0.3110149 0.09724917 -0.031824306 0.8564106 0.47529572 -1.4050982 0.10979666 0.54285896 -0.6336563 0.8854612 0.021352146 -0.2860571 -0.16314542 -0.30652377 -0.41990456 -0.49805072 -0.27797726 -0.024089444
moment -0.06676198 -0.5285156 0.058146343 -0.49990878 -0.45025092 0.3089836 0.8318918 0.7713226 0.36647892 -1.1549233 0.60427594 -0.24851002 -0.05729872 -0.39699024 -0.7497165 0.6487882 0.31238255 -0.21142322 0.5762936 0.961197 0.26655722 0.5608762 -1.2029537 -0.6895105 1.2003808 0.22108153 -0.26634502 0.42560562 -0.46318468 0.407088 0.008766898 -0.7271619 0.63737714 0.67797583 0.718396 0.44046724 0.88613665 -0.0027944176 0.42110857 -0.6238116 -0.49626398 0.8743353 -0.97703624 -0.16015095 0.23630513 -0.7097686 -0.04063599 0.1250369 -0.6049523 0.22171286
car -0.32988286 -0.3489647 0.9973039 0.41911015 0.19359502 -1.533845 1.0869297 -1.3647012 -0.122869894 -0.1364521 -0.805353 -0.16406447 -1.7233 1.1156304 0.655541 -0.17629424 1.9321551 0.59249145 0.0571489 0.6013972 -1.3678837 -0.4677399 0.16938582 -1.8484172 -1.1447588 1.0404906 -1.015485 1.233307 -0.16073035 -1.1398027 -1.1205641 0.7531368 -1.3739818 -0.6581478 -1.1759156 0.20960678 0.20003034 -0.6427481 1.464824 0.5447979 -0.8522893 -0.63089967 -0.4686868 0.21506949 1.180977 0.5541631 0.83933467 -0.4331808 -0.012303263 0.9017705
friend -1.0436922 0.7552242 -0.4727535 -0.32398158 0.19693448 0.6735854 1.2864807 1.2219286 0.5023248 0.87434286 -0.8968981 0.050397713 0.6726923 0.114449285 0.60883504 0.42112848 0.92314994 0.05613532 -0.36924917 -0.06473077 1.8969024 0.20269042 0.09209364 0.36600143 -0.5119298 0.4757708 -1.4177008 -1.040177 -0.9481609 1.0777272 0.38934693 -0.6478657 0.023359774 0.6838057 -1.5452305 0.23435694 0.5695224 -0.4359864 -0.27908263 -0.42926458 -0.35526517 -0.9565297 -1.6457658 0.565254 -0.9583849 0.93629724 -0.40839285 -0.07875301 1.1034254 0.50171095
hard 0.5988759 0.30416596 0.36876598 0.2919187 0.63377696 -0.18560377 1.269432 -0.019121628 0.26675463 0.41335067 -0.11913742 0.101942986 0.07540615 0.6431416 -0.21553902 -0.4606878 -0.61553484 -0.7501304 -0.6363775 0.14608441 -0.16464524 -0.12906134 0.48601344 0.1907258 0.47696552 -0.0379124 -0.072996594 0.43352744 -0.19603425 0.5415735 0.08138677 0.2935928 0.8084225 0.39782465 0.39560857 -0.4947652 0.7564481 0.3840488 0.5253114 -0.9466144 0.8672826 -0.67358744 0.23340413 -0.08908329 0.1317678 0.38747764 -0.31020212 -0.3206874 -0.8851065 -0.40866777
case 0.26591998 0.46749696 0.16452979 0.11422292 -0.26655635 0.12239821 0.13303381 -0.13821968 0.500624 0.107589655 -0.597657 0.38659304 -0.014118048 0.2839118 0.4057027 0.3868484 -0.17500837 0.6072573 -1.2168537 -0.5123551 -0.38224375 0.41778222 -0.67312485 0.12685086 0.8036605 -0.47910655 -0.058408692 0.07244199 0.17639597 -0.39651367 0.3103847 -0.113680094 -0.3430078 -0.6122121 -0.19605969 -0.50097215 0.28334224 0.59581584 -0.16697468 0.9609909 0.05990024 0.24956132 -0.050358016 -0.2143101 -0.4571721 -1.1315265 -0.3655224 0.9810271 0.54511446 -0.19852968
face 1.1528202 0.45666066 -0.12453306 0.27802643 -0.5789516 0.3302213 1.1226217 -0.08728542 0.70742774 -1.1889284 1.1287482 -0.15432782 0.21852283 -0.15143387 -0.4233132 1.506847 -0.19071257 -1.0353932 -0.40119287 0.45388892 -0.23361352 0.25267982 -0.1479584 0.9416293 0.7981245 -0.32231674 -1.062095 0.36359125 1.5190749 -0.08823615 -0.22678432 -0.35014743 -0.33252525 -0.38234916 0.41642907 0.57198936 0.4762809 -0.8082914 0.029149955 0.17633407 0.4458372 0.122795686 -0.41195047 -0.24364398 0.9809189 -0.9263679 -0.4918771 -0.17552409 0.41051376 -0.040044278
project -0.7742294 -1.0099832 0.012556465 0.21632269 0.31469405 0.32734564 -1.2959826 1.4278685 -0.78577167 1.0917205 -0.43780416 0.48365495 0.8222524 -0.16073212 -0.79776603 0.07610923 -1.2552792 -0.25239557 0.1799589 -1.2304114 -0.25797758 0.03500916 0.49741444 -1.0704004 0.4470611 0.5271344 0.7500687 -0.1187421 -1.3178848 -0.64930826 -0.56681025 -0.2512077 -0.6769317 0.72660303 0.12084311 1.2259105 -0.31457713 -0.7630568 0.5140617 0.022733828 -0.16054349 0.5719113 0.025654359 0.13918476 0.17410001 -0.4074116 0.3824389 -0.65211457 0.29529434 0.013963892
book -1.9535292 -0.55919474 -0.64542025 -0.058020577 -1.108923 0.30544978 -1.0166287 1.8616662 0.68132794 0.076574095 0.49404383 0.60584444 -0.30950758 -0.74406636 -0.35687256 1.1477002 0.45857528 1.2298744 -1.1430321 -0.91934365 0.78257436 -0.17115194 0.30546793 -0.31478298 -1.4885983 -0.11599288 0.41497216 -0.71882236 -1.2762644 0.8882698 -0.004354636 0.033247728 1.3799591 0.7634239 -0.627884 -0.1786762 0.81066865 -0.9926331 0.8564359 0.21925814 -0.5550256 1.014848 -0.61267394 0.21437418 -0.43588272 0.6861414 -0.8313078 -0.3549159 0.5301151 -1.0537602
enough -0.05681262 0.37785804 -0.43301612 -0.8563689 0.6146082 -0.45117325 0.9467309 -0.5995102 -0.10669438 0.14472757 0.20870651 -0.34890223 -0.12087843 0.87161255 0.12203751 -0.6718043 -0.5717207 -1.1153482 -0.79982805 0.3018833 -0.6274122 0.5994117 1.0555342 0.18785557 -0.79491377 0.5545956 0.14043222 -0.51506793 -0.69082683 -0.14823042 0.77816856 -0.5746635 0.061038822 0.059924643 0.16859949 -0.799007 0.27048025 1.11122 0.5180223 -1.2543058 0.26185375 -0.825599 0.05845196 -0.5598434 0.58128464 0.4478592 0.34489715 -0.29614058 -0.13905852 -0.74445915
