4703 50
go -0.010733372 0.098111354 -0.5941091 -0.087776914 -0.04645843 0.021850431 -0.5494621 0.034287155 -0.24286917 -0.7015535 -0.062019046 0.39491218 0.5028276 0.36320767 0.15876155 -0.29660794 0.19012178 0.30085582 0.20418547 0.18527414 -0.26146504 -0.22730325 0.30370474 -0.88292134 -0.101361565 -0.1322682 0.5217596 -0.081672885 0.2721063 0.05314135 -0.3227142 0.12927991 -0.51595676 0.23139867 -0.13014133 -0.1456505 -0.3053151 -0.054961707 0.15355606 -0.5671177 -0.09320307 0.11199276 -0.17915508 0.15025775 0.09972851 -0.22339812 0.84462124 0.14710575 0.26063234 0.66192555
one 0.403997 -0.5588897 -0.18216713 -0.37580073 0.24089871 -0.082413875 0.08151717 0.029751 0.13660944 -0.04079134 -0.7371039 -0.084370226 -0.2936139 -0.19979309 -0.12334785 -0.1611214 -0.4728313 0.094174206 -0.1740046 -0.055724796 -0.8819296 -0.20422494 -0.44843495 -0.1716111 -0.31012803 -0.60090446 -0.3705925 -0.047362708 -0.051520847 -0.008798775 0.054508723 0.19256358 -0.06815416 -0.4089073 0.52615833 0.025323242 0.22715817 -0.001598799 0.1665382 -0.5578534 0.028008277 0.040592343 -0.19363065 0.16336979 -0.20922069 -0.27241465 0.28067717 -0.35704792 -0.25368783 -0.14101103
get 0.27996367 0.017048031 -0.86386526 -0.3493834 -0.0003732013 -0.1583188 -0.05348929 -0.1886899 -0.049244203 -0.14682484 0.006486148 0.40325904 0.340582 0.60296685 0.15907893 -0.80615336 0.47082394 -0.32176286 0.20459458 0.027988102 0.011746748 -0.24316151 0.4942165 -0.4321994 -0.3630853 -0.35332507 0.24235216 0.16692579 0.2473946 0.34972313 0.1597869 -0.03646126 -0.521319 -0.2738646 -0.027713636 -0.41029677 0.18679239 -0.12731919 -0.12594351 -0.4245012 0.4296772 0.644295 -0.15409945 0.13746282 -0.23861133 0.27741265 1.3171865 0.08232759 -0.0865867 0.41878983
like 0.18581474 0.41485038 -0.49701333 0.45661557 0.070265874 0.5011038 0.30676767 0.5554576 0.2634924 -0.035109017 -0.32825744 0.24696411 0.21940514 0.16536401 0.26881412 0.003408528 -0.38633764 -0.15031439 -0.26361066 -0.0012577868 0.33257648 -0.38538894 0.117946446 0.0009386386 -0.13711552 -0.3517042 0.2252722 -0.0815253 -0.49006966 0.24485926 -0.19541964 -0.03780192 -0.068544604 -0.028959088 -0.0383322 -0.20930505 0.1424606 0.0058676684 -0.36677992 -0.018471295 0.16163449 -0.23542102 -0.5633445 0.43688938 -0.18417382 -0.21622199 0.2632383 0.20699356 -0.377727 0.6902403
people -0.85103595 -0.23567313 -0.4201937 -0.711941 -0.049863864 -0.27448496 -0.15653302 0.007101265 -0.3132682 0.2868397 0.17145698 0.42315516 -0.7029196 0.020155102 -0.9352209 -0.5555309 0.24884953 -0.301766 -0.4614315 0.2958954 0.24624859 0.343138 -0.7363108 0.08183201 -0.43045428 0.9318289 -0.5614773 -0.88195217 -0.14765742 0.09788674 -0.19183144 0.2730675 -0.5552404 0.5340988 -0.011037104 -0.43814978 0.665535 0.47755042 0.4174768 0.17831858 -0.12785244 -0.031077333 -0.19962586 -0.19205019 -0.24885124 0.61590314 0.01749941 0.6909453 -0.12142436 -0.90677464
say -0.16531254 0.5280485 -1.0397432 -0.054025292 0.1565286 0.33402967 0.5074992 0.3750838 0.26629037 0.23920597 -0.2832127 0.5160252 0.46039647 0.4446637 -0.6049316 0.77666146 0.1821782 -0.9201593 0.6152735 0.17886463 -0.2235649 0.52629703 0.30219486 -0.8554019 -0.38916725 -0.3882323 -0.13159816 -0.14661965 -0.358109 0.29253143 -0.42051977 0.78300244 -0.73430216 0.08209445 0.25708273 0.47590715 -0.2675509 0.5215605 -0.39301836 -0.3882464 0.071179256 0.40515107 -0.29036644 0.1117394 0.04057909 0.214955 0.17954262 -0.24598183 0.027306456 0.47471464
think -0.6043565 -0.03961911 -0.62540066 0.15471296 0.41222864 0.2157566 0.41178784 0.5235531 -0.15217933 -0.18958795 0.74609524 0.31724155 0.22904542 0.23441438 0.13751307 0.22838463 -0.08259814 -0.38970122 0.53379685 -0.2717934 0.48628253 0.2260055 -0.108866334 0.32257372 -0.33525342 -0.4559297 -0.6428139 -0.5050431 -0.31352067 -0.45495558 0.15527707 0.2164471 -0.44378856 -0.07373917 0.26900533 0.07671998 0.43285948 0.41364762 -0.35107476 0.18323785 0.23222618 -0.21424203 0.1878054 0.32784286 0.30629894 -0.53568095 -0.16477889 0.089861676 -0.50881726 -0.16749518
know -0.051997814 0.054604482 -0.3816715 0.10714221 0.17197493 0.06279461 0.21112259 0.08034964 0.12595353 0.050731022 -0.2285835 0.31325677 0.21916883 0.15108998 -0.05628055 0.0101243425 -0.09415152 -0.61307746 0.5066383 -0.16365388 0.43910483 0.38404652 0.18740696 -0.31377319 -0.15520942 -0.4808646 -0.39009595 -0.501064 -0.3892124 0.122323185 0.09086902 0.42151415 -0.79545903 0.22569753 0.010602485 0.045670617 0.110178 0.1736317 -0.108612366 0.03469429 0.28848928 -0.044014193 -0.15558502 -0.018812785 -0.10739526 -0.14174919 0.36310184 0.20399249 -0.38569897 0.4500422
would -0.24556938 0.46226618 -0.36622855 -0.22021888 0.07835156 0.024908872 -0.2305569 0.2604138 0.022796515 0.08794055 -0.034386426 0.39696994 0.22525506 0.13833763 -0.12569149 -0.23704845 -0.08527008 -0.49048382 0.39840782 0.13114226 -0.06565581 0.08377957 0.06003422 -0.35835385 0.14653113 -0.25224605 -0.03894749 -0.36283886 0.1863167 0.520362 0.015951632 0.3234684 -0.32152402 0.014408155 0.07296874 0.25021204 0.49202344 0.22649051 0.0315773 -0.4884864 -0.16794679 0.26157534 -0.5583941 -0.13355498 0.31735292 0.13035543 0.6215025 -0.019577209 0.3396064 0.20851746
see 0.26019573 0.58574885 0.0786513 -0.2761997 0.31744564 0.09508505 0.3051537 0.4214784 -0.16196558 -0.557815 -0.4109917 -0.027814105 0.090146974 -0.014946471 0.4722947 -0.43997905 -0.61923176 0.80151623 -0.8504675 -0.43000147 0.2976128 -0.3167447 0.5966958 -0.48215574 -0.4304734 -0.65798235 0.16587642 0.20466167 -0.4092034 0.050086003 -0.1293156 -0.17141972 -0.12026883 0.55219483 0.1409551 -0.27604964 0.15271136 -0.09953003 -0.028806472 0.098329835 0.38260323 -0.32177168 -0.41258967 -0.2400149 -0.099277556 -0.8285815 0.026020192 -0.32876545 -0.062350567 0.7275213
make -0.29061547 -0.057931818 -0.23863015 -0.105683275 0.6928728 0.38600674 -0.03538865 0.2250548 -0.49513483 0.20827602 -0.17392977 -0.6508805 0.2723876 0.1471814 0.9755253 -0.34702158 0.79359484 -0.08501168 0.57799935 -0.12671292 0.7984125 -0.6883757 0.31559667 0.37088034 -0.4446231 -0.37712958 -0.3758733 0.18397523 0.061642554 0.4664769 0.20297539 0.24271828 -0.12997937 -0.068980075 0.0672328 0.1451179 0.9869831 -0.29309916 -0.4107878 -0.2041369 -0.01952887 0.12061609 -0.26731923 0.64313835 0.35128683 0.08432974 0.49369243 0.09146802 -1.033656 0.24637294
thing -0.17624927 -0.22892642 -0.12068401 0.05710757 0.05494928 0.2192052 0.38563704 0.47547963 -0.3011168 -0.18226315 1.0973504 -0.43863615 0.24415284 0.031011865 0.5446571 -0.20173156 -0.4472218 -0.42364708 0.47477615 -0.51698434 0.5753886 -0.20236339 0.018066771 0.4003835 -0.6795308 -0.5102557 -0.35432902 -0.8623687 -0.015058752 -0.34593132 0.3746327 -0.3284026 0.17551287 -0.44785058 0.46680892 -0.02158473 0.6895611 0.5000344 -0.29075003 -0.31899607 -0.018522508 0.26888782 0.010508869 -0.68293023 0.1535305 -0.22401014 -0.027209556 -0.106837474 -0.33295137 -0.22163175
us -0.4330397 0.36481646 0.63306904 -0.13247062 -0.41129068 -0.09751211 -0.19711207 0.16560674 -0.9124783 -0.03494025 0.96314317 0.3229495 0.44538695 1.2476877 0.43263683 0.09607608 -0.2152141 0.11068879 0.36640376 -0.12949657 0.28574884 -0.3050574 -0.47505248 -0.103121705 -0.19514345 0.3389586 -0.23977245 -0.5070994 0.031468324 -0.13269238 -0.086097166 0.15004158 -0.4475683 0.76429445 -0.024922969 0.33130214 0.4410669 0.6711807 -0.81742024 -0.3884298 -0.13945161 -0.5788178 -0.06536732 -0.06613153 0.014638663 -0.34790403 -0.089827195 -0.026658928 -0.096225806 -0.7351589
year -0.6003919 -0.09200217 -0.9896064 -1.21247 -0.25558817 -0.48319018 -1.0398332 0.19459069 0.27702686 -0.31807178 -2.2280033 -0.7455354 -0.93294126 -0.11352249 -1.6384523 -0.9406927 0.103465274 0.07701282 0.7436687 0.538868 -3.066058 0.054169606 -0.49516404 -0.55439043 -0.63332987 0.3291171 0.33672404 -1.5138043 0.56731015 -0.27973446 -0.012946411 -0.9281575 -0.72109824 -0.073982134 -0.9652881 0.39388072 -0.6185135 -0.48719963 2.4666908 0.19851339 -0.29879335 0.26427057 1.3264182 0.3653117 -0.322744 -0.12997383 -0.083271444 0.17945918 0.63497514 0.26444027
time -0.010254851 0.1264346 -0.2015186 -0.7026206 0.5292454 0.028930876 -0.6936203 0.16339022 -0.336532 -0.834296 -0.37318766 -0.23345774 -0.33478248 0.20507726 -0.23191336 -0.67045534 -0.12996347 0.26959464 0.4668177 -0.20667857 -1.2196285 -0.23227611 -0.07276266 0.060417987 -0.32689115 -0.06112982 -0.050826196 -0.40015563 0.052150242 0.25489274 0.45701736 -0.3013503 -0.27559638 -0.04555338 0.068464816 -0.3031362 -0.121778 -0.21167614 0.86709416 0.07055613 -0.2441299 -0.073533304 0.115558036 -0.29838166 0.42659968 0.3013918 0.7354223 0.3224457 0.471878 -0.3645715
look -0.05908729 0.21907432 0.065517336 0.060238708 0.33882692 -0.043112777 0.4389498 0.42500493 -0.071295686 -0.4736049 -0.19203705 0.04488519 -0.18142751 0.31170318 0.6159415 0.008443041 -1.1178389 0.54063404 -0.4154069 -0.20223375 0.2728042 -0.6093977 0.7287383 -0.7231813 -0.4096435 -0.74116826 -0.042765144 0.05019731 -0.53812927 0.03813406 -0.73617405 0.027003922 -0.18216915 0.47183216 0.04811594 -0.31975254 -0.037193704 -0.17551513 -0.049332224 -0.14112596 0.35445794 -0.1369946 -0.17267115 -0.005855817 0.042880755 -0.8414465 -0.022460729 -0.32981905 -0.51133215 0.797413
want -0.4292926 0.12215353 -0.22382021 0.049239706 -0.29207352 0.24445625 0.27632925 0.22324641 -0.17053519 0.011641135 0.04178134 0.53953135 0.10750926 0.36640173 0.17284866 0.10398518 0.07615145 -0.16927506 0.31275886 0.4229239 0.21046336 0.03396463 -0.1351813 -0.23274924 -0.17880695 -0.072186224 0.18701498 -0.6891523 0.16734512 0.10759052 -0.07327018 0.8045732 -0.4632223 0.24702732 0.106944636 0.2502925 0.5805986 0.61670166 -0.9257678 -0.43689284 -0.27560377 0.15581767 -0.27172053 0.015421404 0.30083928 -0.13020836 0.705109 0.13905533 0.058782093 -0.56391144
really -0.15698877 -0.22941129 -0.23050572 0.5439083 0.5080494 0.09497463 0.6977498 0.6072897 -0.09922251 -0.2617128 0.9902399 0.1572036 0.16052347 0.52382654 1.0397743 -0.37136158 0.24931344 -0.1284406 0.43929002 -0.26398417 0.79571027 -0.24628566 0.2183054 0.42673397 -0.7842309 -0.53004354 -0.5309509 -0.9928615 -0.19159698 -0.49763948 0.5407774 -0.031241816 -0.32429582 -0.317942 0.20498644 0.3857834 0.5096839 0.305719 -0.40924385 -0.45511416 0.04801097 0.34738347 0.38485003 -0.24586314 0.2447314 -0.06528248 -0.09696902 0.1941104 -0.41567883 -0.3064623
take 0.004921243 -0.09984667 -0.28939277 -0.68913746 0.48815644 0.1677159 -0.6534396 0.04265474 -0.36502036 -0.78203166 -0.11926954 0.18746543 0.0038471397 0.33706287 0.675593 -0.48076138 -0.16596451 0.43556267 0.045688245 0.117569454 -0.8269224 -0.45091215 0.1697546 -0.932384 0.6728219 -0.027858682 0.31201866 0.22813998 -0.12165149 0.26681206 -0.36388823 0.025606113 -0.2537741 0.14921084 0.10098974 0.5479041 0.24952707 -0.15780732 -0.2275436 -0.26307538 0.26724425 0.42889082 -0.13612568 0.3766742 -0.3401128 -0.18683136 0.56768644 0.34231475 -0.6290777 0.49172917
come 0.15889715 0.39599925 -0.38109493 0.23975849 0.11454863 0.0863262 -0.30609205 0.32430354 -0.21864706 -0.6578436 -0.41539228 0.82046 0.5515493 0.010712205 -0.43292794 -0.30428627 0.15746501 0.24707726 -0.31175226 0.09597198 -0.12788698 -0.13940409 0.098086566 -0.6814832 0.3333447 -0.05903499 0.29868037 0.08289226 -0.027087973 -0.17946132 -0.61073333 0.0877093 -0.3405319 0.30559352 0.41550818 0.14375843 -0.28822255 -0.02443179 -0.21310212 -0.4594551 0.033668812 0.24654506 0.3136359 0.3589477 -0.4827648 -0.38673428 0.22048265 -0.12923692 -0.13075772 0.42594308
way -0.7393175 -0.028823674 0.4747831 0.0940709 -0.09377276 -0.39552134 0.1467541 0.49860808 -0.52464867 -0.30476388 1.1287771 -0.024376804 0.20736516 -0.0676014 0.46789476 -0.37575996 -0.16350874 0.031832915 -0.0035212417 -0.4039331 1.0181463 -0.31471407 -0.550374 0.50868493 -0.2723157 -0.0010335206 -0.16142371 -0.081640944 0.19640554 -0.70460594 -0.3166027 -0.3793944 0.22240198 0.35290718 -0.10331549 -0.15187965 0.68442965 0.5901348 -0.22664975 -0.011106928 -0.3138679 -0.15196432 -0.25096855 -0.11719894 0.2018295 0.10652552 0.22613232 -0.08046851 -0.23150545 -0.4553181
work -0.28299683 -0.04960676 -0.1079024 0.2791104 0.37236342 0.113727085 0.23478009 0.025242457 -0.15735018 -0.44202948 -0.020771367 0.11349243 -0.34667465 0.10583884 0.5889539 -0.27463952 0.9768747 0.27216086 0.19727668 0.253815 0.29923964 0.32809183 -0.16366947 -0.3374883 -0.22981445 0.13604778 -0.15047543 -0.20529512 0.465554 -0.67753947 -0.6248237 -0.02691131 -0.1652258 -0.12887417 -0.27776843 0.2842362 0.28763086 0.56975144 -0.26144716 0.2626044 -0.73889637 0.24351457 1.1636145 0.49356732 -0.33177102 0.17963417 0.5709756 0.4807239 -0.6119884 0.16140252
well -0.48430347 -0.08905779 -0.21870817 0.16508259 0.36683184 -0.27036244 0.44241667 -0.030824937 0.1248251 0.19284426 0.35186377 0.2818544 0.21011424 0.13890763 0.4762791 -0.011209415 -0.039512448 -0.4419184 0.12912641 0.19238661 0.3347553 0.16667566 0.01632324 -0.09138642 -0.09253583 -0.3912818 -0.5353915 -0.12525451 -0.22938554 -0.108793855 0.14753705 -0.016942838 -0.5706549 0.0071838098 -0.15949258 0.024610508 0.07275598 0.33931208 -0.061354473 0.15766655 -0.3265195 0.014264734 0.10026408 0.31519774 0.25008264 0.23940854 0.52370405 -0.14630304 -0.32751888 -0.06480385
world -0.7436102 0.0077003436 0.21873869 -0.025284305 -0.04792845 -0.29681093 -1.1157792 0.043911517 -0.45684296 -0.18588531 0.019503888 0.2461899 0.18765594 -0.31379426 0.6053265 -0.10221313 0.38134128 0.81824595 -0.4169092 -0.59136164 0.7399533 -0.14946379 -0.5312907 0.5991321 -0.965362 0.8674282 -0.5967093 -0.82730347 -0.012977808 -1.0764351 -0.35195416 0.1864897 0.5009565 1.0226104 0.6253328 -0.52717274 -0.012450741 0.41308805 0.55522805 0.54425097 -0.10161131 -0.9758053 0.33441594 0.17196244 -0.5020726 0.058295388 -0.26354566 0.7793059 0.1316885 -0.7167472
use 0.02671694 -0.085241385 0.048515562 -0.21948768 -0.43739784 -0.052298937 -0.16545561 0.007733208 -0.8214552 0.0233328 -0.18338609 -0.5748863 0.22123769 -0.115482256 1.3348032 -0.92103297 -0.14240603 0.067490436 -0.070023485 -0.18845986 0.73301536 -0.69190675 -0.03445156 -0.28286418 -0.3648817 0.36977828 -0.147865 0.4142361 0.12538505 -0.6330275 -0.6125202 -0.7295071 0.74320936 -0.3922261 -0.44812065 0.24623616 0.18090612 0.26156396 -0.9663331 0.94058144 -0.12738323 0.03382585 -0.26069847 1.074568 -0.11642595 1.0663017 0.9133821 -0.40726137 -1.2407926 0.62492126
could -0.4244282 0.4622864 -0.02807505 -0.2764022 -0.015093129 -0.27525747 -0.24539073 0.17275363 -0.43728268 0.2565307 0.08852213 0.26854178 -0.010134096 0.32972074 0.40681842 -0.76034963 -0.11849392 -0.114571705 0.6064646 -0.3372715 0.36021796 0.0055949716 0.35340807 -0.2549202 0.07318904 -0.11204402 0.17691803 -0.20116347 0.35943827 0.14436737 -0.028338661 -0.40893826 0.07982358 -0.0110405795 0.048300646 0.34394976 0.8140549 -0.010898109 -0.07514957 -0.3272801 0.075137064 -0.46998435 -0.77657986 -0.18901016 0.2910401 0.24094972 1.1829981 -0.025576545 -0.09281203 -0.07520234
actually -0.17547347 -0.29487303 0.28290966 0.15171205 0.37847552 -0.10930113 0.22444901 0.13369702 -0.19358677 -0.19746502 0.4516823 -0.027444836 0.014764058 0.14121704 0.7334083 -0.7017597 -0.37747893 0.053986583 -0.29230684 -0.07495505 0.29065475 -0.39767876 -0.116880484 -0.12864985 -0.2776701 -0.4191887 0.070789 0.12427369 0.3135211 0.015416398 0.06450402 -0.28191254 0.05505472 -0.3293734 -0.47122186 0.2356142 0.32676896 -0.0867727 0.02554894 -0.06993117 -0.17925103 -0.26070178 -0.24531977 -0.15965241 0.032203835 0.29951903 0.32048944 -0.1353234 -0.6675527 0.27069178
right 0.112528816 -0.25097194 -0.3344874 -0.22521922 0.23555832 -0.5960285 -0.17848445 0.36548737 0.64674723 -0.27217802 0.28735006 0.33322415 0.5760195 0.14733519 0.38741472 0.12307445 0.17847928 0.14625047 -0.58043927 0.15975933 0.17155646 -0.26073658 -0.23057188 -0.43307975 -0.38041174 -0.4818097 0.3243095 0.67558146 -0.028109469 0.33560523 -0.41461065 0.35686222 0.07758955 0.5801587 0.2277784 -0.43824655 0.21976155 0.18068568 -0.4351885 -0.15406404 0.8303334 -0.23940054 -0.13570717 -0.09423247 -0.33474517 -0.14218348 0.15576527 0.10009346 0.016625332 0.28806573
start 0.33496046 0.19625577 -0.6960275 0.35132408 -0.23097637 -0.015929457 0.10229873 0.55727303 -0.47824597 -0.8829418 -0.3170594 0.46562493 0.3288337 0.41150287 0.075663544 -0.40543517 0.28725165 0.42445695 -0.40978777 0.16827132 -0.16398871 -0.33148974 -0.3372314 -0.46264365 -0.4252498 -0.15643406 0.3716361 -0.25317454 0.4605373 0.06984363 -0.4577931 -0.54719746 -0.028591136 -0.264432 -0.39035964 0.40069133 -0.038882557 0.29347777 0.17784841 -0.30888683 -0.10313211 -0.13587372 0.64220107 0.2432861 0.11319777 0.024477933 0.4016654 -0.044960726 -0.0013053512 0.15011267
life -0.005552968 -0.48994696 0.8512706 -0.03552937 0.94059306 -0.49505964 -0.75115824 -0.5311112 -0.33743238 -0.24734242 0.10564214 -0.16639842 0.019369198 0.3671088 -0.6198454 -1.3675907 -0.18907577 -0.1745848 0.9859282 -0.43834934 -0.09352813 0.008843272 0.10466594 1.1090962 0.14394331 0.28573623 -0.51636565 -1.151269 -0.75422925 -0.011213209 0.36189505 0.056312468 0.07789154 0.67541474 0.447006 0.32073835 1.004803 -0.015645213 -0.2694517 0.15665868 -0.50136715 -0.4467712 0.66724277 -0.3859479 0.94704753 -0.9434164 0.4123484 1.1951426 0.547908 -1.5773027
first -0.05730832 0.007854862 -0.31368077 0.23946603 0.17465046 0.14837329 0.04179797 0.23667525 0.007127025 -0.67840993 -0.8797346 0.11706713 -0.01276338 0.0025653297 0.005189513 -0.5935055 0.06753074 -0.17090274 -0.08787805 0.53790283 -1.1285903 0.2013026 -0.22492604 -0.72610265 0.33759347 -0.5590285 0.09069672 -0.3578885 0.256546 -0.17838235 -0.15978096 0.09826838 -0.027880143 -0.2715595 -0.25566322 0.6270155 -0.21351632 0.10592731 -0.097771354 -0.19435138 -0.028640486 -0.20973021 -0.16281624 0.31855384 -0.334244 -0.13428432 -0.13780427 -0.3752303 0.15270999 -0.1013727
two 0.7668323 -0.39621067 -0.59252757 -0.9139873 0.12192122 -0.5004843 -0.7565497 0.4354901 0.16970561 -0.7650298 -1.2258574 -0.13028888 -0.43286827 -0.3933834 -0.14060554 -0.58487767 -0.60645956 0.21611583 -0.61233044 0.026878793 -2.1894338 -0.49856722 -0.7256715 0.08983999 -0.34555447 -0.5505296 -0.5597565 0.50047827 0.27549317 -0.32393754 0.02906997 0.14349195 0.016343206 -0.37520435 0.1734899 0.07103936 0.20566718 0.15204597 0.8070751 -0.66807425 -0.21539178 0.41281134 -0.25415453 0.36796892 -0.26406208 -0.042636976 0.41327068 -0.29147637 -0.04079264 0.26581895
something -0.37256408 -0.12095797 -0.07350565 0.13615553 0.047360033 0.28207326 0.4488019 0.45021546 -0.22067589 0.24844217 0.79893863 -0.24961962 0.19260356 0.23704107 0.20041642 -0.008916865 -0.3824747 -0.33714598 0.5254646 -0.3838085 0.48904094 0.19008404 0.028750755 0.3126848 -0.5249824 -0.6566012 0.15203062 -0.8182133 0.24865365 -0.24567126 0.3524283 -0.0944816 -0.0064344616 0.007426718 0.51939684 0.4205454 1.0755968 0.42513412 -0.32660416 -0.51579523 0.22580032 -0.05716493 -0.061693676 -0.38198286 0.4379314 0.03420715 -0.09881712 0.28683376 -0.31332242 -0.332716
good -0.15525617 -0.447238 -0.22869453 0.26115808 0.7911716 0.10139408 0.62532717 -0.37404585 -0.0031477723 0.32612595 0.47715536 0.4060681 0.5726253 -0.41797152 0.3435795 -0.08907436 0.8584701 -0.63726926 0.38316128 0.7025553 0.9205523 0.0791888 0.6138369 -0.14427714 -0.09306095 -0.1913691 -0.9388608 0.106767476 0.10836458 0.0047964477 0.2327044 0.7342073 -0.9043985 -0.83754677 0.39826655 0.16364956 -0.23762414 0.6576915 -0.4013421 0.3195994 -0.29485887 -0.10630869 0.11780009 0.6051345 0.18549363 0.1528583 1.0767317 -0.20187612 -0.485469 -0.9047295
call 0.41126034 0.22400793 -0.51690805 0.67243457 0.4068775 0.5423612 0.5123014 0.08062411 0.036833663 -0.14524548 -1.1492149 -0.2014822 -0.035593264 -0.18123648 0.24810831 -0.0047716643 -0.10993228 0.045959894 -0.43546423 0.28430828 0.07715539 0.28870463 -0.87838155 -0.44835752 0.11886767 -0.03592097 0.7118084 0.42305145 0.17026669 -0.29183608 -0.75659114 -0.1623947 -0.06193276 -0.117113434 0.10611543 0.47911114 -0.65873307 0.03596443 -0.7143966 0.26760224 0.027487786 -0.2428095 0.23681387 0.77159774 -0.8857869 0.04478224 -0.5567195 -0.34790972 -1.023898 0.93292034
need -0.4365156 0.15574044 0.19979924 -0.05699731 0.19366296 -0.9792411 -0.16817166 -0.7493995 -0.5627553 0.22429797 0.8881864 0.9596045 0.58963287 0.655276 0.8458096 -0.41987607 0.6707698 -0.079327986 0.57047987 0.078453414 0.42558303 -0.39849752 -0.45006767 0.44681996 -0.0057166377 0.1159752 -0.4153101 0.25602573 0.3170019 -0.69791627 -0.017744979 0.040082257 0.112998694 0.3386212 -0.2560796 0.026247786 0.9496426 0.37349746 -0.8696022 0.3693777 -0.037249718 0.056537256 0.60828596 0.3352006 -0.11737302 0.9358381 1.0655599 0.17398511 -0.46299234 -0.6492591
much -0.87033004 -0.087178685 -0.17053564 -0.018646257 0.9232777 -0.3133492 -0.1840306 0.2422969 0.14141747 0.44355142 0.40183687 -0.4133594 0.6321118 0.27484673 0.7141998 -0.33640212 -0.052663773 -0.23574576 0.42288566 -0.109503485 0.31588662 -0.76770294 0.428825 0.48350865 -0.36984965 -0.14061072 -0.54195803 -0.039353956 -0.4052969 -0.19853021 1.0942296 -0.19626376 -0.90704423 0.28116977 0.126078 -0.29528278 -0.15251388 -0.18302925 0.065736264 0.37321404 -0.25172478 0.16439044 0.3930377 -0.37734458 0.6719571 1.175557 0.7285535 0.5487543 -0.12958835 0.02157099
tell 0.12802537 0.36734736 -0.32380384 -0.25386298 -0.18874773 0.63320243 0.3739892 0.2597541 -0.36475188 -0.14169116 -0.35805297 0.5860056 -0.053173758 0.7307691 -0.4298495 0.099314176 -0.13043754 -0.47045252 0.29658833 -0.092536345 -0.17565455 0.22533661 0.40013564 -0.8562466 0.10121825 -0.6684371 -0.3746034 -0.47637996 -0.41299772 -0.3269261 0.109987855 0.97858 -0.9977455 0.21982668 0.0014387061 0.5680753 0.28293842 0.54121226 -0.47356728 0.15432028 -0.16618226 -0.21805336 0.27942923 0.19200253 -0.009701156 -0.4630163 0.29151633 -0.06724849 -0.14489183 0.30448452
find -0.038629156 -0.403819 0.34035712 -0.05032998 0.16002217 0.035439376 0.5778608 0.19570939 -0.7630929 0.24256136 -0.23594609 0.22950023 0.1305982 -0.22362535 -0.20598905 -0.75726414 -0.100263864 0.110634476 -0.08306244 -0.2339974 0.3897961 -0.05357043 0.6454957 -0.46466348 -0.25868875 -0.26988363 -0.046942852 -0.19780876 -0.10581227 -0.48579732 -0.03967156 -0.16563576 -0.13498934 0.22994182 0.040165376 0.4121404 0.3454433 -0.15751319 0.35280848 0.12021309 -0.030240864 -0.1243711 0.11797289 0.22037874 -0.31502128 -0.10457091 0.1316953 -0.24212384 -1.2260398 0.9472068
also -0.013848515 -0.045148414 0.31505954 0.062266663 0.5231244 -0.48111597 0.39955127 -0.049243502 -0.22342902 0.057924885 0.56557685 0.08299686 0.026491147 -0.07664143 0.5798974 -0.51090837 0.22751732 -0.07363202 -0.69826204 -0.22594965 0.8501381 -0.5019474 -0.31748396 0.5347221 -0.00029266812 0.03418222 -0.28700864 -0.21383174 -0.30564722 -0.72269315 0.31119686 -0.1387974 0.03404189 -0.011571037 0.13820072 0.1949171 0.25364068 0.34829867 -0.5872376 0.24788292 -0.32502404 -0.401373 0.28623724 0.42916223 -0.16313599 0.492885 -0.2332445 0.3796826 -0.58725816 -0.07238357
give -0.57630396 -0.5656251 -0.38391715 -0.5710284 0.20598643 0.25662988 -0.042237785 -0.51917523 -0.86941504 -0.22609784 -0.43950006 -0.34158352 0.4828471 0.46069583 0.11283886 -0.4645868 0.10689669 -0.34887648 -0.01656347 0.68225676 -0.39414132 -0.0878288 0.27607757 -0.3703329 0.295965 -0.38309667 -0.8823302 0.25154254 -0.2874403 0.51527077 -0.02696597 0.12456796 -0.19873181 0.2411427 0.6465059 0.5806925 0.79558766 0.27306697 -1.3339746 0.012168151 -0.12454301 0.25587407 0.3086359 0.7864768 -0.045179434 0.31648245 0.8042272 -0.4169674 -0.17538445 0.3687806
even -0.27429315 0.24433787 -0.1910107 -0.2628397 0.38271374 -0.603163 0.109448574 0.21351558 -0.22619826 0.40150082 0.37226263 0.015623763 -0.08870459 0.106330216 0.05239292 -0.44852266 0.18670672 -0.66391444 0.32616806 -0.0821445 0.19428915 0.07001522 0.27026275 -0.07626779 -0.050082173 -0.55949885 -0.23403718 -0.2800708 -0.37272373 -0.073853195 0.10152782 0.31294647 -0.25442106 0.23035166 -0.100155056 -0.1697948 0.22371264 -0.1793835 0.24303198 0.65723896 0.42659837 -0.33140388 -0.30697176 -0.28670534 0.015967937 0.09851557 -0.025915774 0.27437195 -0.15718828 0.19532499
back 0.31915954 0.9202024 -0.10106821 0.037465002 -0.051286183 -0.04027771 -0.8430659 0.36597833 0.019889813 -0.5469136 -0.06267416 0.7178513 0.5135228 0.5658761 -0.29304248 -0.6128613 -0.25033224 0.4560233 -0.09660436 0.25256097 -0.850072 -0.5144504 0.114901595 -1.3191023 0.033670537 -0.116917886 0.93290263 0.5155219 0.2159239 0.5961586 -0.771758 -0.39144874 -0.087098055 0.2017996 -0.07567793 0.01921258 -0.6214243 -0.035441197 -0.033389043 -0.87470335 0.10734859 0.2891608 0.17186601 0.07357076 0.13801646 -0.36876467 0.5741787 -0.03401144 0.674652 0.3806498
lot 0.051527023 0.0061843423 -0.6989735 0.018562663 0.3734306 0.2591401 0.074253984 -0.4234169 -0.20261337 -0.45244125 0.4055897 0.32426786 -0.16597763 -0.16555418 0.29514626 -0.41842324 -0.24888775 -0.55249137 -0.3536046 0.11808302 0.65035826 -0.47092122 0.24488208 0.6135051 -0.92819583 0.07361635 -0.7567634 -0.33759895 -0.11705886 -0.3249602 0.4734308 -0.4716237 -1.1012124 -0.52680546 0.055619698 -0.11004471 0.19879478 -0.108312115 -0.3748722 0.2457987 -0.5147365 0.45758322 0.43319815 0.30728713 0.006243908 0.6027934 0.4380189 0.8432972 -0.5306393 0.47911966
little 0.02232809 0.56865287 -0.19410273 0.54412335 -0.9877992 0.42042065 -0.009939531 0.67612875 0.40639555 -0.60787785 0.05897774 -0.531184 -0.13279161 1.1037791 0.8045107 -0.6211353 -0.25172958 0.18646756 -0.19048245 0.19137588 -0.2294092 -0.93448234 0.05528165 -0.15954408 -0.8553857 -1.49242 -0.43221205 0.39932653 -0.90671945 0.81781834 0.18498349 -0.75798535 -0.7719585 -0.14272825 0.67868346 -0.011506287 -0.1175171 -0.55185795 -0.9348997 -0.63825595 0.14629343 0.8064724 -0.44797832 -0.21241717 -0.12874201 -0.48800224 1.1928374 0.41526303 -0.0076742754 1.2515178
kind 0.022930147 -0.030622633 0.099000566 0.5436293 0.20845559 0.1999903 0.66623676 0.41245908 -0.23816118 -0.82077605 0.5213378 0.0010670914 0.18853025 -0.1178247 0.5387001 -0.50557023 -0.20593224 -0.30089176 -0.34509528 -0.029998234 1.168389 -0.22007783 -0.34481853 0.5988807 -0.68359816 -0.60972095 -0.2804561 0.09090014 -0.036488593 0.046086296 0.2150313 -0.26193592 0.3995993 -0.09398628 0.2655541 -0.14535835 0.42035708 0.3443701 -1.0601159 0.21793672 0.0131917475 0.010502608 -0.08250485 0.25350764 0.10297419 -0.36649442 -0.051577054 0.13954203 -0.71172833 0.14342237
talk -0.25221485 0.20191732 -1.0219587 -0.1476531 0.10355265 0.97790116 0.3075027 0.10415829 -0.10402675 -0.7233509 0.051043104 0.5160562 0.15759099 0.29068097 -0.048563626 0.23886168 -0.07331012 -0.52712893 -0.22388108 0.1478983 -0.34359598 0.16111493 -0.32060543 0.27320078 -0.01907003 -0.33154714 -0.33936885 -0.6182548 -0.42591006 -0.72480965 -0.03856087 0.7278215 -0.8234464 0.022365855 0.49888065 0.26259744 -0.07611988 0.53406554 -0.8454944 0.22438616 -0.31459352 -0.14684333 0.64816684 0.14316602 -0.20364079 0.16689281 -0.30549172 -0.040128984 -0.10568066 0.16435546
many -0.35575578 -0.2973426 -0.2711828 -0.18117295 0.15907979 -0.25899047 -0.19998427 0.116144866 -0.15288275 -0.20462134 -0.09379007 0.84802973 -0.714957 -0.36725825 -0.3446912 -0.6354822 -0.20719628 -0.2157557 -0.57525307 -0.08490372 -0.11275177 0.1415136 -0.76519215 0.1871426 -0.011155873 -0.14849602 -0.91562974 -0.48574555 -0.08369593 -0.31128785 -0.089688055 0.22102314 -0.4789105 0.3160809 0.005387024 0.5203235 0.24105336 0.259997 0.6733749 0.5311088 0.11001582 -0.6721066 0.19407682 0.1821655 -0.5394518 0.0851448 -0.37846625 0.3662847 -0.73074293 0.014191134
change -0.091073014 -0.3131164 -0.33203673 -0.045466326 0.5419555 -1.0207765 -0.5006817 -0.20161852 -0.94119436 -1.1820639 0.77551645 -0.4017004 1.3445685 0.096406 1.2447387 0.08699848 -0.25299805 0.3850819 -0.45554605 -1.2690022 1.4447242 -0.19972125 -0.50822234 1.2226586 0.5577532 -0.56269354 0.61439836 -0.37110466 -0.6748421 -0.62059706 0.27395076 0.25843486 0.072343856 1.0194829 -0.43503234 0.13480823 1.1022829 0.28038648 0.08967821 1.1947345 0.19141619 -0.6130321 0.5473362 0.48744372 0.2735295 -0.5847175 -0.295932 -0.40033737 0.14279944 -0.4547365
day 0.5827725 0.2007554 -0.84416604 -0.804791 0.2572048 0.594215 -0.7781396 -0.45453805 0.36835262 -0.77308977 -1.0113027 0.070405945 -0.21246347 -0.50160253 -1.8921036 -1.0342741 0.12687685 0.4071674 0.45301294 0.46765852 -2.0766973 -0.3959968 0.36448416 -0.60564125 0.06709886 -0.21040326 0.29449812 -0.9814196 0.09280673 0.23850597 -0.071794026 0.22390456 -0.24965048 -0.14298853 0.2597143 -0.12470916 -0.23129722 -0.2964329 0.79157764 -0.6385707 0.025263736 0.29645866 -0.27860314 -0.31150067 0.61090934 -0.025195295 1.0835184 0.14740409 0.6605064 -0.6265605
happen 0.11364684 0.090256855 -0.4544581 -0.10732117 0.75535136 0.3449614 -0.3875239 0.18613866 -0.52147514 -0.43865097 0.21618669 0.043786164 0.62971747 0.08434585 0.18851145 -0.0061092833 -0.21543224 0.21473442 0.015339158 -0.7317506 0.0686343 0.4424243 0.25911725 0.008323674 -0.035537366 -0.6947824 0.6001903 -0.9184657 0.42337608 -0.29861927 0.48523423 -0.48175752 -0.5970889 0.2572236 -0.09312513 -0.2709924 -0.01754408 0.3080214 0.39484623 0.4876185 0.32217774 -0.27634934 -0.028969238 -0.29203016 -0.103893586 -0.3927306 -0.25335237 0.34099635 0.011230594 0.21297151
may -0.5055174 -0.06986479 0.012813388 0.0030325179 0.39869484 -0.29824176 0.5094811 0.2751562 0.07186859 0.27320826 0.80560654 0.3637521 0.24425128 0.2402097 0.11118166 -0.57688713 -0.784919 -0.33823112 0.35601324 -0.011412211 0.59278345 0.058058243 -0.048827607 0.3658553 0.054526668 -0.8800445 -0.31842715 -0.53843224 -0.01050536 0.4632503 0.5665377 -0.14031732 -0.40491065 0.27815977 -0.059373476 0.00060926646 0.50448245 0.26307833 -0.14483766 0.08006399 0.38799167 -0.60929775 -0.09753062 -0.33778796 0.2885065 -0.19241029 -0.27255815 0.23501 -0.25290412 0.33773822
mean -0.327661 -0.03787849 -0.12892193 -0.03217339 0.2844816 -0.15793236 0.22670083 0.13290472 -0.40875694 0.28200093 0.004940743 -0.20632434 0.24445105 -0.07172695 0.07512322 -0.104310915 -0.049028456 -0.6975545 0.36675102 -0.35024312 0.3821289 -0.074367136 -0.03640789 0.17453144 -0.33135474 0.09920493 -0.25800285 0.036113694 -0.4794799 -0.20125894 0.26747605 0.10168165 0.0015266408 0.18247512 0.17346014 -0.2922462 0.558053 0.09032213 -0.27875713 0.37554875 0.06986959 -0.24374475 -0.11630913 0.27527475 0.21018848 0.14782871 0.14802341 0.08101413 -0.09183792 -0.12376409
try -0.071265854 -0.012567328 0.11770538 0.017946977 -0.2827985 -0.35888183 0.14056182 0.1994993 -0.17870422 -0.2154068 1.0438802 0.7466803 -0.13676322 0.44979006 0.42636538 -0.33301285 0.15442502 -0.11499717 -0.025333697 -0.5605557 0.120576575 0.025579326 -0.4581023 -0.2993454 -0.5377253 0.14972016 0.18330108 0.0059632654 0.82011735 0.13325939 -0.08029194 0.04153934 0.08698509 0.056868803 -1.0173144 0.7865718 1.0307678 0.5562363 -0.78478366 -0.5414798 -0.20719868 -0.36100388 -0.13930468 -0.13218378 -0.030640244 0.05140798 1.0861402 0.15882811 -0.266823 -0.17598914
every 0.8970834 -0.68294257 -0.72545934 -1.0486796 0.47381505 -0.13082573 -1.1352024 -0.7849272 -0.26996046 -0.82811517 -1.5256646 0.30903786 -0.6550851 -0.9824927 -0.4414832 -0.8418698 -0.10927768 0.3566254 -0.016241033 -0.04055 -1.7010835 -0.78177667 -0.017593605 -0.09719996 0.3706499 -0.25342396 0.12111008 -0.536407 -0.10521967 0.21427509 -0.38446054 0.32418373 -0.10162477 0.25042236 0.21355115 0.12753594 0.31216648 0.09498611 0.43726575 -0.53715056 0.63304436 -0.5895347 -0.96253306 0.22236377 0.025768375 -0.28665552 1.3868673 0.32225358 -0.31673178 -0.84219617
new -0.3736372 -0.040366568 0.044333044 0.8256144 -0.21990241 -0.4455386 -0.26621705 0.22527942 -1.0335217 -0.7031553 -0.6877815 0.06174481 0.5561379 -0.15713885 0.8642933 -0.65118986 -0.18983199 0.5063394 -0.45246467 0.40988612 0.9736461 -0.07146007 -0.7404514 0.6052656 0.09343708 -0.0703827 -0.08727773 -0.44445598 1.7104889 -1.5098423 -0.26475638 -0.64321035 0.9344476 -0.1808658 -0.20320757 0.30907455 0.79608023 0.2194127 -0.8045703 0.37014866 -0.8243404 -0.93955547 0.14905737 1.5811638 -0.0715921 -0.25223607 -0.23994 -0.5601133 -0.7046254 -0.06867511
let -0.1557075 0.3921362 0.052268855 -0.18105134 -0.57585853 0.45881557 -0.06496413 0.3834641 -0.70571834 -0.4125259 0.92090493 0.13341264 0.72354513 1.2148975 0.7594308 0.43980837 -0.47753248 0.2854962 0.1058667 0.31583953 -0.54968536 -0.48734707 -0.21609037 -0.7883806 -0.28524783 -0.10334645 -0.14416656 -0.28983325 -0.13125616 0.2790052 -0.4854394 0.20695448 -0.7351987 0.19489333 -0.44261444 0.50959826 -0.20750336 0.5156194 -1.0173955 -0.6590761 -0.14842336 -0.19165492 -0.2477186 -0.15848447 0.14311402 -0.79491335 0.4827376 -0.32762423 0.035076577 -0.24967687
around -0.050812922 0.56182563 0.21520935 -0.026972434 -0.12128316 -0.0548304 -1.2915118 0.9774197 -0.2289036 -0.71833795 -0.53250134 1.2206875 0.26631874 -0.63463604 0.572909 -0.8044863 -0.20055597 0.839705 -0.9684344 0.103118576 -0.3456193 -0.77838635 0.08691039 -0.063866064 -0.4870047 0.27466533 0.005651907 -0.13504303 -0.06228066 0.31223464 -1.0851464 -0.5865417 0.29998946 0.5115752 -0.025585724 -1.2262454 0.032363296 -0.5248672 0.41168064 -0.7494941 0.10823295 -0.28539816 -0.38875982 0.07357525 -0.42774618 -0.24060246 0.41969687 0.33546704 0.07919321 0.42295656
show 0.059682004 -0.2503984 -0.10539485 -0.65476006 0.2050763 0.63596946 0.6598123 0.34823623 0.035147257 -0.8104074 -0.5875764 -0.95738935 -0.07383657 0.44934532 0.83764756 -0.4568888 -0.60589343 0.66319305 -1.3042043 -0.0031159522 -0.33467987 -0.21690731 0.5074069 -0.68232405 -0.84702945 -0.58132166 0.073229484 0.18543985 -0.2649671 0.059129596 -0.2205584 0.10744706 -0.35046864 -0.19491434 -0.20092873 0.32286212 -0.5643651 0.115772456 -0.3979565 0.39022958 -0.24406363 -0.33822423 0.2395834 0.50270486 0.3382703 -0.47138193 -0.17187619 -0.4879635 -0.38362217 0.54775566
live -0.79002494 -0.018650569 0.20656411 0.09583077 0.68480074 -0.1338057 -1.3673121 -0.5415333 0.23666176 0.5110642 -1.0499693 0.12941128 -0.36881256 0.23954529 -0.93157744 -1.1952038 -0.1144056 0.44988912 0.37811926 -0.2163059 0.06424862 -0.066319585 0.26574904 0.46245787 0.13992672 0.5066426 -0.27309233 -0.6656079 -1.3340997 -0.66936886 0.13089602 0.23190808 -0.1583005 1.451968 0.29517147 -0.90989256 0.19092357 -0.13083017 0.79461133 0.32221434 -0.6052767 -0.3331296 -0.16873671 0.54152 -0.45895943 -0.8993446 0.30054304 1.1467716 0.079597525 -0.08290958
different -0.67756027 -0.8279891 0.383242 -0.43403828 -0.60800666 -0.17984132 0.016820071 0.30648887 -0.21618392 -1.5401702 -0.107519425 -0.4093256 -0.6917821 -0.649805 0.2919237 -0.46849787 -1.1917017 1.1342125 -1.1525227 -0.2681627 0.3359549 -0.18921706 -0.8399581 1.0316489 0.047745317 -1.1047144 -0.3002672 0.18061826 -0.28694263 -0.348773 -0.6963156 0.08261532 0.25004062 -0.15106949 -0.32482046 -0.112807125 1.5065492 0.3870559 0.13275452 0.9743655 -0.4504555 -1.0808916 -0.60441697 0.8961795 -0.16811797 -0.2609636 0.26335207 -0.3183456 -1.1900381 0.39715073
put 0.23700179 0.30210993 -0.47705606 -0.739262 0.2163968 0.5141095 -0.6628435 -0.060485173 -0.3144053 -0.23702514 -0.5171129 0.34500664 0.14314623 0.7469758 0.855104 -0.15267803 -0.03471289 0.3594442 -0.44288847 -0.19808091 0.108203515 -0.69215524 0.55548775 -1.0515867 -0.6707596 -0.20931101 0.76678973 1.3099113 -0.05754042 0.6337233 -1.0308983 -0.19854191 0.42628902 -0.24153814 0.34245023 -0.038096808 0.9019403 -0.20912047 -0.8919573 -0.24372923 0.71349317 0.3822377 -0.0029158671 0.67101145 -0.7705711 -0.09954519 0.7386816 -0.47190103 -0.8506148 0.75094783
human -0.47109962 -0.0903581 1.9722993 -0.57474726 0.6251181 -0.3704553 -0.096201874 0.06161741 0.37746283 -0.36628053 0.2614006 -0.20702672 -0.016205471 0.44933403 1.0600501 -0.7268931 -1.1865721 -0.7229388 0.49839565 0.022563826 0.4224861 0.059056323 -0.8254852 0.8628701 0.113799214 0.28780812 -0.7776271 0.20333922 -0.30390105 -0.9728598 0.9016196 -1.0477586 0.23673293 0.88869613 -0.027398834 0.23894334 0.8738097 0.49350607 -0.35897902 1.1355264 0.62381965 -1.6315516 0.5909493 0.3346663 -0.0942903 -0.7109677 -0.4775634 0.55904454 -1.5650897 -0.7514906
idea -0.6982732 0.06548945 -0.088568255 0.362044 -0.15233655 0.027899064 0.28870654 0.90073043 -0.48334983 -0.1501108 1.0718312 -0.229716 0.43617088 -0.5303245 0.37616614 -0.14278458 -0.029498696 -0.31874642 0.25850442 -0.025265433 0.5641829 0.16230993 -0.48504832 0.48225823 -1.0214094 0.18195432 -0.39507937 -0.7620145 1.1126415 -0.42002028 -0.18053338 -0.24111828 1.1313103 0.123594515 0.5742667 0.4979317 0.45333785 0.58235556 -0.8732677 -0.65821016 -0.17010796 -0.18394682 0.6270484 0.31973696 0.52000475 -0.28557175 -0.70105636 -0.1422789 -0.72437114 -0.57573956
problem -0.389895 0.0039647594 -0.054644067 -0.45064548 0.114682555 -1.0568897 0.09477651 -0.9620247 -0.19254403 -0.15497366 2.0834846 1.1941192 -0.46434474 0.060485985 1.1239687 0.30555186 -0.1824854 -0.4129866 0.602227 -2.2642324 0.38815102 -1.1070642 -1.0733862 0.7203401 -0.7157107 -0.2503773 -1.3788427 -0.30923188 1.0493217 -0.8745004 0.6289687 0.07533857 0.08880964 0.36685315 -0.17139141 -0.40639853 -0.5899985 0.7349562 -0.08007778 0.43816698 0.08358769 -0.17127933 0.9251867 0.13658181 -1.2769889 0.076778784 0.077864036 0.30247104 -0.5274185 -0.53918016
three 0.8263328 -0.43208328 -0.7955279 -0.8463089 0.30361232 -0.67241544 -1.0888981 0.060970932 0.247108 -0.8224338 -1.5956923 0.15903081 -0.6590076 -0.56648165 -0.24492203 -0.859539 -0.57500595 0.090187296 -0.5329148 0.2514293 -2.9785852 -0.46719867 -0.8040198 0.28654906 -0.5281665 -0.97539145 -0.84136814 0.10315096 0.29757303 -0.45950723 -0.058371235 0.08879857 0.2787971 -0.48900858 -0.020094909 0.20285815 0.38522142 0.08729002 1.0349412 -0.9257681 -0.123890236 0.42044452 0.08682339 0.4031611 -0.17995545 -0.29069152 0.697425 -0.45622718 0.3309457 0.21073583
ask -0.040119305 -0.6588838 -0.9611657 0.08692761 0.34706488 0.48417372 0.7280507 0.11541728 -0.35560626 -0.30293173 0.24546844 0.56841695 -0.03705309 0.26712942 -0.7340221 0.27873543 -0.13343127 0.06870627 0.27047655 0.5069108 -0.7173292 0.5687755 -0.13055447 -1.1619728 0.3754436 -0.6423759 -0.80172735 -0.78002566 0.098061815 0.32414585 -0.69413716 1.379312 -0.26997086 0.6847319 -0.28035012 0.5407397 0.30974537 1.0217981 -0.4397475 -0.43413755 -0.077707484 0.47286764 0.87302196 0.035715695 -0.15139738 0.48422992 0.2736444 0.14711647 -0.357857 0.37412772
great -0.119048536 0.15111369 -0.00095332216 -0.107659616 1.2452852 -0.20886609 0.24968016 0.076320045 -0.048404645 -0.7639507 -0.5166565 0.90105414 0.7353348 -0.034420833 -0.08609881 0.7200613 0.453167 -0.4205017 -0.29309997 0.6514465 0.50154704 0.3875467 -0.44441324 -0.0040509505 -0.06806752 0.12391315 -0.75059974 -0.28051502 -0.70458144 -0.6831624 1.1011953 0.20464864 -0.35403955 -0.27461877 1.1578745 0.43557808 -0.3844618 -0.0119101275 -0.8846703 0.3969873 -0.53730315 -0.15154266 0.8319733 0.648678 -0.5127666 -0.47260925 -0.6525163 0.24339394 0.25030008 -0.24004206
big 0.35666418 -0.0504106 -0.58331263 0.16784965 0.6168589 -0.47756043 -0.27826807 0.056013122 -0.26086858 -0.64054155 -0.030103056 0.48694146 0.15425362 0.3845262 1.3610734 0.68362695 0.17467666 0.2634859 -0.4890193 -0.13521084 0.030613216 -1.2850325 -0.22157155 -0.047113303 -0.48638275 -0.2457025 -0.6463798 0.0010132 0.15588666 0.0749838 0.26903 -0.052513804 -0.2688689 -0.62200063 0.31623396 -0.635666 -0.26051024 -1.3209991 0.07463428 -0.31151253 0.20627372 0.006196782 0.11074991 0.45020887 -1.1783283 -0.6587953 0.22418877 0.16468205 -0.13057685 0.47529778
feel -0.1496505 0.9862641 -0.2398313 0.07619137 0.5117284 1.0099779 0.3514725 0.16392547 0.30653605 0.37648886 1.2012417 -0.34596062 0.84473217 1.0767674 -0.57727796 -0.5522353 0.36519572 -0.46505213 -0.009931449 -0.27142075 0.44606367 0.36158806 0.8148957 0.5538705 -0.30532995 -0.19875678 -0.33662355 0.15343603 -0.57229894 0.13260858 0.70940655 1.0160942 -0.28006542 0.63780266 0.8069538 -0.85172313 1.3448373 -0.041197088 -0.52195114 -0.6061845 0.6543818 -0.017428888 -0.3196319 -0.21273059 0.6519495 0.09728817 0.07610564 1.0980234 0.34308514 -0.80644965
become 0.35050255 0.24965176 0.03803549 0.15810701 0.54685366 0.33018884 0.8149921 0.24485117 -0.12938032 0.23641273 -0.027162509 -0.24417485 0.10000164 -0.2156937 0.24096578 -0.48678243 1.4160188 -0.3340458 0.08068315 -0.33310744 0.99161875 -0.19526544 -0.55411375 0.44732633 0.1433763 -0.053546354 -0.47679216 -0.16512537 0.085564375 -0.8699609 -0.28123876 0.7611099 0.35544944 0.691494 0.07037525 -0.25713974 -0.081116766 -0.15126269 0.2033684 0.40560213 0.32632187 -0.23909025 0.5022909 0.8795938 -0.3122161 -0.36945543 -0.4761899 0.5635751 -0.6419139 -0.58741987
story -0.121937536 -0.010009487 0.14136831 0.28061974 -0.4071124 1.1707165 0.959806 0.5478694 -0.77044004 -0.07973342 -0.13614504 -0.073601276 -0.7637592 0.4360398 -0.9755319 0.026416592 -0.3173903 -0.27151036 0.20437856 -0.5690653 -0.4650683 -0.58898085 -0.4422407 -0.34810615 -0.606456 0.2662045 -0.14624752 -1.2341533 -0.08611203 -0.43910804 0.4079123 1.149922 -0.2576238 -0.03206718 0.74636877 1.0797079 0.006898247 0.17074192 -0.17357841 0.69604725 -0.7168312 -0.5522976 0.30787617 -0.44693276 0.5237677 -1.3368708 -0.9008359 0.12975809 0.6029091 -0.8103731
place -0.50613153 -0.33774194 0.77712625 0.80702615 0.44476286 0.15591046 -0.16920383 -0.30139455 -0.27315357 0.39547125 0.7077966 0.24691086 0.19658759 -0.43662742 -0.20959422 -0.6468051 0.12440368 1.1349784 -0.1702945 -0.21850982 0.23249714 -0.24967554 0.24886677 -0.12604962 0.014482042 -0.078533106 0.55648875 -0.32333273 -0.4157011 -0.45105422 -0.6058491 -0.316229 0.104101695 0.39924812 1.0185858 -0.6679983 0.17726201 -0.1826247 0.2578759 -0.46837005 -0.20021512 0.08607334 -0.41799948 -0.023946859 -0.2538134 -0.4212422 -0.186984 0.80826765 0.126095 0.33022726
thank -0.89834887 1.7048898 -0.8546028 0.44290146 1.0246078 1.541189 0.76870966 0.40161398 -0.35934958 0.7740543 -0.3718089 -0.12586315 0.70418805 0.39566788 0.2557871 1.1361513 -0.34511137 -0.28761566 1.0331305 0.30695373 0.024466941 -0.44863197 0.51736176 0.15473866 0.26150566 0.35221434 -0.54313135 -0.49487844 -0.6623272 -0.010689492 0.4380543 0.6164772 -1.4637995 0.23743136 0.89285356 1.0099301 -0.45045722 0.7308357 -0.7839925 -0.9279072 -0.1562405 0.12660415 1.3766004 -0.06375652 -0.5480919 1.7731823 0.25286105 -0.6185094 0.12948321 -0.2970976
create -0.5911781 -0.048671667 -0.059104156 0.7314558 1.0410216 0.22768244 -0.15527703 0.12496668 -1.3318288 -0.3675459 -0.306719 -0.073910095 0.33938694 -0.22819148 1.2785999 -0.2370835 0.19359213 0.8239552 -0.33439404 0.043030664 1.2477018 -0.3716796 -0.43462074 1.0969081 -0.79731596 1.0833952 0.04497395 0.4948279 0.22375378 -0.64186823 0.0034373652 -0.56994015 1.4472927 0.17423788 0.23530951 0.09317048 1.2456819 0.058369648 -1.1188617 0.80616987 -0.8095146 -0.4800179 0.8363476 1.2914588 -0.5201112 -0.03304237 0.12143868 -0.22130345 -0.7075076 -0.11136398
country -0.9810452 -0.7423876 -0.45617387 -0.2784065 -0.17994282 -1.2346126 -1.0919524 -0.7981616 -0.2549919 1.1067059 0.12973304 -0.13931726 -0.26662338 -0.7450944 -0.7091262 0.72415674 1.7952096 0.6712908 -1.0618418 0.34234828 -0.5926266 -0.4242965 -1.2525244 0.15516259 -0.14307009 0.5489148 -0.28182656 -0.54134774 0.15423478 -0.78709877 -0.50757456 0.5841026 -0.6176221 1.1401986 0.776266 -0.88443726 -0.40649527 0.14964247 1.9457473 1.6247401 -0.60332537 -0.5917899 0.16000053 -0.2985166 -1.0394897 0.9382971 -0.15798587 0.67616415 0.69991195 -0.8300544
today -0.9639007 -0.13202885 -0.620859 -0.19328056 0.11585475 -0.13685982 -0.6940479 -0.15543695 -0.23677136 -0.2384243 -0.43523976 -0.06824228 -0.31686923 0.08918148 0.60315454 0.059230175 0.099851534 0.03254925 0.14927432 -0.08040527 -0.67569274 -0.3562119 -0.5846331 0.23373172 -0.16245 0.025366263 -0.37560642 -0.9778978 0.22756393 -1.1259696 0.38858095 0.28652665 -0.47244275 0.57825327 0.26596838 -0.071809955 -0.24269965 0.22784227 0.19581495 0.49437577 -0.27453303 -0.47790498 0.3697811 0.61377424 -0.09943661 0.32626447 -0.46996996 0.03258954 0.13244733 -0.79027015
woman 0.48029536 -0.2483631 -0.09149781 -0.44810686 -0.015790518 -0.8262055 0.7423603 0.45858648 0.8643999 0.24478216 -0.98069334 -0.057855375 -0.4043759 0.80094206 -2.1516593 -0.02276329 1.0885433 -0.39099747 -1.2097417 0.22334729 -0.8178394 0.14274234 0.25020438 -0.09321241 0.8312818 0.46807268 -1.1880969 -0.8106567 -0.2628091 -0.14549801 -0.6703832 1.1981684 -0.73408085 0.50545925 0.75969404 -0.6107822 1.0150216 1.0861931 0.88279533 0.7579892 -0.16301663 0.16031498 -0.5035614 0.3858957 -0.5004958 0.7397033 -0.69612974 0.9969612 1.3441852 -1.3135861
percent -0.66665846 -1.5420904 -0.60362965 -3.1212897 -0.15123351 -2.0738215 -0.90062094 -2.077205 0.1058345 1.0233217 -2.0667157 -0.44286716 0.87676394 0.27911875 -1.619245 0.24431734 -0.13051799 0.15871641 0.5960335 1.1005245 -2.4593482 -0.5893294 0.72838086 -0.025258163 -1.4306855 0.81558424 0.83858705 -0.2982835 -0.7994223 -0.7842391 0.5106891 -0.30540866 -1.1930437 -1.0444003 -1.7824407 -1.7413248 0.48255855 -0.8801066 3.629908 2.1532893 -0.8698294 -0.6600914 0.23520775 1.008495 -0.492013 0.6996286 0.32497898 0.57403535 0.45850205 -0.094966955
question -0.12737645 -1.5078142 0.0028194499 0.19799504 0.065617554 -0.30961508 0.93938357 0.61231345 -0.74262875 -0.52735066 1.8359041 0.41777918 -0.15455496 0.28203103 -0.35160574 0.46970934 -0.6718852 -0.013854671 1.1148838 0.0651558 -0.8767137 0.18381473 -0.44167444 -0.7649887 -0.48075932 -0.9374416 -1.054454 -1.1642449 -0.05540861 0.20989537 0.07859438 1.0962569 -0.082517736 0.77509016 -0.39169833 -0.100114375 0.12721555 1.1232408 -0.61305946 -0.38363436 -0.016745016 0.24646787 1.2753514 0.025561748 0.12035299 0.26480827 -0.7039874 -0.13842966 -0.13509506 0.023756495
system 0.0031389808 0.5355205 0.84379303 0.4817363 1.3088609 -1.1819512 -0.20536336 -1.4896939 -0.19401138 -0.34411463 0.9706675 -0.31428325 0.14724116 -0.14221776 1.9699149 -0.8548941 0.11947735 0.25222835 0.8644509 0.13916245 0.922009 -1.093857 -1.1030465 1.0065875 -0.110942714 0.10147512 0.47109708 0.22957507 0.9272781 -1.1507689 -1.0277017 -1.0323942 0.83517826 0.9030251 -1.1187502 -1.3369294 0.23123385 0.5444551 -0.6911662 1.1704874 0.6272622 0.04267558 -0.03693263 -0.88432825 -0.3590136 1.4141008 0.027581727 -0.051693555 -1.1811911 -0.76703596
part 0.1802434 -0.31928426 0.57803476 -0.11903571 0.48489833 0.34353098 -0.01319985 -0.40437105 -0.059139613 -0.14529172 0.16314234 -0.29380143 -0.15205374 -0.3172082 0.5966948 -0.3063962 0.5935224 0.63374364 -0.26354685 -0.37505534 0.39557335 -0.3325454 -1.0258715 0.715297 -0.3708309 -0.43970218 0.04082505 -0.039140835 -0.4207098 -0.8727959 -0.4781551 -0.27936745 0.6745566 0.34976304 0.7241944 0.26908398 0.121264234 -0.08023913 -0.05552151 0.15698268 -0.038697798 -0.59175664 0.3318784 0.13385628 -0.47494125 -0.3680962 -0.055029314 0.43050134 -0.58857405 -0.39697775
fact -0.22142951 -0.47201142 0.2660497 -0.28188363 0.43416172 -0.28052777 0.045765087 0.25217372 -0.26466855 0.33394682 0.4509818 -0.10975357 -0.27512473 -0.50726825 0.33837914 -0.32579282 -0.35331476 -0.5621018 0.14302489 -0.25556117 0.06978318 0.116852716 -0.055263773 0.05462985 -0.67735744 -0.12759055 -0.26577187 -0.14703426 0.014203135 -0.37612638 0.31763956 0.2920744 -0.6563924 0.453622 0.12592585 0.10820976 -0.12038083 -0.2721227 0.34536403 0.4629647 0.19006173 -0.53293896 0.20133764 -0.07595587 0.07548025 0.28097728 -0.8170017 0.34120372 -0.4753643 -0.186131
build -0.937351 0.5411639 -0.26497766 0.8742079 0.5828274 -0.3403605 -0.4320872 -0.20532729 -1.1108234 -0.31459755 -0.37713885 0.25222883 -0.23332402 0.46610484 0.99348193 -0.22940814 0.54834527 1.0667255 0.8273585 0.0005239571 0.36283177 -0.39855522 -0.37670088 0.15825438 -0.56835866 0.81671154 0.5295187 0.28760013 0.6168107 -1.0441241 -1.3479024 -0.7039774 1.8093868 -0.4571282 -0.2531014 -0.4942514 0.39018792 -0.1699304 -0.3178989 0.17425095 -0.5688656 0.19510259 0.026061777 1.3732659 -1.2989597 0.010961491 0.568669 0.08608437 -0.9626306 0.6922588
child 0.017729022 -0.17326495 0.36430764 -1.0201205 -0.25545648 -1.1928209 -0.67798245 -0.86030185 0.6268946 0.18479328 -0.55311567 -0.3879097 -0.69522107 1.2241122 -1.7726191 -0.99317926 0.80501556 -1.1179837 -0.33194518 -0.010709992 -0.86173993 0.38896587 0.08315733 -0.4890402 0.94418293 0.24320626 -1.3247179 -1.3213439 -1.1132941 -0.15999486 0.025598586 -0.08314372 -0.28969744 0.7472931 0.28722012 -0.41100457 0.33873916 1.0210348 0.03837884 -0.025830632 -0.3716256 -0.6225788 -0.045747064 -0.004990407 -0.33889946 0.34459686 1.354601 0.9577512 0.69224674 -1.4347068
man 0.5465567 0.258174 0.1576911 0.0702421 0.13564691 -0.5733304 0.34175187 1.2498766 1.0905701 0.30092457 -0.94738287 -0.12019972 -0.19462475 0.82673174 -2.090751 0.47198832 0.476546 -0.67116237 -0.6718657 0.12350375 -0.63146347 0.48871228 0.21524288 -0.49345705 0.59219486 0.83896154 -0.9623207 -0.38211927 -0.39625108 0.61408156 -0.6125684 0.74384576 -0.58871794 0.5905278 0.5347898 -0.5901231 0.8366809 0.45765868 0.7873436 -0.075111285 0.21693666 0.34026933 -1.0111006 0.3824564 -0.733241 0.39079905 -0.17785585 0.6335582 1.0716621 -0.5871786
learn -0.2400322 -0.69403213 0.5978306 0.31661028 -0.33916688 0.208797 0.22308059 0.12997857 -0.9633587 -1.4852242 -0.20472758 0.15015076 0.48524225 0.20746127 -0.050690614 -0.5194084 0.57140774 -0.83362436 0.4603158 -0.3658658 0.5937327 0.18893985 -0.17924365 -0.4967133 -0.247432 -0.18245625 -0.9042689 -0.8139671 -0.8990509 -0.69055897 0.42419043 -0.43201762 0.23037633 0.22272888 -0.5996384 0.8299091 0.39585316 1.0385045 0.03116225 0.1940387 -0.48188818 0.036214106 0.31589282 0.25994474 -0.0177087 0.17354329 0.8170162 0.46115997 -0.6994905 -0.57154685
turn 0.38466343 0.18052505 -0.035454955 -0.5141521 0.095820576 0.043772437 -0.095403545 0.5110575 -0.20422275 -0.27427545 -0.7357468 0.06434872 0.9802031 -0.29555956 0.32197773 -0.6029687 -0.16195346 -0.027751809 0.21159397 -0.6131073 0.22529966 -0.26504818 0.1186751 -0.30321306 -0.279815 -0.35042897 0.05791412 0.50649035 -0.23366995 -0.08086958 -0.18226357 -0.3994124 -0.07090068 -0.44804364 0.24235669 -0.7667758 0.0052897814 -0.16123264 -0.19494274 -0.050718676 0.37428626 0.19760558 -0.21883838 0.020226022 0.092388764 -0.17679346 0.4246119 -0.3824479 -0.40007356 0.4208778
last 0.27005488 0.12368295 -1.3740791 -0.6877208 0.14923517 -0.2075329 -1.1496783 0.30609787 0.061377075 -0.8935403 -1.7977067 0.0032502091 -0.0097342245 -0.66571164 -0.52383685 -0.75948983 0.21044397 -0.047216516 0.29890716 0.8361818 -2.4030564 -0.5715471 -0.08921481 -0.13405363 -0.011307292 0.005477213 0.78861713 -0.79636115 0.2530024 -0.28012973 0.7166375 -0.29785624 -1.1125968 -0.2052824 -0.31155413 0.9552599 -0.61468506 -0.7069077 1.5019584 -0.12413505 -0.27435547 -0.07804155 0.6741808 0.525843 -0.28151736 -0.40296692 -0.6375135 -0.26300704 0.45341638 -0.115124784
another 0.36680534 -0.36359826 0.11786384 -0.023660792 0.060354553 -0.14428993 0.113274425 0.5731199 -0.064262226 -0.3384135 -0.6272616 0.28533703 -0.38976964 -0.13882092 0.026293432 -0.32184035 -0.7145148 0.16751355 -0.83593756 0.08396649 -0.5363246 -0.30612418 -0.6652861 -0.24478628 0.09350828 -0.42045623 -0.20969519 0.011260652 0.13510384 0.14475338 0.2357395 0.23643346 0.08020991 -0.17849636 -0.026022969 0.36006942 0.5333839 0.469841 -0.05761105 -0.21686293 0.096693315 -0.39286095 -0.34192732 0.34807622 -0.4974158 -0.30753005 -0.044677917 -0.18133517 -0.49859348 -0.02967653
help -0.76839125 0.19577597 -0.15304174 0.19522136 0.19462106 -0.70746493 0.36517438 -0.6974139 -0.7156668 0.05967088 0.6161606 0.99417883 0.18797724 1.4447669 -0.23828183 -0.5193126 0.6826212 -0.09818343 -0.07887275 0.010261698 0.7745086 0.096724525 -0.41160384 -0.32748565 0.40012467 0.868987 -0.5436635 -0.26467714 0.29395625 -0.7546692 -0.18539216 0.072735086 -0.020342015 0.5952397 -0.4964327 0.07659022 1.1065985 0.6901649 -1.2530403 -0.27573732 -0.670364 -0.32607403 0.6843749 -0.028143162 -0.38192567 0.48196602 1.1738989 0.13759412 -0.6534646 -0.74050564
never -0.025774686 0.7211224 -0.23271023 0.24319787 0.15968505 0.043814104 -0.06069448 0.15899032 -0.4558732 0.035863444 -0.07876313 0.73896563 0.080785684 0.11053442 -0.85278606 -0.52947783 0.03504637 -0.66201174 0.83905756 0.32253224 0.27860075 0.4695857 0.27204672 -0.7766239 0.25956237 -0.22124541 0.022807244 -0.57666814 -0.20054492 -0.25626513 0.67803884 0.86904526 -0.537268 0.29391527 0.025369486 0.477636 0.7211823 0.4268874 0.16277386 -0.028811092 0.3274144 -0.25254548 -0.73254603 -0.37835544 0.20183921 -0.2821823 0.2073836 0.19489107 0.89387214 -0.3875587
old 0.17652956 0.50275886 -0.86543864 0.15579364 -0.74004984 -0.6350231 -0.79292655 0.85906243 0.78389 -0.60258764 -2.3034966 -0.8273304 -0.59120315 1.0396836 -2.2344587 -0.16109514 0.20777112 -0.49543822 -0.046384685 0.13475493 -1.431518 0.16647795 -0.15572965 -0.9571305 -0.096338905 -0.18206991 -0.4542668 -0.55879396 -0.5375993 -0.12009521 -0.23716246 -0.58739966 -0.29851457 -0.26369756 -0.24519719 -0.24128851 0.15926662 0.27746764 0.9724688 0.25308725 -0.096885905 0.5942308 -0.3101092 1.2093766 -0.2381223 -0.3281591 0.5731096 0.37392497 0.3288039 0.0090276515
love 0.43338695 0.6296064 0.12338858 1.0031738 -0.28559056 0.62292314 0.6663545 0.53509307 0.06216217 0.12187853 -0.3965592 0.21199739 0.48871464 -0.08380055 -1.6877707 -0.060841113 -0.002499882 -1.124169 0.44079363 0.39173263 0.42594534 0.025235416 0.47251174 0.15525877 -0.2843565 0.37950644 -0.45916525 -0.46748194 -0.97042835 0.061440505 0.47850415 0.852736 -0.59929836 0.29029402 1.0449083 0.3091397 0.41046762 0.48602903 -1.3693717 -0.70716757 -0.88628304 -0.10837751 0.41200912 -0.012453426 0.95098466 -0.22337008 0.69111913 1.0577804 -0.35589615 0.19354449
technology -0.8109616 0.12633233 0.10359826 0.28677684 -0.9065575 -0.8875675 -0.14515924 0.6676704 -1.2884183 -0.57807 0.5702678 -0.9047686 0.41052315 0.757654 2.4015353 -0.7067952 0.028080603 -0.41234726 0.5887824 0.03197552 1.3384387 -0.43251118 -0.8855107 0.16236605 -0.22689529 0.5621709 -0.3113847 -0.9301907 1.6276522 -1.6935076 0.08493117 -0.9281383 0.7837489 -0.10400587 0.026576135 -0.05438541 0.03213261 0.60614556 -0.72324526 0.6974112 -0.4800863 -0.93281764 0.8730794 0.48890558 0.19637018 0.9674838 -0.93478656 -0.25784153 -0.3382235 -0.9525791
end 0.04702914 0.13217226 -0.55166847 0.27401525 1.0236273 0.1426736 -0.65224296 0.20406103 -0.08888535 -0.34196553 -0.2892166 0.30949473 0.5501568 -0.09534329 -0.16174617 -0.6008881 0.27839243 -0.2252558 -0.11689021 -0.039980147 -0.59759974 -0.07816773 -0.14070953 -0.22281592 0.22992496 0.13060376 0.6406738 0.61142075 0.20563377 0.4725681 -0.24258155 -0.14355284 -0.3998293 -0.1829259 0.13679628 0.50200576 -0.25241962 -0.034921106 0.5998951 0.14190665 -0.17171532 0.043921478 0.08052626 0.012769934 0.024060907 -1.0342232 0.23884742 -0.3639044 0.8339706 -0.02863071
brain 0.76894236 0.17303942 1.9529352 -1.4844254 -0.3456215 0.21261556 1.1571445 -0.5166867 0.6296324 -0.52895176 0.2608038 -0.86402714 -0.8515437 1.299533 1.1392285 -1.7396127 -1.5898213 0.4566841 0.22332168 -0.65283924 0.92374325 0.5011516 -0.94127935 0.7143069 -1.0653554 -2.0765738 0.50878835 0.9797932 -0.02051824 -0.10177401 0.47526783 -2.2521377 0.108756974 0.58649427 -0.24045053 -0.18187594 0.7240698 0.3067019 0.34387037 -0.13210547 0.9783662 -1.5030087 0.10875068 -0.5015092 0.26193476 1.0131047 0.6676538 0.61267465 -1.5845364 -1.0918592
understand -0.37805033 -0.16778162 0.32329625 0.49550757 0.41271898 -0.110632904 0.0212201 -0.105362296 -0.8868888 -0.68411165 1.1260908 0.5693411 -0.000635301 0.5119401 0.8182334 -0.019834856 -0.31395423 -0.06659528 0.67303383 -0.98579544 0.75749403 0.6374087 -0.39026463 0.35533318 -0.72655785 -0.7148549 -0.36563873 -0.013620697 -0.7023052 -1.1535643 0.41479823 -0.10478421 0.097645536 1.0958972 -0.5522936 0.53429115 0.96915954 0.973111 -0.9849632 0.7544778 0.24740504 -1.1858397 0.8427517 0.102274604 -0.22405814 -0.22876516 -0.014295593 -0.10100566 -1.1555177 -0.41806614
long -0.007969287 0.12070632 0.19801986 0.13553837 0.5803758 -0.42645362 -0.33256912 0.769739 -0.20815448 -0.8362965 -0.31595007 0.55834824 -0.54360753 0.64118534 0.07684704 -0.92636746 0.040963843 -0.5030958 0.75040096 -0.005302882 -1.2442527 -0.62986773 -0.36661533 0.1391011 0.56945664 -0.121304646 0.2600542 0.711792 -0.050687898 0.63840437 1.0227513 -0.50710493 -0.7512184 0.30771923 0.5700194 -0.11553685 0.060302686 -0.24275145 1.1832577 0.14425375 -0.6315829 -0.308173 0.07050283 0.24317779 0.6273077 -0.4854622 0.36427292 0.1294892 0.5618533 0.5164237
important -0.27853101 -0.99266076 0.44165957 0.29058188 0.58672774 -0.36603844 0.9675809 -0.027129259 -0.7308072 -0.4660271 0.7548462 0.39941657 0.30190206 -0.08412965 1.1642221 0.09234906 0.19859569 0.1675766 0.22344357 0.22160883 0.30707544 -0.45255396 -0.6107775 0.5942173 0.41920277 -1.2503245 -0.1080488 -0.45274678 -0.47659436 -0.9698555 0.7848643 0.35619482 -0.21220902 0.10320468 -0.4766143 0.5179837 0.43933854 0.08943833 -0.9523947 0.20014194 -0.037211545 -1.0256606 0.8359423 0.4364145 -0.36250713 -0.020810394 -0.085443854 0.53899986 -0.76283294 -1.3193187
still 0.082519375 0.21941465 -0.07764328 -0.054496672 0.19778673 -0.30206624 -0.32501805 -0.05185657 0.43967628 0.48205826 -0.1877437 0.14442384 0.12454796 0.09874051 -0.47058934 -0.6419317 0.6671696 -0.010210329 0.3537197 -0.55564636 -0.35540694 -0.11401567 0.171658 -0.19206147 -0.6155641 -0.5066348 -0.23557682 0.15396796 -0.20882946 -0.1928213 0.50755364 0.07243571 -0.42308962 0.25233153 0.17615683 -0.25724083 0.19491014 -0.33565396 0.41129977 -0.14564449 0.2995371 -0.18862751 -0.22403389 0.31847394 0.45257643 0.3920952 0.3293904 0.6188361 0.28991902 -0.16884688
together -0.094610624 0.3346166 0.88549757 0.4246411 -0.073068924 0.6655742 -0.91848016 0.9740347 -0.7374531 -0.21565036 0.2459956 0.55865127 -0.30405897 0.2533351 0.5571743 0.2821804 0.4080526 0.63314164 -0.79088086 0.019470386 -0.059294783 -0.69579434 -0.9911783 0.65902495 -0.6074559 0.11121302 0.21666208 0.44576585 0.069779284 0.21817899 -1.1552577 -0.21882536 0.4146656 -0.08176807 0.65156156 0.3439313 1.1075506 0.33595407 -0.69917864 -1.484226 -0.9735223 -0.075412266 0.9956238 0.11604074 -1.0332052 0.023973653 0.5520058 -0.16657273 -0.7451894 -0.6650909
move 0.11738179 0.75399613 0.18455055 -0.49853387 0.12146116 -0.5207013 -0.56547385 1.2217654 -0.24870254 -0.7857359 -0.05536452 -0.07342056 1.0168751 0.06280108 1.4010496 -0.40863848 0.57064027 1.1019976 -0.6223399 -0.26503643 0.24489748 -0.465243 -0.42902946 -0.26663366 -0.1997554 0.19984189 0.3747939 0.9030707 0.035892047 -0.6135395 -0.8573323 -0.3720596 0.7800153 1.3124583 -0.15314268 -1.3074988 0.15807357 -0.7435915 0.52753305 -0.47408688 0.617671 -0.067576446 0.20137498 0.23453018 0.25557274 -0.89855176 1.0409362 0.15731822 -0.22267021 0.6918248
example 0.07915622 -0.6091497 0.07393989 -0.06038371 0.071950085 0.36147547 0.90289694 -0.087137505 -0.06077933 0.16531661 0.23280352 -0.6727264 -0.08483066 -0.17402601 0.7518262 0.028793376 -0.3024147 0.38359904 -0.6108819 0.08654079 -0.1532533 -0.08547933 -0.5191043 -0.42324165 0.11961628 -0.33610964 -0.04321527 -0.38098457 -0.30369055 -0.2091155 -0.45758733 -0.49915233 0.15468054 -0.104643874 0.28541067 0.44334874 -0.4438284 0.535389 -0.18319653 0.6005496 -0.27607003 0.017357381 0.08147249 0.6039707 -0.54867584 -0.36044034 -0.72332895 -0.4710605 -0.4497022 0.24836358
point -0.22503579 -0.6842583 0.09541788 -0.49860525 0.24755436 -0.67136896 0.34301493 0.5598737 -0.27016073 -0.4679568 0.48423433 -0.05634952 0.37242848 -0.45468453 1.005489 -0.1829313 -0.5162285 -0.11914483 -0.07300851 -0.2458121 -0.1521264 -0.14971808 -0.31683707 -0.17300326 -0.65185976 -0.3664715 0.1843954 0.14156365 -0.10932705 0.2701004 0.18444207 0.7062623 0.5812933 0.25690344 0.05572075 -0.1437176 0.18668118 -0.6548278 -0.18694694 -0.35959426 0.25988275 -0.48708105 0.3074059 -0.6232906 0.18675333 -0.6275609 0.036149852 -0.47994357 0.06526854 0.06001138
able -0.44445658 0.26889458 0.9380921 -0.4316419 0.0026369437 -0.6536871 0.15573214 0.031864263 -0.94740707 -0.08014521 0.056533635 0.08853603 0.13951701 0.7846296 1.1026292 -1.2690758 -0.07207534 0.31858972 0.31576264 0.20134015 0.7272552 -0.20026708 -0.0550999 -0.14437588 0.13157798 0.061607525 -0.017479671 -0.10325774 0.34570295 -0.052071813 0.28783423 -0.5042133 0.45395923 0.3786623 -0.57798964 0.60188323 0.9475098 0.63297075 0.1431343 -0.499101 -0.22629617 -0.6183708 -0.024505747 -0.5800891 -0.27551454 0.8697236 1.3272275 -0.36897117 -0.4438686 -0.3947601
leave 0.8056477 0.6095977 -0.30609876 -0.59688187 0.3083153 -0.30583003 -0.4231178 -0.20464371 0.7214534 0.23813154 -0.60427856 0.40407708 0.12627968 -0.1670463 -1.1012355 0.052973192 0.059967346 0.59154236 -0.50277126 -0.31957358 -0.28903842 -0.44502407 0.21560572 -1.3803433 -0.17806725 -0.8624912 0.49038014 1.152306 -0.38259768 -0.107696086 -0.43493655 0.2235443 -0.18434595 0.5010939 0.35579327 -0.48232985 0.42192477 -0.49865928 -0.18290444 -0.48610902 0.24096346 0.11475898 -0.14086732 0.15262885 0.19429585 -0.8700025 0.32403013 0.613225 0.40313998 0.24778502
next 0.36133468 0.719937 -1.1943223 -0.65451086 -0.025236668 -0.5824353 -1.0404305 -0.16637178 -0.09440143 -1.4648893 -1.1946247 0.51872617 -0.03658937 0.8226365 0.027218096 -0.72607607 0.341287 0.36885968 0.005515802 0.9779806 -1.7799017 -0.31328288 -0.24273561 -0.46866378 -0.18397155 -0.6411801 0.1471996 -0.41526172 0.34997466 0.43350306 -0.1600749 -0.2801903 -0.45143586 -0.32491866 -0.41545936 0.03272753 0.16560155 0.094024174 0.4754735 -0.7145953 -0.05956903 -0.06916599 -0.18820162 0.2694105 -0.001545666 -0.845246 0.124609455 -0.8975314 0.17847629 -0.5263005
course 0.22866014 -0.2067395 0.19543992 -0.1290578 0.3227387 -0.18358089 -0.21246019 0.07189712 -0.33885646 -0.65405566 -0.10861364 -0.038626593 0.34959513 -0.2458302 0.20631647 -0.3402682 -0.033619594 -0.617274 0.11305002 -0.12408789 0.03032819 -0.30585405 -0.22527538 -0.27449787 -0.032889534 -0.16648802 -0.22877328 -0.24158269 -0.0431538 -0.38927037 0.22535725 0.08249142 0.011736576 0.11456477 -0.047375914 0.072745584 -0.17811345 -0.1683941 0.060321916 0.3922556 0.03164993 0.20679082 -0.089943215 0.28997898 0.0042090225 -0.05781476 -0.086646155 0.17448765 -0.4066115 0.5106007
million -1.1461316 -0.56120706 -1.2217668 -2.274496 -0.3525083 -0.5729162 -1.7949479 -0.40825635 -0.47193438 1.188229 -2.8583596 0.04156045 -1.0173951 -0.6516092 -0.7991925 -1.442392 -0.84642535 0.20924528 0.6399704 1.1212837 -2.6109173 -1.0285027 -0.9921556 0.044676196 -0.9741427 1.4860469 -0.62522054 -0.6101567 0.21082428 0.7917082 -0.004819303 -1.0777221 -0.4153301 -0.012497194 -0.9107128 -0.60865897 -0.423808 -0.9894793 1.8461046 0.634661 0.42943573 -0.58496743 0.15574004 0.3553274 -1.6347713 0.6284105 0.8477914 0.49941424 -0.2077116 0.24207693
number -0.20412795 -1.0768166 0.10107838 -1.2288036 0.16647358 -0.6898279 -0.25004485 -0.44866273 -1.126296 0.12843782 -0.61526716 -0.97086525 -0.2651767 -0.5128528 -0.031812023 0.19564916 -0.92776185 -0.28739783 -1.0186744 0.06672385 -1.3591676 0.07073245 -0.99484825 -0.19338505 -1.1699734 -0.92875856 -0.9154125 -0.20938389 0.027626872 0.21477014 0.743619 -0.331212 0.0944166 0.16286495 0.40477002 -0.61576605 -0.15008944 -0.7003401 0.97821105 0.19530606 0.15472361 0.008930178 0.17087099 -0.12443289 -0.086348094 0.479236 0.24002884 -1.0985614 -0.26302955 0.44267994
bit -0.26851255 0.5935576 -0.1897421 0.24908726 -1.1435297 0.3373659 0.36035222 0.57981 0.32414255 -0.6206995 1.1425465 -0.9205327 0.34629744 1.118157 0.87209946 -0.5563785 -0.5564568 0.23216133 0.44723597 0.08664192 0.10510924 -0.74918914 0.014349909 0.24741924 -1.2847458 -1.5532749 -0.38843712 0.27028233 -0.50514513 0.34315062 0.5585102 -0.76627666 -0.63376415 -0.16861029 0.4808471 -0.10888724 -0.2564306 -0.5421335 -0.86419755 -0.014891606 0.12368329 0.7033665 0.110725336 -0.41978663 0.38176593 -0.45312783 0.86814666 0.43039855 0.20360939 0.98413694
ago -0.5593648 0.7415011 -1.4938582 -0.81190366 -0.45374098 0.007930205 -0.9399361 0.97358197 0.16858815 -0.6471214 -2.3334663 -0.29713154 -1.5520586 -0.37038955 -1.1146102 -1.171183 -0.5281862 -0.11759317 0.52896476 1.0922246 -3.1173427 -0.07273147 -0.7750206 -0.5539415 -0.07999526 0.05818793 0.4986555 -1.3602113 0.6783964 -0.38438776 -0.07449122 -0.30610704 -0.9430903 -0.14521882 -0.785905 0.9258276 -1.2904676 -0.44056615 2.442016 0.051535178 -0.3104102 0.34690356 0.84485286 0.30712143 -0.916303 -0.5515005 -0.8106003 0.2185152 -0.1464096 0.71696895
design -0.66110766 0.19222388 0.20258427 0.058398504 0.82751596 0.2671872 0.50365835 0.35125712 -0.43679932 -1.0858105 0.5592749 0.08608053 -0.38059562 0.27375716 1.8224875 -0.729398 0.2403395 0.07697871 0.6759989 0.3232486 1.2016083 -0.17668936 -0.5062173 0.46026832 -0.38930967 0.121335514 0.16094024 -0.19537593 0.6782283 -1.1580759 -1.2721092 -0.29635918 1.4413455 -1.4446762 -0.2637458 0.36071017 -0.011109743 0.6869436 -1.4426178 0.36884144 -1.1202933 -0.031007119 0.39007378 1.1312665 0.05377027 -0.23977391 -0.22136365 0.0059816 -1.0763583 -0.23171167
kid 0.2450548 -0.6345341 -0.8431421 0.070056595 -0.7936723 -0.37225923 -0.46636125 -0.058692794 0.6042627 -0.86413014 -0.29478958 0.16229641 -0.5909307 0.9034166 -1.0387683 -0.5582119 1.0333703 -0.7465837 -0.11257305 0.161346 -0.0048608207 0.33149943 0.456279 -0.78156704 -0.25294048 0.18418306 -0.72462314 -1.7897812 -1.0118788 0.6222682 -0.733672 0.07156543 -0.44812685 -0.6575302 0.45400077 -0.52105045 -0.31373158 0.7417653 -0.14829169 -0.5496037 -0.8177313 0.4841643 -0.064557515 0.04011915 -0.016633093 0.4068083 2.1143668 0.65014386 0.42662328 -0.49344453
school 0.30278838 -1.4957343 -0.59686095 0.96668077 -0.49615845 -1.4629952 -0.15635097 -1.218789 0.27102265 -1.803927 -0.3112501 -0.066917524 -0.37465134 0.62488645 -0.97827715 -0.27849472 2.3072143 -0.27389693 0.14827573 0.3860591 -0.79270566 1.046878 0.64827746 -1.3647223 -0.14195286 0.052220188 0.057038188 -1.6568642 -0.8000181 0.10133061 -1.7594692 0.5516521 0.27775234 -0.44279552 0.54963106 -0.7332154 -1.0957751 0.0921134 0.0442609 0.37383857 -1.9152204 1.3001082 -0.032309163 -0.23647287 -0.39759505 1.4850489 1.5813789 0.8644095 0.79890645 -0.5648209
high 0.56654733 -1.7828552 -0.98996866 -0.0041744765 0.6193079 -2.0270298 0.11026482 -0.44543597 0.4700335 -1.2341996 -0.4843181 -0.7797294 0.84764093 -0.20706277 1.4267462 -0.9830179 0.64499027 0.6393582 -0.6160064 0.92241 -0.7998612 0.24586499 1.2466677 -0.23696657 0.62214804 -0.020702094 -0.46564797 0.77298623 -2.14385 0.3785378 0.6332493 -0.30528197 0.6169042 -0.354765 0.4228232 -1.0455 0.2214762 -0.6380855 0.3123967 1.7437445 -1.3064333 0.076359294 0.40736312 0.21750064 -0.8067831 1.4694644 1.1886908 0.8319835 0.62581277 1.0073677
believe -0.95735526 -0.06782816 -0.31376973 0.37126848 0.8024555 -0.4693116 0.0043525957 0.35325205 -0.0029831848 0.44900897 0.71274716 0.59395254 0.53193635 0.00479873 -0.1529933 0.95574176 0.50550556 -0.4995326 0.8248377 -0.44091046 0.2549909 0.97742164 0.010024391 0.52488613 -0.22529656 0.39171574 -0.8421535 -0.46728197 -0.5335022 -0.7279458 0.18699989 0.82316226 -0.4525348 0.7752603 0.6157979 0.2118589 0.9097057 0.1306249 -0.44997948 0.4795956 0.035923358 -0.38914785 0.51043636 0.51188195 -0.44526848 -0.3071118 -0.92342407 0.14930642 -0.5025457 -0.6669564
hear 0.18618627 1.4091328 -0.98323244 -0.1808731 -0.37284437 1.9124254 1.1718401 -0.19706197 0.04327439 -0.04905194 -0.7690176 0.6680054 0.62392825 -0.07213766 -0.4210418 -0.3092329 0.14772435 -0.5350545 0.21021305 -0.0016232218 -0.16328555 0.34653872 0.03745657 -0.008140106 -0.119411826 -0.78445077 -0.34966454 -0.57478595 -0.85725313 0.18821652 0.41637778 0.81997025 -0.5580445 1.1862108 0.27328274 0.38954428 0.05030179 0.49973443 0.2789531 0.0022553937 0.39479357 -0.9661218 -0.52948284 -0.43775997 0.12922868 0.20030025 -0.2617556 -0.42980653 0.77539635 0.49755067
play 0.9343172 -0.16539463 0.47364607 0.45353588 -0.49524167 1.6885153 0.21112205 0.6287147 -0.06703121 -1.1045344 -0.99033725 -0.5653924 0.8759606 0.43782294 1.0445596 0.48561624 0.549581 -0.35828218 -0.6361834 -0.4584225 -0.103977844 1.1500809 -0.81487256 0.107934766 -0.72781265 -0.3169708 -0.5973404 -1.0565743 -0.7532364 0.6783359 -0.38824767 -0.45998812 0.6068043 -0.60981995 0.60427135 0.044321932 0.5629431 1.2792866 -0.6378615 -0.6320895 0.33562756 -0.32595956 -0.018140001 1.1097106 0.74077564 -0.010578993 1.5002342 0.49783072 0.5870713 0.48088536
water 0.988815 -0.19994584 0.597676 0.42626703 -0.89405674 -0.51737744 -1.325827 -1.8652674 1.4601133 0.6314515 0.9373061 1.6198664 1.6612961 -0.61675304 0.5765363 -2.0968308 -1.0628576 1.7449843 0.95864713 0.3248484 0.46246478 -3.3713496 1.3809263 0.6553749 -0.26490352 0.24416266 1.5083567 0.78613627 -0.34151015 0.24736336 0.1269853 -1.1786559 -0.1954328 -0.272726 0.7859408 -0.68037295 0.38740838 -0.6646954 0.9811558 -0.5467362 0.1229234 0.7452825 -0.3724114 0.94954383 -0.49194515 0.82897234 0.9356137 0.43790448 1.3053024 0.28002375
maybe -0.17503282 -0.062012266 -0.5514963 -0.6002126 -0.1660046 -0.38422182 0.053835403 0.4384285 0.1131685 -0.32773852 -0.31653062 -0.053072073 0.1159686 0.40760946 -0.0317245 -0.36504441 -0.6141745 -0.45665577 0.69275427 0.44840658 -0.4582833 -0.17122684 -0.00016854965 0.38450375 -0.5853084 -0.35770705 0.09851549 -0.50830406 -0.3004201 -0.011208485 0.032806396 -0.3511616 -0.5031985 -0.10910548 0.0056963884 -0.045818157 0.38406128 0.057689864 0.1420399 -0.29740712 0.4376076 0.24669059 -0.0023151548 -0.013281396 0.24667412 -0.021061558 0.5119898 -0.03902955 -0.45400444 0.50110674
sort -0.06691554 -0.008510244 0.26880026 0.7123029 0.35962033 0.49225447 0.5836806 0.5246794 -0.20473985 -0.8107592 0.5001553 -0.03855938 -0.19912018 -0.42872348 0.9304878 -0.5454775 -0.6151401 -0.24076222 -0.38645318 -0.1975468 0.9633017 -0.61484927 -0.20243391 0.3132291 -0.6300212 -0.4605025 -0.14290626 0.39596456 -0.057789136 0.3308428 -0.3641164 -0.4660555 0.33787593 -0.40233266 0.03432892 -0.2634641 0.5244893 0.15051062 -0.80786276 -0.21357267 -0.052919563 0.069468975 -0.33429027 0.4817966 0.298182 -0.5670485 -0.22005472 0.3347837 -0.32082826 0.33073398
bring -0.3119171 0.39844814 0.14842005 0.1426002 0.71452206 0.28211772 -0.6000913 -0.18268652 -0.42387518 -0.44006002 -0.47456938 0.550154 0.4787505 0.38563934 0.35102737 -0.2278432 0.62630564 0.6072468 -0.64258504 -0.047123324 0.31787843 -0.38256934 -0.032116167 -0.31542268 0.14923951 -0.0055498136 -0.3615994 0.20621456 -0.17078294 -0.67891574 -0.63103783 -0.07787997 0.26655406 0.34253526 0.6820528 0.2653411 0.18270564 0.08352911 -1.2983185 -0.04853063 -0.25708276 0.27329084 1.3826096 0.82422143 -0.88589317 -0.49844146 0.23016542 -0.05939516 -0.21519455 0.034182884
word 0.17432967 0.13317525 -0.6487436 0.26420635 -0.7370105 1.1653572 1.3237876 0.28029805 -1.1897454 0.17421512 -0.29185036 -0.48724684 0.3633852 -0.51443464 -1.1283813 0.2919513 -1.0717386 -1.317669 0.6568336 -0.67661256 -0.18393153 0.039660197 -0.22741196 -0.02642396 -0.32255653 0.27385598 -0.31168595 0.033560257 -0.7389679 0.517768 0.039181914 0.24579157 0.3295952 0.4138536 1.0819563 0.8843231 0.51606464 0.87760854 -0.12471222 0.3925571 0.047476843 -0.30406278 -0.8745114 -0.029189592 0.7164557 0.15373985 -0.31836176 -0.9872707 -0.21107973 -1.1115094
begin 0.26783708 0.4190971 0.3330079 0.75468445 0.38514182 -0.19792525 -0.18083534 0.2676174 -0.18840568 -0.9509812 -0.20131375 0.35897902 0.21298543 0.13361695 -0.2111265 -0.78627384 0.13887538 0.19178277 -0.08215228 -0.115004934 -0.48920703 -0.24508819 -0.57654315 -0.27654737 0.2292267 -0.109772034 0.22249384 -0.06913663 0.04715302 -0.323393 0.13254851 -0.6978406 0.07876694 0.36480165 -0.36418664 0.7015207 -0.12632923 0.14227386 0.063987896 0.49833673 -0.1794283 -0.63835794 0.9503628 0.21549232 0.15498258 -0.38777855 -0.58758783 0.15456851 0.2629233 -0.21125597
city -1.0625628 0.7536303 0.33071575 0.05015947 0.9902954 -1.230469 -0.39103144 -1.1430516 -0.12441473 0.16799705 0.47246873 0.20762762 -0.4135161 -0.9064549 -0.8146989 0.095371924 0.68281543 1.710909 -0.514236 -0.11298852 0.31064188 -0.34532478 -1.0704738 1.6286541 -0.5398356 0.8372376 0.8801975 -1.0056291 0.100973524 -0.8903442 -1.598944 0.39681238 1.0102016 0.30253878 0.8685376 -2.0536156 -0.9186522 -0.3002442 1.3012092 -0.3541246 -0.8077885 0.31573468 -0.7534315 0.9148113 0.0036331979 -0.9675157 0.0065678707 1.2416493 0.5646269 -0.35760975
hand 0.25295106 0.78653336 -0.36573696 -0.4642987 -0.56570566 -0.23579356 -0.6729286 1.1464435 0.8990599 0.34176582 0.6000787 -0.39692375 0.34789583 -0.06620597 -0.0681071 0.19970517 -0.111666285 -0.20138751 -0.5376966 0.27560776 0.13493003 -1.22542 -0.095324844 -1.2793007 -0.3869113 -0.29934654 -0.7516432 1.2851187 -0.17737126 0.62039393 -0.7779477 0.020250747 0.6629411 0.83870184 0.7229777 -0.22821404 0.47046006 0.0023738688 -1.2227283 -1.2704961 1.09359 -0.14991511 -0.0415031 -0.48116136 -0.10851316 0.56212604 1.534139 -0.5918132 0.8118902 -0.22893712
grow 0.2895674 0.38650307 0.11540966 0.4157568 -0.11177867 -0.9700157 -1.1879377 -0.5319955 0.45363826 0.30608547 -0.66416425 0.05610257 0.34084916 1.1288675 -0.4895025 -0.37297285 0.6361535 0.5795459 -0.6917768 -0.11981013 0.58866274 -1.2449758 0.094915174 0.6380115 0.12653987 -0.049836863 -0.111364864 -0.42901313 -1.1174883 -0.5793917 -0.63488275 -0.87691253 -0.20013954 0.77048224 0.662998 -0.72895026 -0.08305143 -0.3413063 1.6449553 0.82104194 -0.116633326 0.05707244 1.2214744 1.146596 -0.107935525 -0.5298797 1.1913457 0.36783227 -1.0273958 0.6166094
datum 0.104215086 -0.7085955 0.50029874 -0.5989961 0.13281967 -0.04901835 -0.44073868 -0.95360357 -2.2125537 -0.6167611 1.4889803 -1.1816927 -0.97562885 -0.0730048 2.43451 -1.0591848 -1.8663263 0.74436694 -0.27184778 0.9846323 0.52728283 -0.88358957 0.6034421 -1.021502 -1.900526 0.6205609 -0.10166234 -0.23509441 0.8674619 0.28675765 -0.15532716 -0.29180908 -0.26193678 -0.370344 -0.5118971 0.66092974 -0.42026925 0.10391518 -0.10663937 -0.24979672 -0.34325764 -0.6328467 0.60635823 -0.50217575 -0.091199175 1.5489312 -0.37053967 -1.0124116 -1.2431389 -1.1772695
real -0.6492766 0.279706 -0.064904734 0.21305703 0.69139814 0.5691495 0.3569431 0.13550985 -1.1030915 -0.85541534 0.13767299 -0.06951685 0.14854926 -0.07420293 1.2252574 -0.25540364 -0.5526169 0.26066986 -0.63730097 -0.45308763 0.78978187 -0.38188326 0.52950287 -0.030906169 -0.7710232 -0.08397499 -0.702658 -0.010376981 0.5435345 -0.23448566 1.2227906 0.43459994 0.23264496 0.07387262 0.09093739 -0.38410133 -0.028361542 0.5419461 -1.2195733 0.24540387 0.09058784 -0.27357554 0.30826768 0.3660244 -0.65764964 -0.2175443 0.16952825 0.9891039 -0.16814917 -0.39665085
small 0.22182798 -0.6476127 0.83826494 0.23403841 0.5496179 -0.37642276 -0.8710301 -0.0018428685 -0.6794687 0.44903967 -0.8056885 -0.26275375 -0.50549847 0.37611434 1.3803756 -0.07506628 -0.19950035 1.3133299 -0.32462692 -0.11423789 0.20630087 -1.1825106 -0.62300724 0.07922568 -0.047092725 -0.83719337 -0.7085387 0.49586394 -0.04142512 0.6574427 -0.46340013 -0.75808173 0.0004148862 0.074584685 0.43058005 -1.0532478 0.4759512 -1.6089256 0.35665786 -0.25243962 -0.618346 0.10510077 -0.007914065 0.027256647 -1.2812408 0.29150298 1.1987435 0.18947752 -0.82649416 0.8298768
second 0.5012974 -0.6559999 -0.37376413 -1.3520507 0.40922204 -0.25351173 -0.44661418 0.105987385 -0.2679247 -0.524831 -0.7497613 -0.020014191 0.34076327 0.5373053 0.24166569 -0.07584321 -0.6270313 0.16299029 0.38839576 0.18578647 -2.1384642 -0.24016584 -0.5915961 -0.14299701 -0.1081147 -0.5280583 0.09390841 0.31482247 0.10426676 0.54104894 0.69205004 -0.14123031 0.52032405 -0.26691055 -0.033508245 0.19277371 0.22734725 0.30514842 0.29964626 0.24099779 -0.21313804 -0.2065599 -0.13046342 -0.06536209 -0.3566573 -0.408453 0.54081225 -0.45798162 0.44175088 -0.53471094
experience -0.36263567 0.019065525 0.53866535 -0.28254628 0.80500716 1.0608785 0.54065615 -0.07613451 -0.24524748 -1.4131547 0.721527 -1.0999038 0.16049248 0.42888448 -0.50258327 -1.191202 -0.654148 -0.38340452 -0.3145038 -0.09200315 0.45756662 0.7952767 -0.009546528 1.145766 0.3406556 0.15931985 -0.3555252 -0.36860296 -0.721448 -0.31059286 0.64033306 0.5305341 0.6841644 0.7354177 0.8199411 0.2210252 1.2257081 0.26022482 -0.41104394 0.16863836 0.11053459 -0.38193503 0.63296306 -0.29926014 -0.0031702989 -0.30769664 -0.14414571 1.1229115 0.21666953 -1.1881114
ever -0.57584053 0.4150471 0.25259927 0.51803327 0.46417052 0.52936864 -0.2571644 0.3684049 -0.07371638 0.085616484 -0.620855 0.15988623 -0.16980961 0.14338782 -0.010275383 -0.7506405 0.6270566 -0.6614724 0.550158 0.013827031 -0.35696146 0.5924801 0.46172625 -0.6519741 -0.04627582 -0.009196277 -0.04688438 -0.96939576 -0.15248597 -0.14022236 0.66749275 0.5119922 -0.49933589 0.21055776 0.2803129 0.5397786 0.71461135 -0.119974434 0.43202418 0.29204372 0.27421084 -0.42209506 -0.5860559 -0.9523127 0.37026045 -0.04380163 0.20788756 0.65537864 0.3319166 0.10663793
always 0.048743464 0.03257245 0.2510951 0.9860852 0.3579978 -0.12414865 0.35172236 0.8719659 0.16600728 -0.11645194 0.4343514 0.5231291 0.2344185 0.31011438 -0.20409888 0.1148831 0.37774226 -0.67844826 0.29953185 0.10527779 0.5476799 0.50711054 0.16314189 0.102013566 -0.42627543 -0.5591679 -0.2733518 -0.32923505 -0.2830051 0.23087698 0.6060984 0.9814784 -0.24197434 0.5340625 0.57453537 -0.32309955 0.5284415 0.31361085 -0.55735296 0.052083988 -0.18104857 0.368906 -0.08371215 0.378704 0.85242283 -0.36698914 0.18068261 0.29186448 -0.24595879 -0.37990376
person 0.2594636 -0.1652951 0.0022188015 -1.2299008 0.44871068 -0.055950593 0.8373232 0.05875554 0.19411618 0.44114813 -0.3806753 -0.70796764 -0.94771886 0.52354574 -0.8413941 -0.54816544 -0.36329997 -0.96461785 -0.21723281 0.21905817 -0.13286485 0.53468525 -0.066229515 0.0425609 -0.05273844 0.13756153 -0.335252 0.02495198 0.15937339 0.61563843 -0.09519561 1.2418696 0.07886878 0.75985414 0.76458853 -0.516726 0.7625125 0.9668772 0.57652956 -0.73227733 0.24823606 -0.10251421 -0.81618184 -0.33825803 0.3268369 0.3335923 0.57967 0.40765178 -0.32325137 -1.1902858
write -0.12816985 0.03503843 -1.1542238 0.6191128 -0.5202417 1.0300233 0.81228465 0.22832806 -0.5940172 -0.8178678 -1.7961702 0.049637783 -0.32336825 -0.5301982 -1.2405003 -0.3498979 -0.09832335 -1.4321315 0.52048266 -0.32824418 0.11093435 0.5209634 -0.71658856 -1.25165 -1.080989 -0.49660873 0.37280214 -0.07507078 -0.21446969 0.3255566 -0.22789252 1.7369682 0.57620215 -0.21726213 0.16536433 2.0317273 -0.6599102 0.40314904 -0.38772276 0.6483323 -0.56909907 -0.29075816 0.5172191 -0.55441856 0.35855976 -0.06381874 -0.3991238 -0.9014037 -1.1111672 0.3014874
run 0.7148774 0.22557442 -0.8494252 -0.28686363 0.5459316 0.42887107 -0.5351712 -0.09313237 -0.20819269 -0.8984034 -0.36755309 0.020886678 0.441613 0.41258216 0.35885227 -0.40774652 0.6995019 0.37394518 -0.27252665 0.058894068 -0.30664298 0.036939666 0.06547914 -0.9973443 -0.21202223 0.54869854 0.5965494 0.61376995 0.8783163 0.34944123 -0.7363468 -0.40526152 -0.1505098 0.19034693 -0.36126766 -0.94719714 -0.29138088 -0.4021373 0.5479113 -0.078880936 0.1381678 0.32039666 -0.49385792 0.21405132 -0.27780315 0.16236003 1.1519616 0.013184359 -0.30007172 1.3401355
four 0.64843273 -0.45488295 -0.63651454 -1.0283078 -0.15379919 -0.5298436 -1.2001004 -0.094582334 0.38980094 -1.0117924 -1.9234587 0.11135544 -0.35614893 -0.31621772 -0.65380216 -1.1199156 -0.72384804 0.042003147 -0.16890264 0.19815497 -3.1180744 -0.4789967 -0.68140346 -0.054126922 -0.49645722 -0.53342897 -0.6128913 0.28773898 0.16594268 -0.010403038 -0.01767298 -0.19244671 0.07750421 -0.95113003 -0.16379699 -0.26659578 0.0010408659 0.37292635 1.0436643 -0.6092711 -0.22480749 0.42852047 0.23210008 0.36528337 -0.07703604 0.1756039 1.1735764 -0.0014638937 0.27104715 0.2340977
away 0.21705256 0.70625615 0.09031961 -0.20548283 -0.017243542 -0.93952686 -1.4237281 0.773223 -0.2723119 -0.7624722 0.5000923 0.7552449 0.9711354 0.34502316 -0.663144 -1.5369599 -0.45241925 0.56699204 0.2779848 0.671344 -0.38023815 -1.0749263 -0.08223925 -0.43529773 0.06165274 0.19731548 0.12770793 0.9096428 0.14754906 1.2695341 -0.46180052 -0.25873643 -0.31759366 0.09989478 -0.025766855 -0.311274 -0.10214241 -0.4947714 0.5731711 -0.93615323 0.89122516 0.34424022 -1.3280412 -0.92291564 0.38451293 -0.11587212 1.2542142 0.7912521 0.28446627 0.39055637
bad 0.12849022 -0.15009423 -1.086496 0.04092934 1.030195 0.14013371 0.35025126 -0.8184109 0.36652106 0.93339413 1.13255 0.21663563 0.88188934 -0.6125212 -0.28991938 -0.17739728 0.7435351 -0.80925804 0.2733074 -0.38591143 0.7838587 0.4707278 0.82556415 -0.0963275 0.1642425 -0.26172185 -0.48819497 0.25326598 -0.33561063 0.9625213 0.6696849 0.723039 -1.6728436 -0.775728 -0.20764972 -0.13301629 -0.2701116 0.4096468 0.20481299 1.1368318 0.6261805 -0.9127497 -0.34286314 0.2418037 0.05568903 -0.9307926 0.75514734 0.014313892 0.023434764 -0.42301723
family -0.08615528 0.12843686 0.50977564 -0.20036279 0.7361398 -0.5869989 -0.4960976 -0.6562562 -0.31933117 0.78821445 -0.542561 0.182067 -1.5500228 0.77320564 -2.5540392 -0.50962055 1.0910954 -0.8312365 -1.1986573 0.41500688 -0.04404923 0.09401088 -0.91380495 0.1884723 0.95465815 -0.49441692 -0.18686089 -0.7321872 -0.2762372 0.24032354 -0.7204984 0.5442981 -0.6186509 0.9868659 0.73037964 -1.0864015 0.11399014 -0.13285929 -0.030537209 -0.33497828 -1.452443 0.17267968 0.6858832 -0.19473936 -0.33367184 0.25899014 1.1909515 0.8329221 0.4776585 -0.98339957
body 0.8792007 0.4025149 2.1467266 0.109590724 -0.050496146 -0.030441891 -0.6192814 0.085611574 1.7518473 0.32743555 0.2658721 -0.4597263 0.22417122 1.0147834 -0.069207005 -1.627519 -1.3275864 0.089137286 -0.017337603 -1.0390363 0.26612484 -0.8668305 -0.20019898 0.96356565 0.14253151 -0.50888544 0.6068075 0.95807827 0.09896957 -0.21730581 -0.28874803 -0.5198385 1.2254065 0.59414726 0.3222852 -0.20986946 1.4378299 -0.24734418 -0.27703077 0.04940942 1.2774508 -1.236505 -0.22667712 -0.07151035 0.5764135 1.3166152 0.7697304 0.69891405 -0.54026836 -0.35890898
home 0.3212947 0.726255 -0.38652176 0.26615435 0.2810603 0.08901753 -1.1589683 -0.6976576 -0.20382975 0.07180829 -0.42934734 0.6518276 -0.24675699 0.45514345 -1.2646564 -0.7859505 0.2125673 0.3529407 0.07183011 0.6310273 -0.17398101 -0.5248677 0.04850071 -0.801395 0.7770713 0.13385242 0.29646444 -0.76540923 0.36684504 0.06024439 -1.3930991 0.3687538 -0.24722537 0.4386203 0.109468125 -0.7193576 -0.73089904 0.05666936 -0.71219814 -0.54724014 -0.57332027 0.932422 -0.3544135 -0.14404888 -0.2575498 0.13830006 1.7614647 1.0005866 0.9070865 -0.5458931
power -0.16891184 0.4210874 0.6094982 0.15272246 0.23658782 -1.0511895 -0.67084235 0.5738839 -1.0771239 -0.26557082 0.71153927 -0.43768224 0.47168216 0.12071561 0.9632528 0.21201341 0.30458385 0.5014406 0.13888764 -0.29766417 -0.0012432571 -0.24677594 -0.20262627 1.4858327 -0.7277229 1.4695225 0.5228167 0.44740674 0.59092677 -0.8846033 0.38679126 -0.66260225 -0.17987339 0.32798144 1.6240888 -1.0377592 0.056090284 0.17822605 -0.3779756 1.7216042 0.82513404 -0.2934208 0.028744774 1.3388985 0.34785926 2.0835235 0.29987407 -0.50580037 0.18499963 -0.9820449
whole 0.61414665 -0.15220301 0.11954469 0.8328062 0.5051238 0.02929714 -0.7397982 -0.3578445 -0.44874007 -1.540732 -0.08705561 0.5308895 -0.46783882 -0.110049315 0.32918137 -0.29795888 -0.6177968 0.39997384 -0.46541703 -0.27058473 0.70055664 -0.9808004 -0.9864851 0.6416688 -0.15490562 -0.30866227 -0.011661913 -0.18310134 0.3466104 0.0075398195 -0.67425376 -0.23698209 0.15842493 -0.14678039 0.040147856 0.5423665 0.63188803 -0.3849065 0.07600842 -0.32610673 -0.6771952 -0.784383 -0.1009294 0.35322154 -0.0072437916 -0.49757686 -0.27719575 -0.2697878 -0.59629434 0.009924497
keep 0.55947673 0.35165277 0.28072995 0.48270518 -0.023876196 0.13430238 -0.92748606 -0.2672766 -0.1405626 0.0013189517 -0.13844225 -0.051976953 1.440844 0.28603128 0.14823727 -0.5248579 0.57326776 -0.3747247 0.12114797 0.17215705 0.17949761 -0.8070745 0.6834573 -0.4785144 0.03797075 0.44659728 0.5794539 0.6236957 0.13754189 0.09314238 0.090146855 0.087934576 -0.5827054 0.64837366 -0.31609723 -0.52341855 0.57428265 -0.47365403 -0.49937847 -0.63526493 0.24226937 -0.0061574206 0.11627424 0.079802305 0.56081265 0.06467014 1.9832319 -0.107394524 0.08368243 -0.39486578
guy 0.47196054 0.7586502 -0.7011501 0.5629175 -0.1391241 0.80911237 0.6097441 0.86311543 1.0373958 0.17748827 -0.31900772 0.25319982 -0.31718636 0.41790366 -0.2725207 0.511336 0.10670195 -0.52016234 -0.3442204 0.45362037 0.107349895 0.15315844 0.3350004 -1.3727244 -0.49152863 0.16864307 -0.2828048 -0.570031 0.31960166 0.99084693 -0.4556562 0.4419364 -0.5506928 -1.2620252 0.49146435 -0.26770356 -0.3479797 0.3704708 0.24972425 -1.17413 -0.27720922 0.5182673 -1.0988665 0.24384849 -0.07853299 0.2648987 0.39232004 -0.094197854 0.4318111 0.40823525
cell 1.5764906 0.27043343 1.0830178 -0.09519351 -1.8207709 -0.41813898 0.1204206 -1.3166018 0.2455376 1.1207969 -0.63754946 -1.531905 -0.16612703 1.8845634 0.3396298 -2.3627572 -1.4940667 1.995662 0.8809686 -0.6023288 -0.4577149 -1.1117055 -1.0481886 0.5651473 0.6891596 -1.305235 0.89280635 0.3799974 1.6413056 -0.66283333 -1.2344036 -1.7347776 -0.33188537 0.17838725 0.11636954 -0.55142564 1.898244 0.45756233 0.84473914 0.02454141 1.484415 -0.62843055 -1.2771393 -0.13731785 0.31896004 1.2315062 0.21744324 -0.33550647 -3.248621 -0.2667359
space -0.042624798 0.5957897 1.5187519 0.91705084 1.2708306 -0.39804685 -0.8758825 0.31466424 -1.3377459 -1.1149199 0.747875 -0.4048656 -0.3006462 -0.7959319 0.9368848 -1.0656354 -0.8778637 1.483048 0.20296903 0.22466902 -0.29085213 0.14467631 0.111415155 1.3476979 -1.5215257 0.79136866 0.3997715 0.4440975 0.062471382 -0.7228786 -1.1713523 0.18889324 1.5280762 0.18006688 0.84837997 -1.3804486 1.0854512 -1.6726265 -0.81377304 -0.8834582 -0.6452019 0.42052072 -0.6373366 -0.20784047 0.5552361 0.37564346 -0.06863892 0.3998133 0.60652167 -0.013071312
light 0.8749037 2.0242608 1.2631632 -0.43737325 -0.60109 -1.1080339 0.1900931 0.105749436 0.37821332 -0.86901486 -1.3410732 -0.8923944 1.1056173 -0.9429282 1.0456141 -1.7815276 -1.355334 2.3092098 -0.3606039 -1.2681658 0.32833797 -1.2578266 1.4058373 0.47424558 -0.79011977 0.19674352 0.377421 1.0325341 -0.028440474 0.8689118 -0.23079608 -1.454916 -0.23278031 -0.38548398 0.6295168 -1.3368149 0.6841823 0.1528825 -0.48006526 -0.50824165 0.2958141 0.1535399 -2.1055646 -1.2831242 0.53392375 0.31261033 0.59854025 -0.2639343 0.16446167 -0.6389414
five 0.16046453 -0.34416592 -0.9329711 -1.3510638 -0.03647698 -0.8287697 -1.1416361 -0.18948175 0.3621876 -0.6370585 -2.0974598 -0.16667819 -0.36579487 -0.049066816 -0.55915874 -0.7714985 0.16306409 -0.11590747 -0.15925954 0.28114453 -3.382632 -0.61994594 -0.56524163 -0.33139086 -0.7574149 -0.36158887 -0.52673924 -0.0005567137 -0.09830715 0.24654196 0.24726085 -0.23422766 -0.18659875 -0.5836979 -0.25367382 0.047111534 0.113302685 0.012747173 1.4530859 -0.5215745 -0.06837663 0.40260044 0.014408826 0.22752471 0.1321036 0.5483927 0.6863306 0.02031111 0.18974318 0.5272666
reason 0.21506573 -0.7311456 -0.17883134 -0.35769978 -0.012313875 -0.5712339 0.35263085 0.1927774 -0.25881788 0.18812063 1.355259 -0.09830261 -0.05522846 -0.42501453 -0.07690776 -0.12587948 0.13047051 -0.7731242 0.47707638 -0.25877762 -0.037860867 0.09584869 -0.5648137 0.16597731 -0.37961242 -0.15776291 -0.20688279 -0.53074855 0.029236265 -0.4647497 0.7695342 0.95532644 -0.379604 0.36320892 0.23965998 -0.28749245 0.23900558 0.15743926 -0.19108215 0.19852366 0.510703 0.15015341 0.34816104 -0.089502744 -0.21082069 -0.1081512 -0.387615 -0.2619245 -0.7706268 -0.29027763
study -0.16609894 -1.3435974 0.71719164 -0.4709174 0.18553185 0.00184781 1.0322037 -0.042362817 0.32240245 -1.1423801 0.11811599 -0.49799773 -0.8463278 0.18692398 -0.03375027 -1.1543355 -0.64446354 -0.4054693 -0.47707283 0.40505597 -0.30222422 0.6108389 0.31533745 -0.5222681 -0.55876863 -0.05539914 -0.22573528 -0.3477177 -0.6323671 -0.4935918 -0.86045074 -0.55372196 -0.9384265 0.29420325 -1.2982974 1.2403158 -0.709292 0.20484667 0.6311029 0.96687347 -1.251622 -0.24622239 1.662936 0.5045674 -0.4332814 0.7060048 -1.0759448 0.4092306 -1.2934813 0.93808126
community -0.8648717 -0.61021185 0.5880865 0.31955338 0.8211926 -0.64788395 -0.21627392 -1.1710844 -0.5166859 -0.08985886 0.29726115 1.0703335 -0.7794454 -0.09852382 -0.996217 -0.7192102 1.8516351 0.48480827 -1.1453758 0.6109424 1.4643737 0.13999647 -1.507883 0.5932966 -0.13415906 1.0012429 -0.37151316 -0.7601151 -0.07362956 -1.3818508 -1.6028223 0.5212978 0.13092683 0.98676974 0.20352957 -0.91495174 0.7128112 0.19457947 -0.38930953 0.015883587 -0.7607768 -0.27990016 0.981661 0.10757462 -1.2464136 0.77601016 -0.21196494 0.66075116 -0.14887339 -1.347272
money -0.28562725 -0.14668946 -0.8651866 -0.5068448 0.58678484 -0.6884862 -1.1535627 -1.427428 -1.547514 0.90967953 0.51639175 -0.10180791 -0.6360436 0.36460182 -0.13757402 0.62098867 0.8550054 -0.7754062 0.1773191 1.5286088 0.55156934 -1.1591139 -0.24507886 0.36109763 -0.6421148 1.0017259 -0.4112187 -0.20950581 1.20812 1.1418421 -0.034993134 -0.31436843 -1.3720145 -0.13914531 0.5326488 0.5462193 0.61419976 -0.14562285 0.22157949 -0.4034117 -1.039775 0.9119002 0.18348518 0.002834516 -0.7557099 1.7482563 1.9315697 1.3631905 1.008671 -0.55345553
sense -0.70646685 0.047021758 1.2575978 0.23452613 0.231831 0.147151 0.35520414 -0.011714217 -0.4743185 -0.17692567 0.960522 -0.83508015 0.7172472 -0.19215126 0.26713553 -0.555017 -0.6930124 -0.49612755 0.3948284 -0.39430776 0.5300258 0.5823205 -0.2853902 0.950749 -0.8605332 0.10332897 -0.5348715 0.6483541 -0.2250029 -0.38653442 0.89139485 0.33622402 0.6738422 0.7711537 0.59663105 -0.42351404 1.3855401 -0.101151094 -1.5642687 0.25246692 0.098788984 -0.239186 0.12385919 0.07139764 0.6210715 -0.00030212165 -0.34066734 0.4252038 -0.54390395 -0.6262356
information -0.06765145 -0.7035575 0.80911314 -0.53925693 -0.19236444 0.013983241 0.02609693 -0.9527754 -2.8138494 -0.38155836 0.8140531 -0.9103689 -0.7334205 -0.08751218 1.5337075 -1.6588888 -1.1447569 0.2000977 0.07436069 0.48555252 1.542113 -1.4599108 0.12747735 -0.20792727 -1.1264437 0.016337553 0.5595369 -0.12832184 0.68201846 0.31424302 0.28722143 -0.874613 0.25794008 0.43383554 0.23462814 0.6791173 0.73429227 0.6954844 -0.44059232 0.40779698 0.31089225 -0.655713 0.40663245 -0.52548414 0.37709352 2.321132 -0.27636936 -0.42697966 -1.2393694 -1.7782046
company -0.35411862 -0.6554262 -0.62594134 -0.099263646 0.031392343 -0.4321686 0.24229138 0.027686026 -1.7875654 0.7403206 0.028759701 -0.0896724 -0.658992 -0.39727002 1.125109 0.9957029 0.8401933 -0.1868824 -0.23530437 1.91995 0.7093315 -0.3684383 -1.1686329 -0.9559458 -0.19397576 1.1447161 0.6046816 -1.0535322 1.8902625 -1.1086439 -1.221456 0.011268624 0.20862539 -1.7717826 -0.023941435 -0.22175905 0.5089463 0.16293316 0.63683575 0.6017777 -0.573887 0.4083617 1.0972248 0.47567877 -1.2767774 1.9059715 0.005960084 0.06931227 -0.26774374 0.09959956
everything 0.06861271 -0.25546953 0.026135556 0.13186927 0.17140888 -0.121840626 -0.6423672 0.15492946 -0.24649802 0.0965302 0.18150204 -0.056735214 0.33061117 0.2283624 0.79331493 -0.022690829 -0.44861874 -0.5842899 0.9499439 -0.3341534 1.0304098 -0.26170635 0.21643092 -0.09571372 -0.89441407 -0.480617 0.5200765 -0.123418294 0.3520921 0.4859113 0.10765628 -0.0926511 0.46654966 0.3702801 0.37191954 0.04699637 0.7596092 -0.02200657 -0.35836977 -0.2669687 0.022391627 -1.0199869 -0.67003995 -0.4788506 1.1171376 0.124273136 0.5149197 0.58471614 0.026131723 -0.38098603
computer 0.5494388 1.2361363 -0.31453052 0.1509403 -0.8898224 0.75401735 -0.22768906 -0.0796425 -0.75916255 -0.9872312 -0.67084306 -1.2224016 -1.2313355 0.8473347 2.3999963 -0.22741844 -0.89993733 0.028750021 1.0292587 -0.16205466 0.9412838 0.63373846 -0.59320706 -1.571035 -1.8786571 -0.05124616 -0.07194855 -0.17971446 0.4762225 -0.24965627 -0.079731956 -0.33882138 1.4796469 -1.1477181 -0.79399467 -0.27751327 -0.13733009 1.2173139 -0.089405864 0.030043254 -0.5778121 -0.9632197 0.0074240887 0.0010696948 -0.017381119 1.0858811 0.6884022 -0.47650033 -1.2591422 -0.765991
future -1.4770617 0.38379568 0.14065048 0.12588407 0.9622163 -1.3740257 -0.6816155 -0.43870744 -0.33561 -0.5695066 0.45786187 -0.17611958 0.18784241 0.865077 0.9329545 -0.47755906 0.19979756 0.07101605 1.0774935 0.43950805 0.51116574 0.20849824 0.12374602 0.9970125 -0.10658106 0.913645 -0.7562604 -1.0056984 0.51590884 -0.60898274 0.31661153 -0.21631876 -0.83157945 1.1221482 0.33861178 -0.26762378 0.5971496 0.68709874 -0.37928727 -0.28945816 -0.17705703 -0.69024384 0.92303646 0.7699731 0.30135855 -1.0887117 -0.44951668 -0.47708866 0.17718664 -0.9947527
large -0.046162087 -0.93119186 1.1219189 -0.0034555127 1.4259918 -0.43743762 -0.9710063 -0.3870943 -0.7265186 0.48051602 -0.4101597 -0.055441383 -0.42592373 -0.3888469 1.5257704 0.5244599 -0.2234391 1.3677716 -0.9668505 0.2633011 0.30206925 -1.2989187 -1.1768055 0.2904129 -0.43725976 -0.3698397 -0.61363256 0.33201647 -0.2801795 -0.26080137 -0.13760448 -0.89812046 0.30010727 0.037286248 0.09003716 -0.9438995 -0.11295167 -1.2788894 0.921775 0.52050745 -0.19140291 -0.46391284 0.024759198 0.5742252 -1.584938 0.36827886 0.2252275 0.16267976 -0.8874076 0.69672775
10 -0.122449555 -0.36524436 -1.5999186 -1.6934512 0.34956485 -1.287087 -1.0626936 -0.4826012 0.49800256 -0.30775857 -2.377319 -0.368827 -0.420389 0.049061056 0.003560929 -0.2765662 -0.095335126 -0.00842177 0.25192338 0.2913329 -3.0385017 -0.8025721 -0.65582883 -0.3063552 -0.797437 0.15832582 -0.42009476 -0.43225008 0.26553258 0.60637 0.45207524 -0.978471 -0.21125387 -0.19375993 -0.39541325 -0.16127983 0.06917022 0.11119935 2.1460285 -0.66088337 0.03324343 0.13924599 0.8419677 0.46566063 0.3348899 0.9136593 0.9182954 -0.061124828 0.63637817 0.75946534
picture 0.5867099 0.4338283 -0.15538265 0.23315947 0.44225007 0.8968747 0.33536693 0.7352063 0.3557911 -0.29920623 -0.33739826 -0.81037617 -1.1813124 0.14398144 0.43384245 -0.17243572 -1.3150257 0.7600134 -0.60050297 -0.014769254 -0.62814033 -0.61042666 0.6366365 -1.205084 -0.59136146 -0.33299443 0.61011183 -0.80315334 -0.6836583 0.272578 -0.5422013 0.092690475 0.33027864 0.36205283 0.32246593 0.35840687 -0.51183665 -0.082109354 -0.3305907 -0.87039894 0.063139014 -0.078347325 -0.60745966 -0.21547133 0.30557644 -0.81993467 -0.102117516 -0.80737835 0.07565549 0.1706642
car 0.363626 1.586769 -0.44636047 -1.6523743 -0.0714687 -0.8647918 -0.6927608 0.26764166 -0.019150158 -0.0822018 -0.12397585 -0.93519086 0.3191986 -0.19184257 0.9154063 -0.04946647 -0.777585 -0.8515067 0.6088075 0.06064327 -0.058475006 -0.233647 -0.0016329264 0.08923545 -0.09518429 1.225804 0.41582745 -0.4166513 2.3458018 -0.3175807 -0.80493814 0.014149399 0.24731065 -1.3624045 -0.33477905 -2.877345 -0.48013142 0.08055528 0.25481558 -0.8921614 -0.41835743 1.6120939 -1.9770613 0.5337492 0.11336436 0.025256967 1.3644302 0.627012 0.8748727 1.047391
friend 0.844137 0.761158 0.023413997 0.5710287 0.0012652958 1.0437176 0.63061726 1.2330443 -0.6047804 0.7794922 -0.9568834 0.78289825 -0.7501231 0.9009805 -2.4101274 -0.029040342 0.13129778 -0.39294314 -1.1070343 1.0601921 0.119479366 0.74847853 -0.32159665 -1.0985972 -0.2242202 -0.3066208 -0.07017006 -0.7497083 0.21113119 0.606241 -0.59914356 1.4466134 -1.037268 -0.49485818 0.4149563 -0.61949563 -0.9471937 1.0923848 -0.5332507 -1.071928 -1.3544306 0.29794255 0.66840196 -0.1892524 -0.49966824 0.33764565 0.6068721 0.020149544 -0.11981712 -0.15187302
moment 0.35012397 0.9921483 0.39742225 0.108145475 1.0355461 0.7268947 0.23495696 0.51315266 -0.5265264 -1.0431887 0.4786347 -0.74426806 0.49108568 0.36638936 -0.38148558 0.23531462 -0.29079604 0.10134571 0.37439048 -0.46372592 -0.712157 0.18372579 -0.12169191 -0.25246465 0.36353204 -0.18473394 -0.04395887 -0.55914843 -0.17524686 -0.16505213 1.108045 0.100866355 -0.06991232 0.4886084 0.96717465 0.52928174 0.6225297 -0.023257699 -1.0090722 -0.6146009 0.5075571 -0.36415616 0.023167077 -0.741842 0.6256409 -0.52650326 -0.7513385 0.5055828 1.0312463 -1.3093144
open 0.2341208 1.0338815 -0.22727253 0.8761003 0.16480316 -0.003310766 -0.5661068 -0.97266394 -0.90971893 -1.7073039 0.27835733 0.56090355 1.0343071 0.12679446 0.23272629 -0.21404149 0.62927926 0.67415863 -0.7923891 1.6071467 1.1585252 -1.7618175 0.46700156 -0.61529005 0.11940068 0.46482977 0.42358068 0.7363009 1.1530721 -0.9728064 -0.5058615 0.9980698 0.8707189 0.3500344 1.0137138 -0.34229353 0.601647 -1.3233908 -0.36730915 -0.57642937 0.0749369 -0.88907945 -1.2214565 -0.22100157 -0.5383232 -0.07374006 0.11003174 -0.6627501 -0.7691237 0.20082933
case 0.14375141 -0.89411724 0.0013947621 -0.44187292 0.45133466 -0.35829398 0.286032 -0.6344732 0.18514411 0.2850673 0.9587052 -0.44285843 -0.22487295 -0.5513185 0.111941 -1.0052133 -0.19006327 -0.41418037 -0.28937286 -0.49646068 -0.48434827 0.72397286 -0.119288705 -0.6372002 0.10721229 -0.80430984 0.33184296 0.09139073 0.65193653 0.38427883 0.049717974 0.29401147 -0.25019616 -0.036812108 -0.08869411 0.38821504 -0.17530444 0.18746342 0.4190785 0.93083894 1.0220585 0.053118333 -0.3856094 -0.103525795 -0.520772 -0.23750427 -0.39450082 -0.19117546 -0.4053115 0.80752325
face 0.47756547 1.4015491 0.31534618 -0.4887528 0.49679697 -0.40999272 0.36271292 0.09950281 0.42861357 -0.21283951 0.8379331 0.29045245 0.2647909 0.6276346 -0.5226093 -0.06534345 -0.55912983 0.07999777 -1.4696296 -1.4970553 0.084735736 -1.249073 0.16697967 -0.0040506404 -0.30409858 0.07140945 -1.1257491 0.5624263 -0.42225537 0.05783066 0.67125005 0.8415622 0.25302964 0.59623355 0.37032837 -0.56388074 0.4084765 0.16030204 -0.45536277 0.5714144 1.5327864 -0.21899348 -0.3805471 -0.024745222 -0.46890783 -0.4513901 -0.4095694 -0.21218516 0.8372837 -0.7399313
hard -0.061546218 -0.1152463 0.07176148 0.8532488 0.15329035 -0.7900867 0.2100401 0.88800246 0.025230192 -0.27758133 1.256013 0.3873841 0.0884668 0.46192595 0.25737563 -0.45017865 0.8953613 -0.030160585 0.9050193 -0.42861757 0.36545008 -0.3237965 0.18552507 0.049639706 -0.56736547 -0.30139476 -0.8851936 0.2699629 0.16363055 0.66447186 0.77551156 0.51090276 -0.24709548 -0.1541693 -0.16574663 0.108055875 0.5959783 0.35362208 0.2571775 -0.06529845 0.08388605 -0.043277476 0.46040016 0.30422747 0.34020072 0.58526087 0.8705703 0.47723112 0.34725228 -0.6145729
enough 0.3329695 0.1852184 0.36768055 0.30193952 0.6687101 -0.6083542 -0.2658861 -0.24120075 -0.27467462 1.0140322 0.1445252 0.61919105 0.44728523 0.9824059 0.35651994 -0.7906057 1.0290629 -0.2561641 0.7610902 0.20432909 0.2094033 -0.75335366 1.1080298 0.3629845 -0.96553475 -0.1816648 -1.0293336 0.035915557 0.31463507 0.099933706 0.4831868 -0.30966228 -0.53976405 -0.0011929073 0.4210482 -0.21286625 0.23340864 -0.34878924 0.5976896 -0.0031057186 -0.015063734 0.3924734 0.44437015 -0.27257317 -0.28867126 1.2457812 1.5603278 -0.24736504 -0.12968956 -0.30143642
book 0.47757772 -0.5393249 -1.0298644 0.94697815 -0.66874874 0.7557328 -0.021458006 0.94081223 -0.5229066 -0.96396303 -1.4281942 -0.4608128 -1.1229984 -0.749379 -1.1538717 -0.7738889 -0.98830557 -1.2333782 0.28969723 0.2662813 -0.024178758 -0.30038375 -0.5112438 -1.2794583 -1.4849912 0.5570547 0.26375705 -0.97892267 0.5564619 0.35574833 -1.1650193 1.4203007 0.5619518 -0.48462802 1.0953114 2.2155511 -1.213646 0.38923174 -0.56362027 -0.080473654 -0.3633606 -0.023870386 0.2715138 -0.98802316 0.7733359 0.008338874 -0.5552613 -0.40632662 -0.062125202 -0.2775569
without -0.1682452 0.6081614 0.25019848 -0.020448413 0.52726334 -0.49198854 -0.6161509 -0.7499852 -0.8480156 0.07192715 -0.013838404 0.6356458 0.7008391 -0.35058674 -0.027633034 -0.91309303 0.7387021 -1.0892943 0.05395369 -0.21229397 0.681992 -0.06763001 -0.28963348 -0.29413617 0.550695 0.03373268 0.5263113 0.79051876 0.1446425 -0.15661612 0.47274134 -0.083506055 0.48215815 0.9590646 0.17326814 0.11176043 1.0577266 0.26966643 -0.6153877 0.41433856 0.88440084 -0.021128237 -0.51802415 0.09892613 0.2500401 0.7275738 0.84251547 1.0190347 0.030340133 0.19351968
